{"learner":{"attributes":{"best_iteration":"86","best_score":"163.57044615584056","scikit_learn":"{\"_estimator_type\": \"regressor\"}"},"feature_names":[],"feature_types":[],"gradient_booster":{"model":{"gbtree_model_param":{"num_parallel_tree":"1","num_trees":"112"},"iteration_indptr":[0,1,2,3,4,5,6,7,8,9,10,11,12,13,14,15,16,17,18,19,20,21,22,23,24,25,26,27,28,29,30,31,32,33,34,35,36,37,38,39,40,41,42,43,44,45,46,47,48,49,50,51,52,53,54,55,56,57,58,59,60,61,62,63,64,65,66,67,68,69,70,71,72,73,74,75,76,77,78,79,80,81,82,83,84,85,86,87,88,89,90,91,92,93,94,95,96,97,98,99,100,101,102,103,104,105,106,107,108,109,110,111,112],"tree_info":[0,0,0,0,0,0,0,0,0,0,0,0,0,0,0,0,0,0,0,0,0,0,0,0,0,0,0,0,0,0,0,0,0,0,0,0,0,0,0,0,0,0,0,0,0,0,0,0,0,0,0,0,0,0,0,0,0,0,0,0,0,0,0,0,0,0,0,0,0,0,0,0,0,0,0,0,0,0,0,0,0,0,0,0,0,0,0,0,0,0,0,0,0,0,0,0,0,0,0,0,0,0,0,0,0,0,0,0,0,0,0,0],"trees":[{"base_weights":[-0E0,-1.916362E1,4.135307E1,-4.1570744E1,6.447678E0,1.7851706E1,7.573406E1,-7.972898E1,-2.8245886E1,-8.928566E0,3.84987E1,-1.4044257E1,3.6543568E1,5.0578064E1,1.1367576E2,-6.2408756E1,-1.324026E2,-4.1291344E1,1.3648899E0,-4.19634E1,4.0032034E0,1.5112163E1,5.616554E1,-6.123836E1,1.5681251E0,1.6773607E1,5.0613182E1,-3.1314123E1,6.106547E1,8.4185745E1,1.6050215E2,-7.154763E1,-1.0291112E1,-2.1317295E1,-1.6257378E2,-1.477595E2,-3.747942E1,3.8636625E0,-2.6455045E2,-1.1773831E2,-2.8759497E1,-1.113268E1,2.7287445E1,-5.000583E1,2.0486113E1,4.4242565E1,1.091971E2,-1.1406533E2,-3.7847404E1,-1.5492367E1,3.845565E1,-6.4848274E1,2.1920885E1,2.442988E1,6.2374374E1,-7.770045E1,3.9436648E0,4.499405E1,1.1108121E2,4.821911E1,1.18602394E2,9.567568E1,2.0550623E2,-6.522081E0,-3.4851887E0,7.3496556E-1,-2.6802514E0,1.8604156E0,-3.4580657E0,-1.1137152E1,-5.9504275E0,2.5082743E-1,-1.0862826E1,-3.0776458E0,-1.2662318E0,-6.2894404E-1,2.6981146E0,-2.16914E1,4.2364904E-1,-9.035936E0,-7.572791E-1,-2.8488655E0,-3.2013434E-1,-3.2189775E0,-9.334694E-2,7.444238E-1,2.9389918E0,6.467043E-1,-5.450607E0,3.0408418E-1,2.6913228E0,1.0562273E0,3.6594725E0,3.951309E-1,7.3969646E0,-7.425215E0,1.0947032E-1,-4.9832983E0,-2.669758E-1,-7.0226884E-1,-1.0787628E1,1.5627455E0,9.382527E0,-2.5893754E-1,-6.7321253E0,3.5067755E-1,2.5605097E0,-7.376442E-2,2.6760995E0,3.1182797E0,6.69668E0,3.826501E0,-5.7223916E0,-3.3261755E0,2.482923E0,-1.199747E1,2.887134E0,7.052958E0,-5.040909E0,8.347656E0,1.8934424E0,8.990161E0,1.8854475E0,3.4190152E0,9.77748E0,7.598501E0,1.5000706E1],"categories":[],"categories_nodes":[],"categories_segments":[],"categories_sizes":[],"default_left":[0,0,0,0,0,0,0,0,0,0,0,0,0,0,0,0,0,0,0,0,0,0,0,0,0,0,0,0,0,0,0,0,0,0,0,0,0,0,0,0,0,0,0,0,0,0,0,0,0,0,0,0,0,0,0,0,0,0,0,0,0,0,0,0,0,0,0,0,0,0,0,0,0,0,0,0,0,0,0,0,0,0,0,0,0,0,0,0,0,0,0,0,0,0,0,0,0,0,0,0,0,0,0,0,0,0,0,0,0,0,0,0,0,0,0,0,0,0,0,0,0,0,0,0,0,0,0],"id":0,"left_children":[1,3,5,7,9,11,13,15,17,19,21,23,25,27,29,31,33,35,37,39,41,43,45,47,49,51,53,55,57,59,61,63,65,67,69,71,73,75,77,79,81,83,85,87,89,91,93,95,97,99,101,103,105,107,109,111,113,115,117,119,121,123,125,-1,-1,-1,-1,-1,-1,-1,-1,-1,-1,-1,-1,-1,-1,-1,-1,-1,-1,-1,-1,-1,-1,-1,-1,-1,-1,-1,-1,-1,-1,-1,-1,-1,-1,-1,-1,-1,-1,-1,-1,-1,-1,-1,-1,-1,-1,-1,-1,-1,-1,-1,-1,-1,-1,-1,-1,-1,-1,-1,-1,-1,-1,-1,-1],"loss_changes":[3.1714828E7,1.5695956E7,1.0228878E7,7.398682E6,6.2951605E6,4.498246E6,4.862634E6,3.374056E6,4.181654E6,3.6902445E6,1.7040595E6,2.0572715E6,1.3157715E6,2.683733E6,2.714244E6,1.352903E6,3.075647E6,3.005059E6,2.212601E6,2.40404E6,2.1920788E6,6.3560975E5,1.450881E6,8.2286875E5,1.3295062E6,8.469686E5,8.419675E5,5.8802675E5,2.176004E6,1.527391E6,2.120934E6,1.162639E6,3.4150797E5,4.0767822E5,9.14652E5,1.3060645E6,1.634778E6,1.9468462E6,8.372825E5,1.221238E6,9.100699E5,1.5347544E6,7.8603725E5,3.5295066E5,6.225888E5,8.5555075E5,6.1054E5,2.365875E5,7.41304E5,8.822764E5,9.4476694E5,3.3998397E5,6.242194E5,4.5234112E5,9.31249E5,4.3623125E5,4.874102E5,1.684245E6,9.18205E5,9.265356E5,1.715694E6,7.9759625E5,1.339828E6,0E0,0E0,0E0,0E0,0E0,0E0,0E0,0E0,0E0,0E0,0E0,0E0,0E0,0E0,0E0,0E0,0E0,0E0,0E0,0E0,0E0,0E0,0E0,0E0,0E0,0E0,0E0,0E0,0E0,0E0,0E0,0E0,0E0,0E0,0E0,0E0,0E0,0E0,0E0,0E0,0E0,0E0,0E0,0E0,0E0,0E0,0E0,0E0,0E0,0E0,0E0,0E0,0E0,0E0,0E0,0E0,0E0,0E0,0E0,0E0,0E0,0E0,0E0,0E0],"parents":[2147483647,0,0,1,1,2,2,3,3,4,4,5,5,6,6,7,7,8,8,9,9,10,10,11,11,12,12,13,13,14,14,15,15,16,16,17,17,18,18,19,19,20,20,21,21,22,22,23,23,24,24,25,25,26,26,27,27,28,28,29,29,30,30,31,31,32,32,33,33,34,34,35,35,36,36,37,37,38,38,39,39,40,40,41,41,42,42,43,43,44,44,45,45,46,46,47,47,48,48,49,49,50,50,51,51,52,52,53,53,54,54,55,55,56,56,57,57,58,58,59,59,60,60,61,61,62,62],"right_children":[2,4,6,8,10,12,14,16,18,20,22,24,26,28,30,32,34,36,38,40,42,44,46,48,50,52,54,56,58,60,62,64,66,68,70,72,74,76,78,80,82,84,86,88,90,92,94,96,98,100,102,104,106,108,110,112,114,116,118,120,122,124,126,-1,-1,-1,-1,-1,-1,-1,-1,-1,-1,-1,-1,-1,-1,-1,-1,-1,-1,-1,-1,-1,-1,-1,-1,-1,-1,-1,-1,-1,-1,-1,-1,-1,-1,-1,-1,-1,-1,-1,-1,-1,-1,-1,-1,-1,-1,-1,-1,-1,-1,-1,-1,-1,-1,-1,-1,-1,-1,-1,-1,-1,-1,-1,-1],"split_conditions":[3.995492E-1,4.8303604E-2,6.0084873E-1,-1.0002134E0,2.0560429E-1,-1.7934932E-1,3.9039347E-1,8.702623E-1,9.226968E-2,-5.000051E-1,-3.4471327E-1,-1.0002134E0,1.1930827E-2,-1.2249402E0,2.4601771E-1,5.15704E-1,1.3303967E-16,-1.9257618E0,1.3575737E0,-1.4637288E0,-8.78565E-2,-1.2249402E0,2.7745044E-1,-3.8965225E-1,5.447787E-1,-6.8402594E-1,-5.860998E-1,2.681768E-1,9.2016524E-1,8.4311014E-1,-3.090909E-1,-5.9679246E-1,5.264059E-1,2.7345228E-1,6.932322E-1,-7.524678E-1,-4.9796958E-2,5.1561004E-1,5.92415E-1,3.2990554E-3,1.1541769E-1,-1.1090316E0,3.5445312E-1,-1.4683849E-1,-2.8861541E-2,-1.222438E-1,-9.1000307E-1,6.4460456E-1,-3.8006172E-1,9.5202327E-1,1.13809E0,-1.6577747E-1,8.3791256E-2,-9.106805E-2,3.0719638E-1,-5.267418E-1,-4.092578E-1,-2.9341936E0,1.5599905E0,-1.5191292E0,3.6616218E-1,9.740535E-1,4.183683E-1,-6.522081E0,-3.4851887E0,7.3496556E-1,-2.6802514E0,1.8604156E0,-3.4580657E0,-1.1137152E1,-5.9504275E0,2.5082743E-1,-1.0862826E1,-3.0776458E0,-1.2662318E0,-6.2894404E-1,2.6981146E0,-2.16914E1,4.2364904E-1,-9.035936E0,-7.572791E-1,-2.8488655E0,-3.2013434E-1,-3.2189775E0,-9.334694E-2,7.444238E-1,2.9389918E0,6.467043E-1,-5.450607E0,3.0408418E-1,2.6913228E0,1.0562273E0,3.6594725E0,3.951309E-1,7.3969646E0,-7.425215E0,1.0947032E-1,-4.9832983E0,-2.669758E-1,-7.0226884E-1,-1.0787628E1,1.5627455E0,9.382527E0,-2.5893754E-1,-6.7321253E0,3.5067755E-1,2.5605097E0,-7.376442E-2,2.6760995E0,3.1182797E0,6.69668E0,3.826501E0,-5.7223916E0,-3.3261755E0,2.482923E0,-1.199747E1,2.887134E0,7.052958E0,-5.040909E0,8.347656E0,1.8934424E0,8.990161E0,1.8854475E0,3.4190152E0,9.77748E0,7.598501E0,1.5000706E1],"split_indices":[638,658,682,338,682,658,658,631,820,418,820,338,659,426,824,659,9,682,811,682,820,426,824,440,820,616,820,484,484,778,430,352,703,475,682,42,418,682,212,330,829,682,659,132,803,66,308,570,659,496,824,497,682,242,824,321,571,286,821,3,403,570,769,0,0,0,0,0,0,0,0,0,0,0,0,0,0,0,0,0,0,0,0,0,0,0,0,0,0,0,0,0,0,0,0,0,0,0,0,0,0,0,0,0,0,0,0,0,0,0,0,0,0,0,0,0,0,0,0,0,0,0,0,0,0,0,0],"split_type":[0,0,0,0,0,0,0,0,0,0,0,0,0,0,0,0,0,0,0,0,0,0,0,0,0,0,0,0,0,0,0,0,0,0,0,0,0,0,0,0,0,0,0,0,0,0,0,0,0,0,0,0,0,0,0,0,0,0,0,0,0,0,0,0,0,0,0,0,0,0,0,0,0,0,0,0,0,0,0,0,0,0,0,0,0,0,0,0,0,0,0,0,0,0,0,0,0,0,0,0,0,0,0,0,0,0,0,0,0,0,0,0,0,0,0,0,0,0,0,0,0,0,0,0,0,0,0],"sum_hessian":[4.0004E4,2.7339E4,1.2665E4,1.4579E4,1.276E4,7.53E3,5.135E3,3.763E3,1.0816E4,8.627E3,4.133E3,2.783E3,4.747E3,3.099E3,2.036E3,2.845E3,9.18E2,7.506E3,3.31E3,2.422E3,6.205E3,1.785E3,2.348E3,6.86E2,2.097E3,1.981E3,2.766E3,3.5E2,2.749E3,1.263E3,7.73E2,2.418E3,4.27E2,1.99E2,7.19E2,2.49E2,7.257E3,3.287E3,2.3E1,3.5E2,2.072E3,3.763E3,2.442E3,1.31E2,1.654E3,1.929E3,4.19E2,2.01E2,4.85E2,1.437E3,6.6E2,1.12E2,1.869E3,8.65E2,1.901E3,1.47E2,2.03E2,2.092E3,6.57E2,6.27E2,6.36E2,3.27E2,4.46E2,6.28E2,1.79E3,2.61E2,1.66E2,8.2E1,1.17E2,5.16E2,2.03E2,4.6E1,2.03E2,3.927E3,3.33E3,2.441E3,8.46E2,1.5E1,8E0,2.64E2,8.6E1,1.147E3,9.25E2,6.85E2,3.078E3,1.456E3,9.86E2,5.5E1,7.6E1,1.019E3,6.35E2,7.51E2,1.178E3,5.2E1,3.67E2,1.85E2,1.6E1,2.01E2,2.84E2,1.413E3,2.4E1,6.06E2,5.4E1,5.3E1,5.9E1,1.059E3,8.1E2,3.84E2,4.81E2,1.583E3,3.18E2,1.4E1,1.33E2,7.7E1,1.26E2,2E1,2.072E3,6.39E2,1.8E1,8.8E1,5.39E2,4.64E2,1.72E2,2.17E2,1.1E2,1.72E2,2.74E2],"tree_param":{"num_deleted":"0","num_feature":"830","num_nodes":"127","size_leaf_vector":"1"}},{"base_weights":[-4.8445575E-3,-1.5354097E1,4.5975388E1,-3.7045547E1,8.272215E0,2.1012539E1,7.977519E1,-7.230176E1,-2.505483E1,-2.5563986E1,1.8812296E1,-4.072688E1,3.730566E1,5.8755566E1,1.20839645E2,-6.072906E1,-1.23277916E2,-4.083172E1,9.0711623E-1,-1.7925743E1,-1.0588448E2,1.4321665E0,3.750674E1,-1.0359885E1,-7.451018E1,1.1103932E1,6.847607E1,3.5556606E1,8.6469475E1,8.397177E1,1.7788533E2,-8.6833176E1,-3.913126E1,-4.906353E1,-1.7763597E2,-1.893161E2,-3.810618E1,-9.308281E0,3.0832321E1,-5.619204E1,-3.8235102E0,3.6669652E0,-2.0914891E2,-9.208583E0,2.0687447E1,2.9632822E1,8.1759224E1,3.3511944E1,-4.257927E1,-8.428032E1,2.1685684E1,-9.339354E0,3.570992E1,4.2839424E1,1.0034409E2,6.049135E1,1.8646538E1,1.1071431E2,2.8045467E1,5.2921677E1,1.26241356E2,1.5249579E2,3.1541013E2,-1.2816272E1,-4.834605E0,-4.19688E0,-1.5127976E0,-5.5179005E0,1.117818E0,-5.3418174E0,-1.2183468E1,3.788089E0,-1.3929185E1,-3.0213983E0,-6.254798E-1,2.3437986E0,-9.453516E-1,6.5059133E0,1.371309E0,-9.193479E0,-2.6031542E0,-2.2122734E0,6.536666E-1,2.6896484E0,-3.3776038E0,-2.293551E1,-6.7675867E0,2.1154813E-1,-1.7058134E0,9.2198655E-2,2.2243624E0,9.650775E-1,3.0509858E0,-3.557783E0,5.5134797E0,-7.9630313E0,2.946454E0,-4.1451864E0,1.5404284E0,-1.288682E-1,-5.5327578E0,-1.0333309E0,8.704036E0,-9.560249E-1,4.8828697E0,-1.4309706E1,2.346595E0,-6.3202E0,2.905381E0,5.0966415E0,9.964582E0,2.8832428E0,8.484844E0,-1.4417732E0,2.1672747E0,1.8298012E0,7.6503453E0,5.1067214E0,4.1256604E-1,9.999202E0,2.398832E0,-1.8228784E-1,8.683861E0,9.757509E0,2.1600225E0,1.9752193E1,-5.511571E-1],"categories":[],"categories_nodes":[],"categories_segments":[],"categories_sizes":[],"default_left":[0,0,0,0,0,0,0,0,0,0,0,0,0,0,0,0,0,0,0,0,0,0,0,0,0,0,0,0,0,0,0,0,0,0,0,0,0,0,0,0,0,0,0,0,0,0,0,0,0,0,0,0,0,0,0,0,0,0,0,0,0,0,0,0,0,0,0,0,0,0,0,0,0,0,0,0,0,0,0,0,0,0,0,0,0,0,0,0,0,0,0,0,0,0,0,0,0,0,0,0,0,0,0,0,0,0,0,0,0,0,0,0,0,0,0,0,0,0,0,0,0,0,0,0,0,0,0],"id":1,"left_children":[1,3,5,7,9,11,13,15,17,19,21,23,25,27,29,31,33,35,37,39,41,43,45,47,49,51,53,55,57,59,61,63,65,67,69,71,73,75,77,79,81,83,85,87,89,91,93,95,97,99,101,103,105,107,109,111,113,115,117,119,121,123,125,-1,-1,-1,-1,-1,-1,-1,-1,-1,-1,-1,-1,-1,-1,-1,-1,-1,-1,-1,-1,-1,-1,-1,-1,-1,-1,-1,-1,-1,-1,-1,-1,-1,-1,-1,-1,-1,-1,-1,-1,-1,-1,-1,-1,-1,-1,-1,-1,-1,-1,-1,-1,-1,-1,-1,-1,-1,-1,-1,-1,-1,-1,-1,-1],"loss_changes":[2.8244576E7,1.53792E7,8.437382E6,6.598866E6,5.127991E6,5.818367E6,3.613176E6,2.279592E6,4.786906E6,2.0804328E6,3.560566E6,1.2340499E6,3.7270575E6,1.793499E6,2.891954E6,1.803886E6,2.858842E6,2.883822E6,1.3550305E6,1.6867558E6,3.3436075E6,1.1669532E6,1.820272E6,9.245605E5,5.5133675E5,1.2567412E6,1.669706E6,6.457171E5,1.792366E6,1.1079135E6,1.552632E6,1.023162E6,7.5439625E5,9.373047E5,7.92129E5,1.5124615E6,2.419707E6,1.03566275E6,6.783029E5,9.92901E5,1.1195155E6,3.9284428E5,2.1899535E6,8.9890925E5,6.3555975E5,1.2854845E6,1.17697E6,7.72756E5,6.9449075E5,3.3710125E5,3.033452E5,8.2871E5,1.1307122E6,1.008754E6,8.22239E5,5.734775E5,7.0572575E5,1.186396E6,4.6274647E5,7.177229E5,8.85693E5,5.24097E5,3.7821E5,0E0,0E0,0E0,0E0,0E0,0E0,0E0,0E0,0E0,0E0,0E0,0E0,0E0,0E0,0E0,0E0,0E0,0E0,0E0,0E0,0E0,0E0,0E0,0E0,0E0,0E0,0E0,0E0,0E0,0E0,0E0,0E0,0E0,0E0,0E0,0E0,0E0,0E0,0E0,0E0,0E0,0E0,0E0,0E0,0E0,0E0,0E0,0E0,0E0,0E0,0E0,0E0,0E0,0E0,0E0,0E0,0E0,0E0,0E0,0E0,0E0,0E0,0E0,0E0],"parents":[2147483647,0,0,1,1,2,2,3,3,4,4,5,5,6,6,7,7,8,8,9,9,10,10,11,11,12,12,13,13,14,14,15,15,16,16,17,17,18,18,19,19,20,20,21,21,22,22,23,23,24,24,25,25,26,26,27,27,28,28,29,29,30,30,31,31,32,32,33,33,34,34,35,35,36,36,37,37,38,38,39,39,40,40,41,41,42,42,43,43,44,44,45,45,46,46,47,47,48,48,49,49,50,50,51,51,52,52,53,53,54,54,55,55,56,56,57,57,58,58,59,59,60,60,61,61,62,62],"right_children":[2,4,6,8,10,12,14,16,18,20,22,24,26,28,30,32,34,36,38,40,42,44,46,48,50,52,54,56,58,60,62,64,66,68,70,72,74,76,78,80,82,84,86,88,90,92,94,96,98,100,102,104,106,108,110,112,114,116,118,120,122,124,126,-1,-1,-1,-1,-1,-1,-1,-1,-1,-1,-1,-1,-1,-1,-1,-1,-1,-1,-1,-1,-1,-1,-1,-1,-1,-1,-1,-1,-1,-1,-1,-1,-1,-1,-1,-1,-1,-1,-1,-1,-1,-1,-1,-1,-1,-1,-1,-1,-1,-1,-1,-1,-1,-1,-1,-1,-1,-1,-1,-1,-1,-1,-1,-1],"split_conditions":[5.6773907E-1,4.8303604E-2,2.382326E-1,-1.0002134E0,-7.785312E-1,-1.0002134E0,2.4601771E-1,2.3312197E0,9.097461E-2,1.3059324E0,-2.8608048E-1,1.0194254E0,2.8607476E-1,8.2439923E-1,9.226968E-2,-3.2376912E-1,1.3303967E-16,-2.9334753E0,6.502843E-1,-6.7158216E-1,7.0675564E-1,2.0557113E-1,2.2913541E-1,5.532878E-1,6.435319E-1,2.374431E-1,1.190878E0,-7.802585E-1,3.6616218E-1,7.32848E-1,1.3059324E0,-2.280542E0,-3.8965225E-1,9.274036E-1,9.9718314E-1,-9.9997354E-1,2.2948615E-1,-1.3917843E0,5.625262E-1,-2.279868E0,-7.7649176E-1,1.0726423E-1,-2.028705E0,1.2411921E-1,1.3303967E-16,3.8183397E-1,-1.4265246E0,-9.097932E-1,5.573895E-1,3.084935E-1,1.0706952E0,9.563196E-1,-3.4924283E0,-1.7770388E0,1.1014712E0,1.3670304E0,-3.9997217E-1,-7.278367E-2,-3.704013E-1,-1.5206201E0,-8.2434666E-1,1.7106376E0,1.7717531E0,-1.2816272E1,-4.834605E0,-4.19688E0,-1.5127976E0,-5.5179005E0,1.117818E0,-5.3418174E0,-1.2183468E1,3.788089E0,-1.3929185E1,-3.0213983E0,-6.254798E-1,2.3437986E0,-9.453516E-1,6.5059133E0,1.371309E0,-9.193479E0,-2.6031542E0,-2.2122734E0,6.536666E-1,2.6896484E0,-3.3776038E0,-2.293551E1,-6.7675867E0,2.1154813E-1,-1.7058134E0,9.2198655E-2,2.2243624E0,9.650775E-1,3.0509858E0,-3.557783E0,5.5134797E0,-7.9630313E0,2.946454E0,-4.1451864E0,1.5404284E0,-1.288682E-1,-5.5327578E0,-1.0333309E0,8.704036E0,-9.560249E-1,4.8828697E0,-1.4309706E1,2.346595E0,-6.3202E0,2.905381E0,5.0966415E0,9.964582E0,2.8832428E0,8.484844E0,-1.4417732E0,2.1672747E0,1.8298012E0,7.6503453E0,5.1067214E0,4.1256604E-1,9.999202E0,2.398832E0,-1.8228784E-1,8.683861E0,9.757509E0,2.1600225E0,1.9752193E1,-5.511571E-1],"split_indices":[682,658,658,338,682,338,824,412,638,1,820,478,820,799,799,659,9,682,820,396,118,638,824,607,659,550,682,267,403,570,1,616,440,718,654,359,418,3,584,660,671,286,682,219,9,484,154,212,506,631,572,484,308,220,824,528,483,638,219,770,372,462,42,0,0,0,0,0,0,0,0,0,0,0,0,0,0,0,0,0,0,0,0,0,0,0,0,0,0,0,0,0,0,0,0,0,0,0,0,0,0,0,0,0,0,0,0,0,0,0,0,0,0,0,0,0,0,0,0,0,0,0,0,0,0,0,0],"split_type":[0,0,0,0,0,0,0,0,0,0,0,0,0,0,0,0,0,0,0,0,0,0,0,0,0,0,0,0,0,0,0,0,0,0,0,0,0,0,0,0,0,0,0,0,0,0,0,0,0,0,0,0,0,0,0,0,0,0,0,0,0,0,0,0,0,0,0,0,0,0,0,0,0,0,0,0,0,0,0,0,0,0,0,0,0,0,0,0,0,0,0,0,0,0,0,0,0,0,0,0,0,0,0,0,0,0,0,0,0,0,0,0,0,0,0,0,0,0,0,0,0,0,0,0,0,0,0],"sum_hessian":[4.0004E4,2.9996E4,1.0008E4,1.5636E4,1.436E4,5.764E3,4.244E3,3.958E3,1.1678E4,3.408E3,1.0952E4,1.201E3,4.563E3,2.82E3,1.424E3,3.24E3,7.18E2,7.261E3,4.417E3,3.121E3,2.87E2,5.68E3,5.272E3,6.38E2,5.63E2,2.485E3,2.078E3,1.545E3,1.275E3,8.77E2,5.47E2,1.456E3,1.784E3,3.1E2,4.08E2,1.21E2,7.14E3,3.297E3,1.12E3,8.34E2,2.287E3,1.43E2,1.44E2,3.661E3,2.019E3,4.487E3,7.85E2,2.7E2,3.68E2,5.12E2,5.1E1,1.36E3,1.125E3,1.162E3,9.16E2,6.16E2,9.29E2,8.96E2,3.79E2,5.16E2,3.61E2,4.76E2,7.1E1,5.6E1,1.4E3,5.45E2,1.239E3,1.88E2,1.22E2,9.9E1,3.09E2,1.7E1,1.04E2,4.945E3,2.195E3,3.83E2,2.914E3,9.5E1,1.025E3,8.7E1,7.47E2,7.01E2,1.586E3,8.6E1,5.7E1,4.3E1,1.01E2,2.206E3,1.455E3,9.35E2,1.084E3,2.747E3,1.74E3,5E1,7.35E2,1.8E1,2.52E2,2.65E2,1.03E2,4.6E1,4.66E2,4.4E1,7E0,1.274E3,8.6E1,7E0,1.118E3,3.7E1,1.125E3,7.57E2,1.59E2,5.45E2,7.1E1,2.69E2,6.6E2,1.59E2,7.37E2,9.6E1,2.83E2,4.3E1,4.73E2,4.6E1,3.15E2,4.35E2,4.1E1,6.8E1,3E0],"tree_param":{"num_deleted":"0","num_feature":"830","num_nodes":"127","size_leaf_vector":"1"}},{"base_weights":[-6.474021E-3,-1.7231968E1,3.7164257E1,-3.8272945E1,4.249603E0,2.3414999E1,8.5689064E1,-7.257656E1,-2.6114174E1,-9.472543E0,3.233153E1,-5.2884555E0,4.1910225E1,1.0864392E2,3.968424E1,-5.7068382E1,-1.1919645E2,-4.301573E1,-4.9856644E0,-3.9900326E1,2.9168863E0,1.4964992E1,5.258867E1,-5.334734E1,8.75974E0,2.0984335E1,5.723895E1,4.4086548E1,1.2745912E2,-9.727847E-1,7.79333E1,-8.9554054E1,-4.309862E1,-1.9853487E1,-1.461395E2,-1.5247755E2,-3.759614E1,-2.2096935E1,2.4192583E1,-1.07462685E2,-2.8022455E1,-1.0059151E1,2.2973574E1,4.2785177E0,3.924547E1,4.301742E1,1.18276596E2,-2.1742403E1,-7.889727E1,-6.0836315E0,3.7983578E1,-4.5509782E-1,3.6262325E1,3.9669533E1,7.4624664E1,1.0658564E2,-1.7851503E0,9.36918E1,1.8325903E2,6.704693E1,-2.0362152E1,8.583653E1,-9.523006E1,-3.959306E0,-8.236634E0,-4.1725736E0,-1.7231241E0,1.8269211E0,-3.19992E0,-1.003216E1,-5.380728E0,-7.032958E0,-1.8495129E1,-3.0993931E0,-7.932054E-1,-5.7314044E-1,-3.0374682E0,7.573634E-1,6.0949497E0,-8.153886E0,-9.7363126E-1,-2.6861598E0,-4.9691498E-1,-2.9856682E0,-6.749674E-2,5.4510117E-1,2.5966463E0,-3.5495162E-1,2.6302114E0,-2.4742837E0,2.8219256E0,1.2235658E0,3.5228784E0,-1.3475952E0,8.139539E0,-2.848497E0,3.3085022E0,-6.63183E0,-2.1829965E0,-1.3775612E0,1.4743056E0,4.0990887E0,2.933121E-2,-1.3215878E0,1.5172102E0,2.7328382E0,-2.6319032E0,1.1845521E0,3.7941713E0,3.0794232E0,5.7529316E0,-7.820594E-1,7.7324157E0,-3.0817368E0,4.224497E0,8.97108E0,3.271648E0,9.161815E0,1.9923986E1,-5.560428E-1,7.5320983E0,-4.5050745E0,8.626026E-2,6.1301312E0,6.0086477E-1,-5.697245E-1,-9.425737E0],"categories":[],"categories_nodes":[],"categories_segments":[],"categories_sizes":[],"default_left":[0,0,0,0,0,0,0,0,0,0,0,0,0,0,0,0,0,0,0,0,0,0,0,0,0,0,0,0,0,0,0,0,0,0,0,0,0,0,0,0,0,0,0,0,0,0,0,0,0,0,0,0,0,0,0,0,0,0,0,0,0,0,0,0,0,0,0,0,0,0,0,0,0,0,0,0,0,0,0,0,0,0,0,0,0,0,0,0,0,0,0,0,0,0,0,0,0,0,0,0,0,0,0,0,0,0,0,0,0,0,0,0,0,0,0,0,0,0,0,0,0,0,0,0,0,0,0],"id":2,"left_children":[1,3,5,7,9,11,13,15,17,19,21,23,25,27,29,31,33,35,37,39,41,43,45,47,49,51,53,55,57,59,61,63,65,67,69,71,73,75,77,79,81,83,85,87,89,91,93,95,97,99,101,103,105,107,109,111,113,115,117,119,121,123,125,-1,-1,-1,-1,-1,-1,-1,-1,-1,-1,-1,-1,-1,-1,-1,-1,-1,-1,-1,-1,-1,-1,-1,-1,-1,-1,-1,-1,-1,-1,-1,-1,-1,-1,-1,-1,-1,-1,-1,-1,-1,-1,-1,-1,-1,-1,-1,-1,-1,-1,-1,-1,-1,-1,-1,-1,-1,-1,-1,-1,-1,-1,-1,-1],"loss_changes":[2.5624154E7,1.2361994E7,8.439012E6,5.747254E6,5.21965E6,5.250058E6,2.916976E6,2.55612E6,3.6453475E6,3.4318892E6,1.5577235E6,2.6240035E6,1.919087E6,2.214142E6,1.4671361E6,1.205642E6,2.369505E6,3.31939E6,2.2749858E6,2.0895505E6,1.6870212E6,6.22645E5,1.2473725E6,6.95972E5,1.3075591E6,8.370619E5,1.034915E6,1.2401448E6,2.568096E6,6.2414456E5,7.305E5,8.405235E5,7.1441475E5,3.498224E5,7.14635E5,1.166125E6,1.8507365E6,1.02350575E6,1.4983606E6,9.965845E5,7.41144E5,1.3959778E6,7.147521E5,6.792074E5,4.7551612E5,6.2995675E5,6.5075E5,8.2021844E5,6.172465E5,1.0407273E6,1.1541112E6,5.991669E5,1.1260048E6,8.0752525E5,8.18875E5,5.0144775E5,9.487514E5,1.92638E6,2.017886E6,4.7808822E5,4.3993888E5,5.72489E5,1.2050047E5,0E0,0E0,0E0,0E0,0E0,0E0,0E0,0E0,0E0,0E0,0E0,0E0,0E0,0E0,0E0,0E0,0E0,0E0,0E0,0E0,0E0,0E0,0E0,0E0,0E0,0E0,0E0,0E0,0E0,0E0,0E0,0E0,0E0,0E0,0E0,0E0,0E0,0E0,0E0,0E0,0E0,0E0,0E0,0E0,0E0,0E0,0E0,0E0,0E0,0E0,0E0,0E0,0E0,0E0,0E0,0E0,0E0,0E0,0E0,0E0,0E0,0E0,0E0,0E0],"parents":[2147483647,0,0,1,1,2,2,3,3,4,4,5,5,6,6,7,7,8,8,9,9,10,10,11,11,12,12,13,13,14,14,15,15,16,16,17,17,18,18,19,19,20,20,21,21,22,22,23,23,24,24,25,25,26,26,27,27,28,28,29,29,30,30,31,31,32,32,33,33,34,34,35,35,36,36,37,37,38,38,39,39,40,40,41,41,42,42,43,43,44,44,45,45,46,46,47,47,48,48,49,49,50,50,51,51,52,52,53,53,54,54,55,55,56,56,57,57,58,58,59,59,60,60,61,61,62,62],"right_children":[2,4,6,8,10,12,14,16,18,20,22,24,26,28,30,32,34,36,38,40,42,44,46,48,50,52,54,56,58,60,62,64,66,68,70,72,74,76,78,80,82,84,86,88,90,92,94,96,98,100,102,104,106,108,110,112,114,116,118,120,122,124,126,-1,-1,-1,-1,-1,-1,-1,-1,-1,-1,-1,-1,-1,-1,-1,-1,-1,-1,-1,-1,-1,-1,-1,-1,-1,-1,-1,-1,-1,-1,-1,-1,-1,-1,-1,-1,-1,-1,-1,-1,-1,-1,-1,-1,-1,-1,-1,-1,-1,-1,-1,-1,-1,-1,-1,-1,-1,-1,-1,-1,-1,-1,-1,-1],"split_conditions":[3.995492E-1,-4.669011E-3,1.0915986E0,-1.0002134E0,1.9641513E-1,-1.14873916E-1,7.804032E-2,8.702623E-1,1.1079181E-2,-4.887825E-1,1.5099082E-3,-1.0002134E0,6.860676E-2,-5.707691E-1,7.443723E-1,-5.456415E-1,1.3303967E-16,-1.9257618E0,1.6128281E-2,-1.4637288E0,-8.78565E-2,4.5786142E-1,6.6940665E-1,3.146538E-1,5.2829725E-1,1.3303967E-16,1.6039114E-1,-1.0281228E0,8.950246E-1,-9.674119E-1,2.0076566E0,1.0307162E0,-5.1376414E-1,2.7345228E-1,6.932322E-1,8.858573E-1,7.658027E-2,1.224352E0,2.8497195E-1,3.2990554E-3,8.543907E-2,-1.1090316E0,3.5445312E-1,1.4142312E0,-1.2249402E0,4.4041905E-3,-1.2069958E0,5.966598E-1,-1.2243292E-1,3.5079187E-1,7.806357E-2,2.2054014E-1,1.2249509E0,5.573666E-1,7.184744E-2,-6.232265E-1,3.819846E-1,1.0721199E-4,1.2213566E0,-6.363362E-1,-1.1608957E-1,9.0360194E-1,1.7122399E0,-3.959306E0,-8.236634E0,-4.1725736E0,-1.7231241E0,1.8269211E0,-3.19992E0,-1.003216E1,-5.380728E0,-7.032958E0,-1.8495129E1,-3.0993931E0,-7.932054E-1,-5.7314044E-1,-3.0374682E0,7.573634E-1,6.0949497E0,-8.153886E0,-9.7363126E-1,-2.6861598E0,-4.9691498E-1,-2.9856682E0,-6.749674E-2,5.4510117E-1,2.5966463E0,-3.5495162E-1,2.6302114E0,-2.4742837E0,2.8219256E0,1.2235658E0,3.5228784E0,-1.3475952E0,8.139539E0,-2.848497E0,3.3085022E0,-6.63183E0,-2.1829965E0,-1.3775612E0,1.4743056E0,4.0990887E0,2.933121E-2,-1.3215878E0,1.5172102E0,2.7328382E0,-2.6319032E0,1.1845521E0,3.7941713E0,3.0794232E0,5.7529316E0,-7.820594E-1,7.7324157E0,-3.0817368E0,4.224497E0,8.97108E0,3.271648E0,9.161815E0,1.9923986E1,-5.560428E-1,7.5320983E0,-4.5050745E0,8.626026E-2,6.1301312E0,6.0086477E-1,-5.697245E-1,-9.425737E0],"split_indices":[638,658,682,338,682,658,13,631,484,418,799,338,682,583,799,418,9,682,820,682,820,660,803,607,820,9,571,188,824,100,822,821,659,475,682,637,330,140,760,330,829,682,659,515,404,66,308,386,461,824,821,484,73,658,319,5,482,425,78,649,768,703,539,0,0,0,0,0,0,0,0,0,0,0,0,0,0,0,0,0,0,0,0,0,0,0,0,0,0,0,0,0,0,0,0,0,0,0,0,0,0,0,0,0,0,0,0,0,0,0,0,0,0,0,0,0,0,0,0,0,0,0,0,0,0,0,0],"split_type":[0,0,0,0,0,0,0,0,0,0,0,0,0,0,0,0,0,0,0,0,0,0,0,0,0,0,0,0,0,0,0,0,0,0,0,0,0,0,0,0,0,0,0,0,0,0,0,0,0,0,0,0,0,0,0,0,0,0,0,0,0,0,0,0,0,0,0,0,0,0,0,0,0,0,0,0,0,0,0,0,0,0,0,0,0,0,0,0,0,0,0,0,0,0,0,0,0,0,0,0,0,0,0,0,0,0,0,0,0,0,0,0,0,0,0,0,0,0,0,0,0,0,0,0,0,0,0],"sum_hessian":[4.0004E4,2.7339E4,1.2665E4,1.3808E4,1.3531E4,9.878E3,2.787E3,3.603E3,1.0205E4,9.093E3,4.438E3,3.873E3,6.005E3,1.852E3,9.35E2,2.717E3,8.86E2,5.665E3,4.54E3,2.626E3,6.467E3,2.397E3,2.041E3,8.71E2,3.002E3,2.547E3,3.458E3,4.24E2,1.428E3,4.57E2,4.78E2,8.04E2,1.913E3,1.92E2,6.94E2,2.57E2,5.408E3,2.863E3,1.677E3,3.83E2,2.243E3,3.929E3,2.538E3,1.671E3,7.26E2,1.793E3,2.48E2,3.96E2,4.75E2,1.995E3,1.007E3,1.063E3,1.484E3,1.733E3,1.725E3,1.75E2,2.49E2,9.03E2,5.25E2,9.7E1,3.6E2,4.61E2,1.7E1,5.51E2,2.53E2,6.63E2,1.25E3,7.7E1,1.15E2,4.94E2,2E2,2.21E2,3.6E1,3.424E3,1.984E3,1.996E3,8.67E2,1.467E3,2.1E2,2.89E2,9.4E1,1.208E3,1.035E3,7.15E2,3.214E3,1.514E3,1.024E3,1.334E3,3.37E2,6.1E1,6.65E2,7.42E2,1.051E3,2.7E1,2.21E2,2.99E2,9.7E1,2.65E2,2.1E2,1.288E3,7.07E2,5.53E2,4.54E2,5.79E2,4.84E2,1.333E3,1.51E2,9.47E2,7.86E2,8.36E2,8.89E2,2.8E1,1.47E2,1.49E2,1E2,3.63E2,5.4E2,4.49E2,7.6E1,4.5E1,5.2E1,9.7E1,2.63E2,3.77E2,8.4E1,1.1E1,6E0],"tree_param":{"num_deleted":"0","num_feature":"830","num_nodes":"127","size_leaf_vector":"1"}},{"base_weights":[-6.174983E-3,-1.6313692E1,3.518772E1,-4.0017113E1,-1.9440228E-2,1.2399336E1,6.724908E1,-6.791742E1,-2.5798971E1,-3.872851E1,6.783622E0,-4.1583935E1,2.663663E1,4.954402E1,1.0447852E2,-9.251017E1,-4.9974106E1,-3.965116E1,-3.1323392E0,-3.1272919E1,-1.8630446E2,-6.596141E0,2.2421417E1,-1.4987293E1,-7.324578E1,2.6364453E0,5.3431034E1,1.5413758E1,6.275108E1,7.472939E1,1.5328548E2,-1.1510658E2,-6.725442E1,-3.1023296E1,-7.809422E1,-3.256757E1,-9.704351E1,1.3837561E1,-2.2521124E1,-5.7802048E1,4.969928E0,-1.621266E1,-2.93782E2,-2.719968E1,1.1616305E0,9.608821E0,4.1642437E1,1.8818855E1,-4.352135E1,-8.251266E1,3.554494E1,-6.233894E0,4.4897614E1,4.2803234E1,1.2729228E2,1.889517E1,-2.2553062E2,7.8371605E1,3.1272732E1,5.1143047E1,1.1338315E2,1.3097812E2,2.8632837E2,-8.402174E0,-4.9884105E0,-4.6653886E0,-1.3223737E0,-9.743229E0,-1.5223005E0,-5.0750556E0,2.558074E0,-1.1545968E0,-3.632048E0,-4.3600636E0,-1.1847515E1,3.0909312E-1,3.270509E0,-1.8125709E0,2.5953443E0,-2.6260152E0,-8.575015E0,-3.9429057E0,1.0780114E0,5.9040165E0,-7.821359E0,-2.719589E0,-2.1996883E1,-1.146184E0,-5.003872E0,-6.975598E-1,8.5742086E-1,-1.40313E0,1.0998045E0,1.9308878E0,4.8936434E0,-8.210888E-1,3.7074919E0,-3.6732066E0,7.9791373E-1,-5.247835E0,2.1244543E0,-7.75932E-1,8.408758E0,-2.3070238E0,2.4970387E-1,-8.981484E-1,5.0740237E0,-6.125835E0,2.8081892E0,4.2892647E0,1.3255503E1,1.7531295E0,-1.2292299E0,-6.521377E-1,-1.4074881E1,3.820015E0,7.689862E0,-2.0182838E0,2.4154255E0,2.3798616E0,9.466792E0,9.60895E-1,8.229964E0,2.546761E0,8.606672E0,-3.3555E-1,1.8089771E1],"categories":[],"categories_nodes":[],"categories_segments":[],"categories_sizes":[],"default_left":[0,0,0,0,0,0,0,0,0,0,0,0,0,0,0,0,0,0,0,0,0,0,0,0,0,0,0,0,0,0,0,0,0,0,0,0,0,0,0,0,0,0,0,0,0,0,0,0,0,0,0,0,0,0,0,0,0,0,0,0,0,0,0,0,0,0,0,0,0,0,0,0,0,0,0,0,0,0,0,0,0,0,0,0,0,0,0,0,0,0,0,0,0,0,0,0,0,0,0,0,0,0,0,0,0,0,0,0,0,0,0,0,0,0,0,0,0,0,0,0,0,0,0,0,0,0,0],"id":3,"left_children":[1,3,5,7,9,11,13,15,17,19,21,23,25,27,29,31,33,35,37,39,41,43,45,47,49,51,53,55,57,59,61,63,65,67,69,71,73,75,77,79,81,83,85,87,89,91,93,95,97,99,101,103,105,107,109,111,113,115,117,119,121,123,125,-1,-1,-1,-1,-1,-1,-1,-1,-1,-1,-1,-1,-1,-1,-1,-1,-1,-1,-1,-1,-1,-1,-1,-1,-1,-1,-1,-1,-1,-1,-1,-1,-1,-1,-1,-1,-1,-1,-1,-1,-1,-1,-1,-1,-1,-1,-1,-1,-1,-1,-1,-1,-1,-1,-1,-1,-1,-1,-1,-1,-1,-1,-1,-1],"loss_changes":[2.2968462E7,1.0562558E7,9.251749E6,4.405416E6,4.272195E6,5.709371E6,3.42754E6,1.620304E6,2.3202365E6,2.621317E6,2.8881545E6,1.297225E6,3.7762142E6,1.606808E6,2.3605E6,8.36722E5,1.147025E6,1.8398095E6,9.280511E5,2.2310878E6,2.0639072E6,1.18979E6,1.5640175E6,8.294034E5,7.3526375E5,1.1670018E6,2.1345685E6,8.8109975E5,1.248891E6,9.24407E5,1.575232E6,5.60103E5,3.4850025E5,9.4758725E5,7.152675E5,1.5169125E6,1.1087875E6,5.2936225E5,6.759662E5,1.54934E6,9.1614294E5,7.9601044E5,1.1333475E6,9.135626E5,9.10262E5,1.1052262E6,9.392925E5,5.599338E5,4.7418456E5,4.06084E5,3.2394262E5,8.637095E5,1.2926325E6,1.4512135E6,1.6760305E6,4.125869E5,8.4999375E3,1.193159E6,5.176252E5,7.771949E5,9.016065E5,5.64748E5,3.8572E5,0E0,0E0,0E0,0E0,0E0,0E0,0E0,0E0,0E0,0E0,0E0,0E0,0E0,0E0,0E0,0E0,0E0,0E0,0E0,0E0,0E0,0E0,0E0,0E0,0E0,0E0,0E0,0E0,0E0,0E0,0E0,0E0,0E0,0E0,0E0,0E0,0E0,0E0,0E0,0E0,0E0,0E0,0E0,0E0,0E0,0E0,0E0,0E0,0E0,0E0,0E0,0E0,0E0,0E0,0E0,0E0,0E0,0E0,0E0,0E0,0E0,0E0,0E0,0E0],"parents":[2147483647,0,0,1,1,2,2,3,3,4,4,5,5,6,6,7,7,8,8,9,9,10,10,11,11,12,12,13,13,14,14,15,15,16,16,17,17,18,18,19,19,20,20,21,21,22,22,23,23,24,24,25,25,26,26,27,27,28,28,29,29,30,30,31,31,32,32,33,33,34,34,35,35,36,36,37,37,38,38,39,39,40,40,41,41,42,42,43,43,44,44,45,45,46,46,47,47,48,48,49,49,50,50,51,51,52,52,53,53,54,54,55,55,56,56,57,57,58,58,59,59,60,60,61,61,62,62],"right_children":[2,4,6,8,10,12,14,16,18,20,22,24,26,28,30,32,34,36,38,40,42,44,46,48,50,52,54,56,58,60,62,64,66,68,70,72,74,76,78,80,82,84,86,88,90,92,94,96,98,100,102,104,106,108,110,112,114,116,118,120,122,124,126,-1,-1,-1,-1,-1,-1,-1,-1,-1,-1,-1,-1,-1,-1,-1,-1,-1,-1,-1,-1,-1,-1,-1,-1,-1,-1,-1,-1,-1,-1,-1,-1,-1,-1,-1,-1,-1,-1,-1,-1,-1,-1,-1,-1,-1,-1,-1,-1,-1,-1,-1,-1,-1,-1,-1,-1,-1,-1,-1,-1,-1,-1,-1,-1],"split_conditions":[3.995934E-1,-1.7934932E-1,2.382326E-1,-4.3665737E-1,-1.1555687E0,-1.0002134E0,2.4601771E-1,-7.073439E-1,7.556355E-2,1.3516567E0,-2.8608048E-1,3.229919E-1,9.226968E-2,-2.1054421E-1,9.226968E-2,-1.165336E-2,1.224352E0,1.9274541E0,-5.8059824E-1,-8.78565E-2,-2.4073826E-1,-5.241301E-1,6.2196356E-1,6.122758E-1,7.6021713E-1,1.3662429E0,1.1014712E0,5.084478E-1,1.0721199E-4,8.092848E-1,1.3059324E0,3.8903023E-3,9.380261E-1,-2.279868E0,1.3019223E0,9.996252E-1,8.5511816E-1,9.917888E-1,1.3012695E0,4.6010002E-2,-7.6628995E-1,8.359468E-1,-3.6594775E-1,-2.1766599E-1,2.1384023E-1,-6.5845877E-1,3.2051098E-1,7.037259E-1,5.573895E-1,2.4079585E0,1.0931457E0,-3.5318695E-5,-1.0056143E-2,-1.844822E0,1.0948387E0,1.2249509E0,-1.8442806E0,9.7376406E-1,-6.2091196E-1,1.2604795E0,-5.004557E-1,-1.114951E0,3.5415992E-2,-8.402174E0,-4.9884105E0,-4.6653886E0,-1.3223737E0,-9.743229E0,-1.5223005E0,-5.0750556E0,2.558074E0,-1.1545968E0,-3.632048E0,-4.3600636E0,-1.1847515E1,3.0909312E-1,3.270509E0,-1.8125709E0,2.5953443E0,-2.6260152E0,-8.575015E0,-3.9429057E0,1.0780114E0,5.9040165E0,-7.821359E0,-2.719589E0,-2.1996883E1,-1.146184E0,-5.003872E0,-6.975598E-1,8.5742086E-1,-1.40313E0,1.0998045E0,1.9308878E0,4.8936434E0,-8.210888E-1,3.7074919E0,-3.6732066E0,7.9791373E-1,-5.247835E0,2.1244543E0,-7.75932E-1,8.408758E0,-2.3070238E0,2.4970387E-1,-8.981484E-1,5.0740237E0,-6.125835E0,2.8081892E0,4.2892647E0,1.3255503E1,1.7531295E0,-1.2292299E0,-6.521377E-1,-1.4074881E1,3.820015E0,7.689862E0,-2.0182838E0,2.4154255E0,2.3798616E0,9.466792E0,9.60895E-1,8.229964E0,2.546761E0,8.606672E0,-3.3555E-1,1.8089771E1],"split_indices":[682,658,658,659,682,338,824,316,638,267,820,631,820,820,799,44,272,301,345,820,153,418,658,629,659,337,824,606,359,570,1,550,820,660,284,162,527,638,440,298,461,33,315,231,744,242,824,210,506,506,88,516,771,220,115,773,0,396,396,541,372,27,319,0,0,0,0,0,0,0,0,0,0,0,0,0,0,0,0,0,0,0,0,0,0,0,0,0,0,0,0,0,0,0,0,0,0,0,0,0,0,0,0,0,0,0,0,0,0,0,0,0,0,0,0,0,0,0,0,0,0,0,0,0,0,0,0],"split_type":[0,0,0,0,0,0,0,0,0,0,0,0,0,0,0,0,0,0,0,0,0,0,0,0,0,0,0,0,0,0,0,0,0,0,0,0,0,0,0,0,0,0,0,0,0,0,0,0,0,0,0,0,0,0,0,0,0,0,0,0,0,0,0,0,0,0,0,0,0,0,0,0,0,0,0,0,0,0,0,0,0,0,0,0,0,0,0,0,0,0,0,0,0,0,0,0,0,0,0,0,0,0,0,0,0,0,0,0,0,0,0,0,0,0,0,0,0,0,0,0,0,0,0,0,0,0,0],"sum_hessian":[4.0004E4,2.734E4,1.2664E4,1.1133E4,1.6207E4,7.409E3,5.255E3,3.748E3,7.385E3,2.417E3,1.379E4,1.543E3,5.866E3,3.574E3,1.681E3,1.567E3,2.181E3,4.58E3,2.805E3,2.31E3,1.07E2,7.434E3,6.356E3,8.45E2,6.98E2,3.099E3,2.767E3,1.002E3,2.572E3,1.057E3,6.24E2,8.12E2,7.55E2,1.313E3,8.68E2,4.088E3,4.92E2,1.497E3,1.308E3,1.331E3,9.79E2,4.5E1,6.2E1,2.028E3,5.406E3,3.821E3,2.535E3,3.88E2,4.57E2,6.45E2,5.3E1,2.567E3,5.32E2,2.43E3,3.37E2,9.95E2,7E0,1.711E3,8.61E2,6.68E2,3.89E2,5.48E2,7.6E1,4.41E2,3.71E2,6.08E2,1.47E2,4.5E1,1.268E3,8.26E2,4.2E1,2.778E3,1.31E3,4.07E2,8.5E1,1.241E3,2.56E2,1.175E3,1.33E2,1.153E3,1.78E2,1.47E2,8.32E2,2.3E1,2.2E1,1.7E1,4.5E1,1.782E3,2.46E2,2.739E3,2.667E3,7.96E2,3.025E3,2.061E3,4.74E2,2.24E2,1.64E2,3.48E2,1.09E2,6.21E2,2.4E1,4.1E1,1.2E1,6.21E2,1.946E3,2.14E2,3.18E2,6E1,2.37E3,2.2E2,1.17E2,7.9E2,2.05E2,1E0,6E0,1.335E3,3.76E2,1.02E2,7.59E2,6.13E2,5.5E1,7.9E1,3.1E2,7.2E1,4.76E2,4E0,7.2E1],"tree_param":{"num_deleted":"0","num_feature":"830","num_nodes":"127","size_leaf_vector":"1"}},{"base_weights":[-1.0096769E-2,-1.9234745E1,2.761233E1,-3.6159454E1,1.658545E0,1.7285591E1,7.488476E1,-2.9098402E1,-8.295244E1,-3.0115604E1,1.1565261E1,-7.619664E0,3.3442165E1,9.861376E1,3.679183E1,-4.5366558E1,-9.193401E0,-1.3072717E2,-6.2543095E1,-2.0705484E1,-1.21091805E2,-3.278545E0,2.827074E1,-5.139275E1,5.3860807E0,1.2936886E1,4.8225227E1,-1.5879764E2,1.0322999E2,3.2956297E0,6.886217E1,-1.4503888E2,-4.163296E1,4.114958E1,-1.5499382E1,-1.0140189E2,-1.7515007E2,-1.0622557E2,-4.0165787E1,-5.656369E1,-2.5026908E0,2.6113155E0,-2.1852167E2,3.4374443E1,-1.0190401E1,1.19024725E1,4.3092106E1,-6.0044098E1,1.3893451E1,-5.1364107E0,3.455725E1,-4.8049917E0,2.5676165E1,2.9496723E1,6.215341E1,-4.8364317E-1,-2.0552515E2,4.535622E1,1.20877785E2,6.0363186E1,-1.5129251E1,8.2856255E1,7.4511065E0,-5.0424066E0,-1.5917116E1,-4.4404718E-1,-3.0215144E0,1.906571E0,1.2452087E1,-1.8927753E0,4.830981E-1,-6.7493153E0,1.6297332E0,-1.1454091E1,-2.734275E0,-8.374332E-1,-7.4705534E0,-1.6762893E0,-5.1056633E0,-4.3552504E0,-2.5364986E-1,-2.0904627E0,7.6434404E-1,-1.1541256E0,5.5759745E0,-1.6813797E0,-1.682228E1,1.1246514E0,5.334171E0,-4.1582152E-1,-5.5581503E0,6.740339E-2,2.0616145E0,2.0373707E0,6.072612E0,-3.9957755E0,1.5567491E0,-5.5206366E0,2.1615913E0,4.8943663E0,-5.032805E-1,9.3527573E-1,4.485458E0,-8.648562E-1,2.691952E0,1.910711E0,-4.1910496E0,2.001911E0,-2.8972766E0,1.9206873E0,4.3381147E0,-1.8499708E0,1.8062793E0,4.131988E-1,-1.4064831E1,6.4153523E0,3.780836E-1,5.197395E0,1.03345785E1,2.0279477E0,1.1021621E1,-1.9967346E0,3.15716E0,5.3652167E0,-3.4633462E0,2.891248E0,-4.295711E0],"categories":[],"categories_nodes":[],"categories_segments":[],"categories_sizes":[],"default_left":[0,0,0,0,0,0,0,0,0,0,0,0,0,0,0,0,0,0,0,0,0,0,0,0,0,0,0,0,0,0,0,0,0,0,0,0,0,0,0,0,0,0,0,0,0,0,0,0,0,0,0,0,0,0,0,0,0,0,0,0,0,0,0,0,0,0,0,0,0,0,0,0,0,0,0,0,0,0,0,0,0,0,0,0,0,0,0,0,0,0,0,0,0,0,0,0,0,0,0,0,0,0,0,0,0,0,0,0,0,0,0,0,0,0,0,0,0,0,0,0,0,0,0,0,0,0,0],"id":4,"left_children":[1,3,5,7,9,11,13,15,17,19,21,23,25,27,29,31,33,35,37,39,41,43,45,47,49,51,53,55,57,59,61,63,65,67,69,71,73,75,77,79,81,83,85,87,89,91,93,95,97,99,101,103,105,107,109,111,113,115,117,119,121,123,125,-1,-1,-1,-1,-1,-1,-1,-1,-1,-1,-1,-1,-1,-1,-1,-1,-1,-1,-1,-1,-1,-1,-1,-1,-1,-1,-1,-1,-1,-1,-1,-1,-1,-1,-1,-1,-1,-1,-1,-1,-1,-1,-1,-1,-1,-1,-1,-1,-1,-1,-1,-1,-1,-1,-1,-1,-1,-1,-1,-1,-1,-1,-1,-1],"loss_changes":[2.1251872E7,8.344716E6,8.006767E6,4.288104E6,3.3293358E6,5.429816E6,2.630136E6,3.6687E6,1.596862E6,2.1320282E6,1.9999239E6,3.0275292E6,2.475467E6,2.279474E6,1.2248882E6,2.272893E6,1.6273069E6,5.12905E5,1.1484915E6,1.4922306E6,2.8250375E6,1.1156159E6,9.1626625E5,6.94663E5,1.2611861E6,7.782863E5,1.224821E6,2.5791544E5,1.774988E6,6.035307E5,4.9599625E5,1.449637E6,1.79631E6,8.375319E5,1.7204582E6,4.8349225E5,3.159265E5,6.69195E5,4.27506E5,6.4321E5,7.5572806E5,2.3340334E5,1.480317E6,5.533357E5,9.6746356E5,4.387782E5,1.02792475E6,6.20667E5,3.7571597E5,8.577157E5,8.210301E5,6.9436606E5,1.198141E6,6.273255E5,8.12804E5,2.2279717E4,1.7882225E5,1.0260109E6,2.273288E6,4.0877516E5,5.488716E5,4.787135E5,4.0432328E5,0E0,0E0,0E0,0E0,0E0,0E0,0E0,0E0,0E0,0E0,0E0,0E0,0E0,0E0,0E0,0E0,0E0,0E0,0E0,0E0,0E0,0E0,0E0,0E0,0E0,0E0,0E0,0E0,0E0,0E0,0E0,0E0,0E0,0E0,0E0,0E0,0E0,0E0,0E0,0E0,0E0,0E0,0E0,0E0,0E0,0E0,0E0,0E0,0E0,0E0,0E0,0E0,0E0,0E0,0E0,0E0,0E0,0E0,0E0,0E0,0E0,0E0,0E0,0E0],"parents":[2147483647,0,0,1,1,2,2,3,3,4,4,5,5,6,6,7,7,8,8,9,9,10,10,11,11,12,12,13,13,14,14,15,15,16,16,17,17,18,18,19,19,20,20,21,21,22,22,23,23,24,24,25,25,26,26,27,27,28,28,29,29,30,30,31,31,32,32,33,33,34,34,35,35,36,36,37,37,38,38,39,39,40,40,41,41,42,42,43,43,44,44,45,45,46,46,47,47,48,48,49,49,50,50,51,51,52,52,53,53,54,54,55,55,56,56,57,57,58,58,59,59,60,60,61,61,62,62],"right_children":[2,4,6,8,10,12,14,16,18,20,22,24,26,28,30,32,34,36,38,40,42,44,46,48,50,52,54,56,58,60,62,64,66,68,70,72,74,76,78,80,82,84,86,88,90,92,94,96,98,100,102,104,106,108,110,112,114,116,118,120,122,124,126,-1,-1,-1,-1,-1,-1,-1,-1,-1,-1,-1,-1,-1,-1,-1,-1,-1,-1,-1,-1,-1,-1,-1,-1,-1,-1,-1,-1,-1,-1,-1,-1,-1,-1,-1,-1,-1,-1,-1,-1,-1,-1,-1,-1,-1,-1,-1,-1,-1,-1,-1,-1,-1,-1,-1,-1,-1,-1,-1,-1,-1,-1,-1,-1],"split_conditions":[1.9632672E-1,6.933684E-2,1.140136E0,1.7806702E0,-7.785312E-1,-1.14873916E-1,-5.2608073E-2,-4.3705544E-3,-9.818556E-1,1.3059324E0,6.102556E-2,-1.0002134E0,1.954448E-2,-2.4426095E0,7.443723E-1,-2.1301777E0,-1.2249402E0,2.5037646E0,2.0853171E0,-4.689509E-1,7.0675564E-1,-1.2964169E0,-2.8608048E-1,1.333672E0,7.251677E-1,1.3303967E-16,2.7763283E-2,-4.9957964E-1,-5.707691E-1,2.0702976E-1,9.0360194E-1,7.511979E-1,-9.9997354E-1,2.0324726E0,-1.4040063E-2,1.8566453E0,1.3682541E0,-8.547942E-1,3.0009146E0,2.0585847E-1,-7.599069E-1,1.4061407E0,-6.218944E-1,6.568623E-1,5.8101473E0,1.8868674E-1,3.5079187E-1,1.8431814E0,-7.784539E-1,-1.734724E0,2.771775E-1,1.1155845E0,1.0372827E0,1.997381E0,-3.994769E-1,-6.2133634E-1,-1.044105E0,-1.0399703E0,8.196884E-1,1.5198349E0,5.573666E-1,1.223162E0,-6.0402215E-1,-5.0424066E0,-1.5917116E1,-4.4404718E-1,-3.0215144E0,1.906571E0,1.2452087E1,-1.8927753E0,4.830981E-1,-6.7493153E0,1.6297332E0,-1.1454091E1,-2.734275E0,-8.374332E-1,-7.4705534E0,-1.6762893E0,-5.1056633E0,-4.3552504E0,-2.5364986E-1,-2.0904627E0,7.6434404E-1,-1.1541256E0,5.5759745E0,-1.6813797E0,-1.682228E1,1.1246514E0,5.334171E0,-4.1582152E-1,-5.5581503E0,6.740339E-2,2.0616145E0,2.0373707E0,6.072612E0,-3.9957755E0,1.5567491E0,-5.5206366E0,2.1615913E0,4.8943663E0,-5.032805E-1,9.3527573E-1,4.485458E0,-8.648562E-1,2.691952E0,1.910711E0,-4.1910496E0,2.001911E0,-2.8972766E0,1.9206873E0,4.3381147E0,-1.8499708E0,1.8062793E0,4.131988E-1,-1.4064831E1,6.4153523E0,3.780836E-1,5.197395E0,1.03345785E1,2.0279477E0,1.1021621E1,-1.9967346E0,3.15716E0,5.3652167E0,-3.4633462E0,2.891248E0,-4.295711E0],"split_indices":[638,658,682,279,682,658,35,418,658,1,484,338,682,396,799,682,774,456,126,396,118,553,820,66,820,9,659,132,583,35,703,822,161,187,820,610,108,394,301,330,671,241,319,682,827,824,803,286,528,277,570,196,478,257,176,256,541,166,824,570,744,477,346,0,0,0,0,0,0,0,0,0,0,0,0,0,0,0,0,0,0,0,0,0,0,0,0,0,0,0,0,0,0,0,0,0,0,0,0,0,0,0,0,0,0,0,0,0,0,0,0,0,0,0,0,0,0,0,0,0,0,0,0,0,0,0,0],"split_type":[0,0,0,0,0,0,0,0,0,0,0,0,0,0,0,0,0,0,0,0,0,0,0,0,0,0,0,0,0,0,0,0,0,0,0,0,0,0,0,0,0,0,0,0,0,0,0,0,0,0,0,0,0,0,0,0,0,0,0,0,0,0,0,0,0,0,0,0,0,0,0,0,0,0,0,0,0,0,0,0,0,0,0,0,0,0,0,0,0,0,0,0,0,0,0,0,0,0,0,0,0,0,0,0,0,0,0,0,0,0,0,0,0,0,0,0,0,0,0,0,0,0,0,0,0,0,0],"sum_hessian":[4.0004E4,2.3589E4,1.6415E4,1.3029E4,1.056E4,1.3481E4,2.934E3,1.1332E4,1.697E3,2.506E3,8.054E3,5.306E3,8.175E3,1.8E3,1.134E3,6.23E3,5.102E3,4.95E2,1.202E3,2.28E3,2.26E2,4.268E3,3.786E3,1.21E3,4.096E3,3.431E3,4.744E3,2.7E1,1.773E3,5.59E2,5.75E2,2.14E2,6.016E3,5.63E2,4.539E3,3.14E2,1.81E2,3.97E2,8.05E2,7.62E2,1.518E3,1.03E2,1.23E2,6.57E2,3.611E3,1.806E3,1.98E3,1.069E3,1.41E2,3.015E3,1.081E3,1.436E3,1.995E3,2.034E3,2.71E3,8E0,1.9E1,4.21E2,1.352E3,1.32E2,4.27E2,4.66E2,1.09E2,1.51E2,6.3E1,1.225E3,4.791E3,5.42E2,2.1E1,2.698E3,1.841E3,2.9E2,2.4E1,1.58E2,2.3E1,6.8E1,3.29E2,6.43E2,1.62E2,5.81E2,1.81E2,4.83E2,1.035E3,8.8E1,1.5E1,3.3E1,9E1,5.19E2,1.38E2,3.482E3,1.29E2,1.226E3,5.8E2,1.722E3,2.58E2,9.95E2,7.4E1,2E1,1.21E2,1.02E2,2.913E3,7.42E2,3.39E2,1.208E3,2.28E2,1.879E3,1.16E2,1.942E3,9.2E1,6.91E2,2.019E3,4E0,4E0,3E0,1.6E1,1.58E2,2.63E2,8.24E2,5.28E2,1.17E2,1.5E1,3.4E2,8.7E1,4.48E2,1.8E1,7.4E1,3.5E1],"tree_param":{"num_deleted":"0","num_feature":"830","num_nodes":"127","size_leaf_vector":"1"}},{"base_weights":[-1.4066174E-2,-2.06279E1,2.2970278E1,-4.3575756E1,-5.9823766E0,1.3835444E1,6.914689E1,-3.7242474E1,-1.16488976E2,-3.595425E1,3.6892877E0,-4.5330563E0,3.3337074E1,9.218197E1,3.33818E1,-4.8994003E1,-7.3798094E0,-4.2160667E1,-1.3972768E2,-2.9347752E1,-1.6360692E2,-9.246046E0,1.9907894E1,-4.2476044E1,6.120114E0,1.7352362E1,5.2382675E1,-1.5239842E2,9.637033E1,1.8344015E0,6.541827E1,-1.5104425E2,-4.560813E1,-1.7046503E1,6.03588E1,-1.396191E2,-9.81678E0,-1.9158603E2,-1.0829855E2,-4.779347E1,-2.5038093E-1,-8.771037E1,-3.3014343E2,2.286025E1,-1.4988605E1,1.177628E1,6.2216717E1,-6.433134E1,-2.3828722E1,-2.408395E0,3.1004772E1,-1.6105129E0,2.904185E1,3.8550697E1,7.156332E1,-2.3140962E2,-3.900675E1,4.9906677E1,1.1520815E2,5.6310814E1,-1.3899071E1,7.88684E1,4.272786E0,2.1856914E0,-1.1678685E1,-3.9152567E0,-1.7337424E0,8.058833E-1,-1.705298E0,2.023085E0,1.0166906E1,-1.0631088E1,-7.688463E-1,-1.8939824E0,3.693035E0,-4.968528E0,-1.2889094E1,7.304091E-1,-6.939514E0,-9.721301E0,-2.5274312E0,-1.1661195E0,2.0002072E0,-9.464892E0,1.1600603E0,-2.3146112E1,-2.1825688E0,4.1124105E0,1.612126E-1,5.814987E-1,-1.314907E0,-1.9905779E-1,1.5880862E0,-2.7507708E0,4.2581515E0,-5.527092E0,-2.3841093E0,-3.6628036E0,-2.3476958E-1,2.4113226E0,-4.9487376E-1,3.400036E0,5.2402085E-1,-3.5948117E0,3.0600846E-1,1.0705069E0,3.077294E0,1.1949834E-1,2.7414253E0,5.051737E0,2.0898874E0,-1.4575568E1,-1.5408215E-1,-4.2457743E0,1.4424446E0,5.705194E0,3.4140822E-1,5.0604157E0,1.0101732E1,8.523787E0,-2.8181477E-2,-3.9380047E0,5.507327E-1,5.0606985E0,-3.8688674E0,-6.4284363E0,1.9574953E0],"categories":[],"categories_nodes":[],"categories_segments":[],"categories_sizes":[],"default_left":[0,0,0,0,0,0,0,0,0,0,0,0,0,0,0,0,0,0,0,0,0,0,0,0,0,0,0,0,0,0,0,0,0,0,0,0,0,0,0,0,0,0,0,0,0,0,0,0,0,0,0,0,0,0,0,0,0,0,0,0,0,0,0,0,0,0,0,0,0,0,0,0,0,0,0,0,0,0,0,0,0,0,0,0,0,0,0,0,0,0,0,0,0,0,0,0,0,0,0,0,0,0,0,0,0,0,0,0,0,0,0,0,0,0,0,0,0,0,0,0,0,0,0,0,0,0,0],"id":5,"left_children":[1,3,5,7,9,11,13,15,17,19,21,23,25,27,29,31,33,35,37,39,41,43,45,47,49,51,53,55,57,59,61,63,65,67,69,71,73,75,77,79,81,83,85,87,89,91,93,95,97,99,101,103,105,107,109,111,113,115,117,119,121,123,125,-1,-1,-1,-1,-1,-1,-1,-1,-1,-1,-1,-1,-1,-1,-1,-1,-1,-1,-1,-1,-1,-1,-1,-1,-1,-1,-1,-1,-1,-1,-1,-1,-1,-1,-1,-1,-1,-1,-1,-1,-1,-1,-1,-1,-1,-1,-1,-1,-1,-1,-1,-1,-1,-1,-1,-1,-1,-1,-1,-1,-1,-1,-1,-1],"loss_changes":[1.8961292E7,7.08855E6,7.973861E6,3.760046E6,3.7370395E6,5.663553E6,2.548146E6,2.654658E6,1.080612E6,2.6136902E6,2.0471756E6,3.29524E6,2.327093E6,2.058658E6,1.2481575E6,1.821953E6,1.4147165E6,5.153005E5,6.38864E5,1.6100218E6,1.701777E6,1.00387475E6,1.4834094E6,7.15927E5,1.3521004E6,9.271885E5,9.05064E5,2.4108969E5,1.588848E6,5.471358E5,5.013615E5,1.4546182E6,1.715145E6,6.569262E5,7.387699E5,1.7695056E5,2.2350975E5,3.021675E5,3.004235E5,1.134244E6,7.603686E5,8.9421094E5,6.226535E5,7.605511E5,7.89953E5,8.081432E5,6.8434375E5,5.2964875E5,7.222058E5,1.1841625E6,9.25286E5,6.2928406E5,6.3719E5,5.337965E5,6.51551E5,4.48375E4,6.1707777E4,1.100298E6,2.056866E6,6.969509E5,5.970615E5,4.376315E5,4.0378725E5,0E0,0E0,0E0,0E0,0E0,0E0,0E0,0E0,0E0,0E0,0E0,0E0,0E0,0E0,0E0,0E0,0E0,0E0,0E0,0E0,0E0,0E0,0E0,0E0,0E0,0E0,0E0,0E0,0E0,0E0,0E0,0E0,0E0,0E0,0E0,0E0,0E0,0E0,0E0,0E0,0E0,0E0,0E0,0E0,0E0,0E0,0E0,0E0,0E0,0E0,0E0,0E0,0E0,0E0,0E0,0E0,0E0,0E0,0E0,0E0,0E0,0E0,0E0,0E0],"parents":[2147483647,0,0,1,1,2,2,3,3,4,4,5,5,6,6,7,7,8,8,9,9,10,10,11,11,12,12,13,13,14,14,15,15,16,16,17,17,18,18,19,19,20,20,21,21,22,22,23,23,24,24,25,25,26,26,27,27,28,28,29,29,30,30,31,31,32,32,33,33,34,34,35,35,36,36,37,37,38,38,39,39,40,40,41,41,42,42,43,43,44,44,45,45,46,46,47,47,48,48,49,49,50,50,51,51,52,52,53,53,54,54,55,55,56,56,57,57,58,58,59,59,60,60,61,61,62,62],"right_children":[2,4,6,8,10,12,14,16,18,20,22,24,26,28,30,32,34,36,38,40,42,44,46,48,50,52,54,56,58,60,62,64,66,68,70,72,74,76,78,80,82,84,86,88,90,92,94,96,98,100,102,104,106,108,110,112,114,116,118,120,122,124,126,-1,-1,-1,-1,-1,-1,-1,-1,-1,-1,-1,-1,-1,-1,-1,-1,-1,-1,-1,-1,-1,-1,-1,-1,-1,-1,-1,-1,-1,-1,-1,-1,-1,-1,-1,-1,-1,-1,-1,-1,-1,-1,-1,-1,-1,-1,-1,-1,-1,-1,-1,-1,-1,-1,-1,-1,-1,-1,-1,-1,-1,-1,-1,-1],"split_conditions":[7.556355E-2,-2.58311E-1,1.140136E0,2.307246E0,-7.939643E-1,1.1593373E-1,-5.2608073E-2,3.1163052E-1,1.3303967E-16,1.3516567E0,-3.5825485E-1,-1.0002134E0,2.0560429E-1,-2.4426095E0,7.434566E-1,-2.280542E0,1.3662429E0,-2.028705E0,-3.4191614E-1,-8.78565E-2,5.163708E-1,-1.2964169E0,1.2107654E-1,-3.1366786E-1,7.251677E-1,-4.9205735E-2,3.125657E-1,-8.2834554E-1,-3.6620292E-1,-9.548238E-1,9.0360194E-1,-8.773966E-1,-2.3259334E-1,-5.8130646E-1,1.092938E0,6.690353E-1,-2.1240372E-2,8.377412E-1,-1.844534E0,-2.9334753E0,3.9953128E-1,7.857049E-1,5.0590783E-1,-5.3586656E-1,-4.358698E-1,9.178687E-2,-1.4654973E0,-6.9752836E-1,-1.7937906E-1,-1.4188472E0,-2.1587975E-1,-1.2933956E0,1.4142312E0,-6.7158216E-1,8.374341E-1,9.996252E-1,1.5003935E0,-8.855537E-1,9.140823E-1,-5.14183E-1,-3.9997217E-1,1.3225553E0,-1.0002134E0,2.1856914E0,-1.1678685E1,-3.9152567E0,-1.7337424E0,8.058833E-1,-1.705298E0,2.023085E0,1.0166906E1,-1.0631088E1,-7.688463E-1,-1.8939824E0,3.693035E0,-4.968528E0,-1.2889094E1,7.304091E-1,-6.939514E0,-9.721301E0,-2.5274312E0,-1.1661195E0,2.0002072E0,-9.464892E0,1.1600603E0,-2.3146112E1,-2.1825688E0,4.1124105E0,1.612126E-1,5.814987E-1,-1.314907E0,-1.9905779E-1,1.5880862E0,-2.7507708E0,4.2581515E0,-5.527092E0,-2.3841093E0,-3.6628036E0,-2.3476958E-1,2.4113226E0,-4.9487376E-1,3.400036E0,5.2402085E-1,-3.5948117E0,3.0600846E-1,1.0705069E0,3.077294E0,1.1949834E-1,2.7414253E0,5.051737E0,2.0898874E0,-1.4575568E1,-1.5408215E-1,-4.2457743E0,1.4424446E0,5.705194E0,3.4140822E-1,5.0604157E0,1.0101732E1,8.523787E0,-2.8181477E-2,-3.9380047E0,5.507327E-1,5.0606985E0,-3.8688674E0,-6.4284363E0,1.9574953E0],"split_indices":[638,658,682,390,682,658,35,418,9,421,693,338,682,396,820,682,227,682,682,820,131,3,824,659,820,659,571,768,606,78,703,769,659,800,828,308,594,654,395,682,659,300,284,550,614,66,659,658,440,201,695,829,515,308,702,514,803,56,824,197,197,610,338,0,0,0,0,0,0,0,0,0,0,0,0,0,0,0,0,0,0,0,0,0,0,0,0,0,0,0,0,0,0,0,0,0,0,0,0,0,0,0,0,0,0,0,0,0,0,0,0,0,0,0,0,0,0,0,0,0,0,0,0,0,0,0,0],"split_type":[0,0,0,0,0,0,0,0,0,0,0,0,0,0,0,0,0,0,0,0,0,0,0,0,0,0,0,0,0,0,0,0,0,0,0,0,0,0,0,0,0,0,0,0,0,0,0,0,0,0,0,0,0,0,0,0,0,0,0,0,0,0,0,0,0,0,0,0,0,0,0,0,0,0,0,0,0,0,0,0,0,0,0,0,0,0,0,0,0,0,0,0,0,0,0,0,0,0,0,0,0,0,0,0,0,0,0,0,0,0,0,0,0,0,0,0,0,0,0,0,0,0,0,0,0,0,0],"sum_hessian":[4.0004E4,2.109E4,1.8914E4,8.21E3,1.288E4,1.5799E4,3.115E3,7.565E3,6.45E2,3.137E3,9.743E3,8.139E3,7.66E3,1.887E3,1.228E3,5.425E3,2.14E3,1.59E2,4.86E2,2.992E3,1.45E2,5.422E3,4.321E3,1.779E3,6.36E3,4.173E3,3.487E3,2.7E1,1.86E3,6.23E2,6.05E2,1.63E2,5.262E3,1.878E3,2.62E2,3.3E1,1.26E2,1.68E2,3.18E2,1.828E3,1.164E3,1.08E2,3.7E1,8.19E2,4.603E3,3.633E3,6.88E2,8.1E2,9.69E2,4.742E3,1.618E3,1.594E3,2.579E3,2.04E3,1.447E3,1.1E1,1.6E1,5.45E2,1.315E3,1.35E2,4.88E2,4.94E2,1.11E2,3.1E1,1.32E2,2.408E3,2.854E3,5.1E2,1.368E3,2.19E2,4.3E1,2.3E1,1E1,1E2,2.6E1,3.6E1,1.32E2,1.8E1,3E2,7.6E1,1.752E3,7.43E2,4.21E2,6.3E1,4.5E1,2.9E1,8E0,2.45E2,5.74E2,1.008E3,3.595E3,1.795E3,1.838E3,4.9E1,6.39E2,3.7E2,4.4E2,3.32E2,6.37E2,5.66E2,4.176E3,7.46E2,8.72E2,1.58E2,1.436E3,1.725E3,8.54E2,3.35E2,1.705E3,1.069E3,3.78E2,1E1,1E0,1E1,6E0,2.65E2,2.8E2,8.45E2,4.7E2,4.9E1,8.6E1,1.46E2,3.42E2,4.79E2,1.5E1,1.8E1,9.3E1],"tree_param":{"num_deleted":"0","num_feature":"830","num_nodes":"127","size_leaf_vector":"1"}},{"base_weights":[-2.6363349E-2,-1.4054275E1,3.0247826E1,-3.8758083E1,-2.69989E0,1.0691076E1,5.776244E1,-6.3810295E1,-2.5375158E1,-1.9426882E1,9.345188E0,-3.6308147E1,2.3086594E1,4.217451E1,9.226701E1,-3.7804222E1,-8.1707245E1,-1.7254533E2,-2.3164791E1,-8.192505E1,-1.403298E1,-4.707839E0,2.439562E1,-1.1922186E1,-6.3460777E1,2.3780272E0,4.620581E1,3.1956451E1,7.421857E1,6.93325E1,1.36578E2,-8.9333984E1,-2.292023E1,-9.83508E1,-4.4553436E1,-2.2993001E2,1.1449019E2,-5.002669E1,-1.3686842E1,-4.8208817E1,-1.3257285E2,-6.926972E0,-4.043164E1,-4.7754505E1,5.1322024E-2,1.7660265E1,7.482224E1,4.076783E1,-3.2158726E1,-7.227856E1,2.0245708E1,-4.443342E0,4.9854717E1,3.2660908E1,9.0889946E1,1.965521E1,6.500288E1,1.6904443E2,6.401805E1,9.679161E1,3.4325706E1,1.1433163E2,2.731395E2,-1.3154694E0,-7.002663E0,4.6631308E0,-1.7235514E0,6.408726E0,-6.046042E0,1.8924403E0,-3.240084E0,-1.7079399E0,-1.6788557E1,-3.278403E0,1.1327976E1,-3.6904173E0,5.6187475E-1,-2.5941443E0,-2.0158845E-1,-1.7335914E0,-8.40161E0,-1.0376445E1,-4.6383303E-1,-8.9920497E-1,1.4898348E0,-9.303994E0,-2.1341002E0,-5.9116077E0,-3.262283E-1,-2.5486472E-1,2.1365752E0,1.280744E0,-3.9180477E0,-7.979239E0,4.884125E0,-8.4433347E-1,4.6026993E0,-2.940991E0,2.8078394E0,-5.234052E0,-1.786671E0,5.774087E0,-1.3648746E0,-2.0955932E0,3.572433E-1,5.006915E0,1.3498875E-1,1.6420588E0,9.877782E0,1.006316E1,3.2572773E0,5.054206E-1,3.3570263E0,3.2009923E0,7.351142E0,-1.8852451E0,1.150345E1,-5.207527E0,4.0901866E0,7.372256E0,3.4314477E0,4.9985722E-1,4.693847E0,4.992467E0,1.1132213E1,2.2609116E1,7.4236045E0],"categories":[],"categories_nodes":[],"categories_segments":[],"categories_sizes":[],"default_left":[0,0,0,0,0,0,0,0,0,0,0,0,0,0,0,0,0,0,0,0,0,0,0,0,0,0,0,0,0,0,0,0,0,0,0,0,0,0,0,0,0,0,0,0,0,0,0,0,0,0,0,0,0,0,0,0,0,0,0,0,0,0,0,0,0,0,0,0,0,0,0,0,0,0,0,0,0,0,0,0,0,0,0,0,0,0,0,0,0,0,0,0,0,0,0,0,0,0,0,0,0,0,0,0,0,0,0,0,0,0,0,0,0,0,0,0,0,0,0,0,0,0,0,0,0,0,0],"id":6,"left_children":[1,3,5,7,9,11,13,15,17,19,21,23,25,27,29,31,33,35,37,39,41,43,45,47,49,51,53,55,57,59,61,63,65,67,69,71,73,75,77,79,81,83,85,87,89,91,93,95,97,99,101,103,105,107,109,111,113,115,117,119,121,123,125,-1,-1,-1,-1,-1,-1,-1,-1,-1,-1,-1,-1,-1,-1,-1,-1,-1,-1,-1,-1,-1,-1,-1,-1,-1,-1,-1,-1,-1,-1,-1,-1,-1,-1,-1,-1,-1,-1,-1,-1,-1,-1,-1,-1,-1,-1,-1,-1,-1,-1,-1,-1,-1,-1,-1,-1,-1,-1,-1,-1,-1,-1,-1,-1],"loss_changes":[1.6995826E7,7.6701415E6,6.813747E6,2.873983E6,3.778166E6,4.327686E6,2.799464E6,1.3682E6,1.7979665E6,2.6370118E6,2.3069678E6,1.0208554E6,2.811343E6,1.172758E6,1.581545E6,9.307135E5,1.056846E6,1.5613712E6,1.4079742E6,1.0108505E6,1.3551068E6,1.1565359E6,1.7778878E6,8.9227975E5,5.52052E5,1.00803825E6,1.6556755E6,1.1173582E6,7.58589E5,1.022019E6,1.414608E6,4.8505075E5,5.8397175E5,6.87492E5,4.1697062E5,6.494445E5,3.214538E5,9.89901E5,1.2544939E6,6.520442E5,1.218792E6,1.4647479E6,8.1034E5,1.2030954E6,7.794893E5,1.4346808E6,9.3157825E5,4.6797925E5,8.196298E5,4.011575E5,2.658821E5,8.650536E5,6.237125E5,1.4600482E6,1.729498E6,8.249198E5,4.4954E5,4.120735E5,5.49465E5,5.704905E5,5.5622E5,9.510745E5,7.263785E5,0E0,0E0,0E0,0E0,0E0,0E0,0E0,0E0,0E0,0E0,0E0,0E0,0E0,0E0,0E0,0E0,0E0,0E0,0E0,0E0,0E0,0E0,0E0,0E0,0E0,0E0,0E0,0E0,0E0,0E0,0E0,0E0,0E0,0E0,0E0,0E0,0E0,0E0,0E0,0E0,0E0,0E0,0E0,0E0,0E0,0E0,0E0,0E0,0E0,0E0,0E0,0E0,0E0,0E0,0E0,0E0,0E0,0E0,0E0,0E0,0E0,0E0,0E0,0E0],"parents":[2147483647,0,0,1,1,2,2,3,3,4,4,5,5,6,6,7,7,8,8,9,9,10,10,11,11,12,12,13,13,14,14,15,15,16,16,17,17,18,18,19,19,20,20,21,21,22,22,23,23,24,24,25,25,26,26,27,27,28,28,29,29,30,30,31,31,32,32,33,33,34,34,35,35,36,36,37,37,38,38,39,39,40,40,41,41,42,42,43,43,44,44,45,45,46,46,47,47,48,48,49,49,50,50,51,51,52,52,53,53,54,54,55,55,56,56,57,57,58,58,59,59,60,60,61,61,62,62],"right_children":[2,4,6,8,10,12,14,16,18,20,22,24,26,28,30,32,34,36,38,40,42,44,46,48,50,52,54,56,58,60,62,64,66,68,70,72,74,76,78,80,82,84,86,88,90,92,94,96,98,100,102,104,106,108,110,112,114,116,118,120,122,124,126,-1,-1,-1,-1,-1,-1,-1,-1,-1,-1,-1,-1,-1,-1,-1,-1,-1,-1,-1,-1,-1,-1,-1,-1,-1,-1,-1,-1,-1,-1,-1,-1,-1,-1,-1,-1,-1,-1,-1,-1,-1,-1,-1,-1,-1,-1,-1,-1,-1,-1,-1,-1,-1,-1,-1,-1,-1,-1,-1,-1,-1,-1,-1,-1],"split_conditions":[3.995934E-1,-3.8944972E-1,2.382326E-1,-4.3665737E-1,-1.625258E-1,-1.0002134E0,9.374163E-1,1.3303967E-16,-2.9334753E0,-1.6567951E0,-3.5825485E-1,9.755139E-1,9.226968E-2,1.2249509E0,7.0894563E-1,-8.081597E-1,1.7586522E-1,8.371036E-1,-9.2373985E-1,7.0675564E-1,7.629783E-1,-1.3882263E0,4.0950176E-1,1.9789195E-1,6.435319E-1,2.2156475E0,1.8868674E-1,1.0853007E0,-6.6745865E-1,2.9338136E-2,1.2213566E0,-4.5960426E-1,-1.514376E0,-1.835529E0,-1.260785E0,-3.8037583E-1,-8.286967E-1,1.7849159E0,-9.9997354E-1,1.0307162E0,3.118184E-1,5.625262E-1,-1.4153223E0,-1.5432023E-1,1.2447121E0,1.3227264E0,-2.4370418E0,-4.0330628E-1,1.3084223E0,2.717091E-2,4.05538E-2,-3.5318695E-5,3.913147E-1,5.8101473E0,-1.9102024E-1,1.4142312E0,1.2196225E0,-1.0241872E0,-1.844822E0,1.0721199E-4,7.067203E-1,1.2447121E0,5.961664E-1,-1.3154694E0,-7.002663E0,4.6631308E0,-1.7235514E0,6.408726E0,-6.046042E0,1.8924403E0,-3.240084E0,-1.7079399E0,-1.6788557E1,-3.278403E0,1.1327976E1,-3.6904173E0,5.6187475E-1,-2.5941443E0,-2.0158845E-1,-1.7335914E0,-8.40161E0,-1.0376445E1,-4.6383303E-1,-8.9920497E-1,1.4898348E0,-9.303994E0,-2.1341002E0,-5.9116077E0,-3.262283E-1,-2.5486472E-1,2.1365752E0,1.280744E0,-3.9180477E0,-7.979239E0,4.884125E0,-8.4433347E-1,4.6026993E0,-2.940991E0,2.8078394E0,-5.234052E0,-1.786671E0,5.774087E0,-1.3648746E0,-2.0955932E0,3.572433E-1,5.006915E0,1.3498875E-1,1.6420588E0,9.877782E0,1.006316E1,3.2572773E0,5.054206E-1,3.3570263E0,3.2009923E0,7.351142E0,-1.8852451E0,1.150345E1,-5.207527E0,4.0901866E0,7.372256E0,3.4314477E0,4.9985722E-1,4.693847E0,4.992467E0,1.1132213E1,2.2609116E1,7.4236045E0],"split_indices":[682,658,658,659,418,338,638,515,682,682,693,456,820,337,824,88,528,440,820,118,822,682,802,770,659,739,824,820,737,179,78,109,13,145,504,175,1,761,773,821,242,820,167,220,658,223,659,799,768,744,615,516,615,85,651,515,44,372,264,447,352,570,768,0,0,0,0,0,0,0,0,0,0,0,0,0,0,0,0,0,0,0,0,0,0,0,0,0,0,0,0,0,0,0,0,0,0,0,0,0,0,0,0,0,0,0,0,0,0,0,0,0,0,0,0,0,0,0,0,0,0,0,0,0,0,0,0],"split_type":[0,0,0,0,0,0,0,0,0,0,0,0,0,0,0,0,0,0,0,0,0,0,0,0,0,0,0,0,0,0,0,0,0,0,0,0,0,0,0,0,0,0,0,0,0,0,0,0,0,0,0,0,0,0,0,0,0,0,0,0,0,0,0,0,0,0,0,0,0,0,0,0,0,0,0,0,0,0,0,0,0,0,0,0,0,0,0,0,0,0,0,0,0,0,0,0,0,0,0,0,0,0,0,0,0,0,0,0,0,0,0,0,0,0,0,0,0,0,0,0,0,0,0,0,0,0,0],"sum_hessian":[4.0004E4,2.734E4,1.2664E4,8.603E3,1.8737E4,7.409E3,5.255E3,2.985E3,5.618E3,7.842E3,1.0895E4,1.543E3,5.866E3,3.632E3,1.623E3,1.227E3,1.758E3,7.4E1,5.544E3,6.14E2,7.228E3,5.637E3,5.258E3,8.19E2,7.24E2,3.099E3,2.767E3,2.766E3,8.66E2,1.083E3,5.4E2,2.66E2,9.61E2,1.205E3,5.53E2,6.3E1,1.1E1,1.437E3,4.107E3,3.78E2,2.36E2,5.703E3,1.525E3,5.54E2,5.083E3,4.648E3,6.1E2,2.25E2,5.94E2,6.56E2,6.8E1,2.716E3,3.83E2,2.134E3,6.33E2,2.025E3,7.41E2,7.2E1,7.94E2,5.99E2,4.84E2,4.77E2,6.3E1,8.1E1,1.85E2,4.7E1,9.14E2,1E1,1.195E3,5.9E1,4.94E2,1.5E1,4.8E1,4E0,7E0,1.204E3,2.33E2,1.057E3,3.05E3,3.21E2,5.7E1,1.76E2,6E1,4.552E3,1.151E3,5.2E1,1.473E3,2.47E2,3.07E2,4.541E3,5.42E2,4.456E3,1.92E2,1.4E1,5.96E2,9.1E1,1.34E2,4.92E2,1.02E2,4.79E2,1.77E2,2.1E1,4.7E1,6.86E2,2.03E3,2.21E2,1.62E2,2.061E3,7.3E1,1.95E2,4.38E2,1.554E3,4.71E2,6.29E2,1.12E2,7E0,6.5E1,1.7E1,7.77E2,3.51E2,2.48E2,3.1E2,1.74E2,3.44E2,1.33E2,3E1,3.3E1],"tree_param":{"num_deleted":"0","num_feature":"830","num_nodes":"127","size_leaf_vector":"1"}},{"base_weights":[-1.4843726E-2,-1.34914665E1,2.906622E1,-2.7571218E1,4.7762675E0,1.3549004E1,5.5734085E1,-1.0096912E2,-2.4312635E1,-1.3859939E1,1.8286716E1,-2.6024275E1,2.3364101E1,4.7573788E1,1.2345531E2,-1.5948024E2,-6.2560837E1,-4.210807E1,-1.1161877E1,-3.4641975E1,2.456156E0,6.3384814E0,3.520017E1,-5.1140625E1,-2.6405623E0,5.037792E0,4.2914204E1,3.5231773E1,6.9614365E1,6.7271385E1,1.605412E2,-1.646813E1,-1.8799576E2,4.534409E1,-8.406979E1,-7.5894875E1,-3.3751617E1,-2.4457617E1,6.025236E0,-1.4428688E2,-2.794157E1,-6.7859836E0,5.425071E1,7.326697E0,-1.6953378E2,2.8153835E1,9.238671E1,-8.060339E0,-6.781907E1,-4.2085445E1,1.8702158E1,4.3711327E1,-5.1874933E0,-1.0915616E2,4.7061752E1,1.6194553E1,5.9889652E1,6.2868977E1,1.5372548E2,1.6499852E2,4.3101772E1,1.9516064E1,1.7543741E2,3.9166217E0,-5.791418E0,-2.1200766E-1,-1.2558763E1,4.8935446E-1,1.1840026E1,-2.0811505E0,-8.488922E0,-3.0666578E0,-6.442038E0,-2.4327414E0,1.1583318E-1,-1.1595563E0,-4.8356433E0,2.186645E0,-2.0871201E-1,-4.224327E0,-1.6913498E1,5.9562687E-2,-2.756045E0,2.785015E-1,-2.1362488E0,5.8544993E0,1.6931181E0,6.004429E-1,-3.1002572E0,-9.617051E-2,-1.45283785E1,-1.3677086E0,2.1114094E0,3.726346E0,1.0230672E1,-2.4362524E0,4.2816825E0,4.7945265E-2,-4.805908E0,-3.826909E0,2.114274E0,2.7364745E0,-1.1045972E0,5.234364E0,1.2636197E0,-1.0844514E-1,-6.9607043E0,4.785633E0,-1.3104015E1,2.2995925E0,6.6056232E0,1.209309E0,-7.670683E0,7.4078447E-1,4.6249113E0,-6.567074E0,3.9077485E0,-2.743498E0,1.004196E1,-1.8314791E0,1.2925898E1,5.9931116E0,2.4297383E-1,-3.1352758E0,5.2498636E0,1.2065583E1,3.0839741E0],"categories":[],"categories_nodes":[],"categories_segments":[],"categories_sizes":[],"default_left":[0,0,0,0,0,0,0,0,0,0,0,0,0,0,0,0,0,0,0,0,0,0,0,0,0,0,0,0,0,0,0,0,0,0,0,0,0,0,0,0,0,0,0,0,0,0,0,0,0,0,0,0,0,0,0,0,0,0,0,0,0,0,0,0,0,0,0,0,0,0,0,0,0,0,0,0,0,0,0,0,0,0,0,0,0,0,0,0,0,0,0,0,0,0,0,0,0,0,0,0,0,0,0,0,0,0,0,0,0,0,0,0,0,0,0,0,0,0,0,0,0,0,0,0,0,0,0],"id":7,"left_children":[1,3,5,7,9,11,13,15,17,19,21,23,25,27,29,31,33,35,37,39,41,43,45,47,49,51,53,55,57,59,61,63,65,67,69,71,73,75,77,79,81,83,85,87,89,91,93,95,97,99,101,103,105,107,109,111,113,115,117,119,121,123,125,-1,-1,-1,-1,-1,-1,-1,-1,-1,-1,-1,-1,-1,-1,-1,-1,-1,-1,-1,-1,-1,-1,-1,-1,-1,-1,-1,-1,-1,-1,-1,-1,-1,-1,-1,-1,-1,-1,-1,-1,-1,-1,-1,-1,-1,-1,-1,-1,-1,-1,-1,-1,-1,-1,-1,-1,-1,-1,-1,-1,-1,-1,-1,-1],"loss_changes":[1.5684405E7,7.034866E6,5.238117E6,3.674268E6,3.000774E6,3.1207315E6,2.527523E6,1.389702E6,3.4595E6,1.6995122E6,1.394183E6,9.373929E5,2.3026875E6,1.114891E6,9.468555E5,1.0108565E6,9.774719E5,1.754173E6,1.948377E6,1.5867778E6,1.3500334E6,7.150538E5,1.1307178E6,5.488051E5,7.1011594E5,1.3182986E6,2.0032025E6,1.2548978E6,7.67269E5,4.412857E5,5.87931E5,3.8418916E5,8.235595E5,3.9953106E5,9.33053E5,9.231525E5,1.225893E6,1.3719248E6,1.077343E6,1.1116782E6,1.0869031E6,7.900855E5,4.5942625E5,6.43512E5,2.7708512E5,9.2273925E5,6.4841125E5,6.021203E5,4.67386E5,5.145891E5,5.539384E5,6.724036E5,9.871334E5,1.8937294E6,1.6366085E6,8.9277244E5,9.478065E5,5.991295E5,3.4700775E5,4.3736562E5,3.9581338E5,2.171388E5,7.571775E5,0E0,0E0,0E0,0E0,0E0,0E0,0E0,0E0,0E0,0E0,0E0,0E0,0E0,0E0,0E0,0E0,0E0,0E0,0E0,0E0,0E0,0E0,0E0,0E0,0E0,0E0,0E0,0E0,0E0,0E0,0E0,0E0,0E0,0E0,0E0,0E0,0E0,0E0,0E0,0E0,0E0,0E0,0E0,0E0,0E0,0E0,0E0,0E0,0E0,0E0,0E0,0E0,0E0,0E0,0E0,0E0,0E0,0E0,0E0,0E0,0E0,0E0,0E0,0E0],"parents":[2147483647,0,0,1,1,2,2,3,3,4,4,5,5,6,6,7,7,8,8,9,9,10,10,11,11,12,12,13,13,14,14,15,15,16,16,17,17,18,18,19,19,20,20,21,21,22,22,23,23,24,24,25,25,26,26,27,27,28,28,29,29,30,30,31,31,32,32,33,33,34,34,35,35,36,36,37,37,38,38,39,39,40,40,41,41,42,42,43,43,44,44,45,45,46,46,47,47,48,48,49,49,50,50,51,51,52,52,53,53,54,54,55,55,56,56,57,57,58,58,59,59,60,60,61,61,62,62],"right_children":[2,4,6,8,10,12,14,16,18,20,22,24,26,28,30,32,34,36,38,40,42,44,46,48,50,52,54,56,58,60,62,64,66,68,70,72,74,76,78,80,82,84,86,88,90,92,94,96,98,100,102,104,106,108,110,112,114,116,118,120,122,124,126,-1,-1,-1,-1,-1,-1,-1,-1,-1,-1,-1,-1,-1,-1,-1,-1,-1,-1,-1,-1,-1,-1,-1,-1,-1,-1,-1,-1,-1,-1,-1,-1,-1,-1,-1,-1,-1,-1,-1,-1,-1,-1,-1,-1,-1,-1,-1,-1,-1,-1,-1,-1,-1,-1,-1,-1,-1,-1,-1,-1,-1,-1,-1,-1],"split_conditions":[3.995492E-1,1.0658562E-1,3.9963108E-1,-1.9257618E0,-2.7682948E-1,-1.0002134E0,1.6005334E0,-5.834756E-1,-2.5014517E-1,-1.6242635E-1,1.6207881E-2,1.604597E-1,9.226968E-2,7.626373E-1,2.524426E-1,-8.585844E-1,-1.0252093E0,-1.2249402E0,-3.940954E-1,-2.4418192E0,8.6985964E-1,4.1618308E-1,7.0894563E-1,5.0571315E-2,-5.727239E-1,-1.2964169E0,-1.4612582E0,-6.0013752E-2,1.1165239E0,-4.684114E-1,-1.455019E0,-4.5743248E-1,-1.2247366E0,8.699311E-1,7.072711E-1,1.4142312E0,5.573895E-1,2.187156E0,-7.163782E-1,9.6047395E-1,-3.6628997E-1,6.445659E-1,-8.727878E-1,2.1164863E0,5.2401036E-1,-9.1000307E-1,8.2478213E-1,1.5046452E-1,-1.3662093E0,1.2454329E0,1.2183895E0,-1.1684945E0,2.7761742E-1,-1.3960325E-2,1.1165239E0,1.042544E0,-1.382276E-1,-2.2740548E0,-1.6074163E0,-4.786932E-1,-1.7157802E-1,3.1251246E-1,3.5510314E-1,3.9166217E0,-5.791418E0,-2.1200766E-1,-1.2558763E1,4.8935446E-1,1.1840026E1,-2.0811505E0,-8.488922E0,-3.0666578E0,-6.442038E0,-2.4327414E0,1.1583318E-1,-1.1595563E0,-4.8356433E0,2.186645E0,-2.0871201E-1,-4.224327E0,-1.6913498E1,5.9562687E-2,-2.756045E0,2.785015E-1,-2.1362488E0,5.8544993E0,1.6931181E0,6.004429E-1,-3.1002572E0,-9.617051E-2,-1.45283785E1,-1.3677086E0,2.1114094E0,3.726346E0,1.0230672E1,-2.4362524E0,4.2816825E0,4.7945265E-2,-4.805908E0,-3.826909E0,2.114274E0,2.7364745E0,-1.1045972E0,5.234364E0,1.2636197E0,-1.0844514E-1,-6.9607043E0,4.785633E0,-1.3104015E1,2.2995925E0,6.6056232E0,1.209309E0,-7.670683E0,7.4078447E-1,4.6249113E0,-6.567074E0,3.9077485E0,-2.743498E0,1.004196E1,-1.8314791E0,1.2925898E1,5.9931116E0,2.4297383E-1,-3.1352758E0,5.2498636E0,1.2065583E1,3.0839741E0],"split_indices":[638,658,658,682,682,338,682,462,659,330,799,484,820,820,504,153,42,448,693,682,484,650,824,542,659,201,770,803,824,702,233,386,447,615,205,515,506,301,779,608,206,614,638,301,517,242,328,408,184,132,478,79,735,451,824,756,482,615,527,152,263,11,79,0,0,0,0,0,0,0,0,0,0,0,0,0,0,0,0,0,0,0,0,0,0,0,0,0,0,0,0,0,0,0,0,0,0,0,0,0,0,0,0,0,0,0,0,0,0,0,0,0,0,0,0,0,0,0,0,0,0,0,0,0,0,0,0],"split_type":[0,0,0,0,0,0,0,0,0,0,0,0,0,0,0,0,0,0,0,0,0,0,0,0,0,0,0,0,0,0,0,0,0,0,0,0,0,0,0,0,0,0,0,0,0,0,0,0,0,0,0,0,0,0,0,0,0,0,0,0,0,0,0,0,0,0,0,0,0,0,0,0,0,0,0,0,0,0,0,0,0,0,0,0,0,0,0,0,0,0,0,0,0,0,0,0,0,0,0,0,0,0,0,0,0,0,0,0,0,0,0,0,0,0,0,0,0,0,0,0,0,0,0,0,0,0,0],"sum_hessian":[4.0004E4,2.7339E4,1.2665E4,1.5437E4,1.1902E4,8.014E3,4.651E3,6.46E2,1.4791E4,5.002E3,6.9E3,1.59E3,6.424E3,4.163E3,4.88E2,2.46E2,4E2,6.278E3,8.513E3,2.196E3,2.806E3,4.05E3,2.85E3,7.62E2,8.28E2,3.321E3,3.103E3,2.682E3,1.481E3,2.03E2,2.85E2,4.3E1,2.03E2,6.5E1,3.35E2,1.232E3,5.046E3,4.798E3,3.715E3,1.17E2,2.079E3,2.387E3,4.19E2,4.035E3,1.5E1,2.548E3,3.02E2,2.16E2,5.46E2,2.88E2,5.4E2,6.89E2,2.632E3,7.7E1,3.026E3,1.521E3,1.161E3,1.384E3,9.7E1,3.1E1,1.72E2,2.9E1,2.56E2,2.2E1,2.1E1,2.2E1,1.81E2,5.9E1,6E0,1.87E2,1.48E2,7.01E2,5.31E2,4.238E3,8.08E2,4.406E3,3.92E2,8.79E2,2.836E3,8.4E1,3.3E1,8E2,1.279E3,1.714E3,6.73E2,1.49E2,2.7E2,3.866E3,1.69E2,7E0,8E0,3.07E2,2.241E3,2.28E2,7.4E1,1.56E2,6E1,8.4E1,4.62E2,2.26E2,6.2E1,3.12E2,2.28E2,2.28E2,4.61E2,2.562E3,7E1,2.9E1,4.8E1,2.669E3,3.57E2,1.487E3,3.4E1,3.12E2,8.49E2,1.3E1,1.371E3,5E0,9.2E1,7E0,2.4E1,6.5E1,1.07E2,1.5E1,1.4E1,2.08E2,4.8E1],"tree_param":{"num_deleted":"0","num_feature":"830","num_nodes":"127","size_leaf_vector":"1"}},{"base_weights":[-1.6774852E-2,-1.7851952E1,1.9869373E1,-3.740468E1,-5.3730474E0,1.1987044E1,5.97144E1,-3.1746712E1,-1.0256172E2,-3.1451954E1,3.0425148E0,-3.3548996E1,1.7744463E1,7.97979E1,2.8535654E1,-4.253094E1,-4.3511386E0,-3.3979336E1,-1.2408351E2,-2.5356045E1,-1.493285E2,-1.0472199E1,1.4143585E1,3.667918E0,-5.1149647E1,3.4627278E0,3.1977423E1,-1.483801E2,8.3731964E1,2.993531E-2,5.7504368E1,-5.483189E0,-5.013275E1,-1.3323145E1,5.8445206E1,-1.8977757E2,-1.4379316E1,-1.7216841E2,-9.507551E1,-5.790633E1,-1.102859E1,-5.4473248E1,-2.645638E2,-3.342881E1,-1.2422063E0,4.6391945E0,3.339946E1,-2.9069967E1,5.4947826E1,-5.6904987E1,8.542072E1,-2.2236555E1,1.0543151E1,1.9102987E1,4.8912773E1,-1.88544E2,5.661919E0,3.0234856E1,9.7185646E1,7.556828E0,-1.0973399E2,7.0223976E1,-1.0573315E-2,-1.0245198E0,2.4373739E0,-5.0934453E0,-2.3823404E0,-1.3519013E0,1.228476E0,1.6563377E0,8.505499E0,-5.381561E-2,-1.2024437E1,-1.9908018E0,3.6847613E0,-4.334311E0,-1.1623776E1,-6.6292896E0,-1.7722224E0,-1.5973201E0,-5.7148833E0,-1.112286E0,2.6205862E0,4.6106343E0,-6.994945E0,-2.9483027E0,-1.946524E1,-1.2244245E0,-3.640638E0,-6.2644017E-1,1.6936094E0,-1.1145732E-1,1.8641832E0,2.580901E0,-5.5519074E-1,1.8074354E0,-2.835179E0,1.3575041E0,5.7136183E0,4.397113E0,-3.6522334E0,-3.0512142E0,7.168002E0,5.9211245E0,-1.5626383E0,5.9888028E-2,1.6015763E0,1.0757624E-1,1.7573628E0,2.4588664E0,5.2485166E0,-1.0126041E0,-1.3750793E1,1.4790057E0,-1.4071347E0,5.102651E0,-8.67503E-1,4.2491217E0,8.137849E0,-4.45839E-1,3.8851802E0,1.1428425E0,-1.050019E1,-1.8239969E0,4.6419153E0,-3.0916355E0,3.4500682E0],"categories":[],"categories_nodes":[],"categories_segments":[],"categories_sizes":[],"default_left":[0,0,0,0,0,0,0,0,0,0,0,0,0,0,0,0,0,0,0,0,0,0,0,0,0,0,0,0,0,0,0,0,0,0,0,0,0,0,0,0,0,0,0,0,0,0,0,0,0,0,0,0,0,0,0,0,0,0,0,0,0,0,0,0,0,0,0,0,0,0,0,0,0,0,0,0,0,0,0,0,0,0,0,0,0,0,0,0,0,0,0,0,0,0,0,0,0,0,0,0,0,0,0,0,0,0,0,0,0,0,0,0,0,0,0,0,0,0,0,0,0,0,0,0,0,0,0],"id":8,"left_children":[1,3,5,7,9,11,13,15,17,19,21,23,25,27,29,31,33,35,37,39,41,43,45,47,49,51,53,55,57,59,61,63,65,67,69,71,73,75,77,79,81,83,85,87,89,91,93,95,97,99,101,103,105,107,109,111,113,115,117,119,121,123,125,-1,-1,-1,-1,-1,-1,-1,-1,-1,-1,-1,-1,-1,-1,-1,-1,-1,-1,-1,-1,-1,-1,-1,-1,-1,-1,-1,-1,-1,-1,-1,-1,-1,-1,-1,-1,-1,-1,-1,-1,-1,-1,-1,-1,-1,-1,-1,-1,-1,-1,-1,-1,-1,-1,-1,-1,-1,-1,-1,-1,-1,-1,-1,-1],"loss_changes":[1.4194012E7,5.14619E6,5.9370665E6,3.003436E6,2.829306E6,4.1488692E6,1.93723E6,2.2358405E6,9.299505E5,2.2294202E6,1.4641096E6,1.1655578E6,2.8526015E6,1.800411E6,1.02058556E6,1.52784E6,1.2163872E6,4.8792416E5,5.57835E5,1.3939106E6,1.5567812E6,9.323701E5,9.791356E5,9.831485E5,9.8757175E5,1.2785078E6,1.525229E6,2.2526562E5,1.320827E6,5.278521E5,4.4852725E5,5.04719E5,1.606358E6,5.906688E5,6.6224606E5,3.4500188E4,2.3998934E5,2.669875E5,3.0305175E5,1.0485055E6,8.6627325E5,8.38373E5,7.36039E5,4.3779912E5,8.556675E5,6.179755E5,7.287359E5,3.967286E5,2.7948675E5,6.3610625E5,2.8992988E5,7.1937644E5,8.485091E5,7.06091E5,8.9827E5,1.6413531E5,1.2918372E4,9.579051E5,1.432325E6,5.16528E5,3.7144647E5,3.79591E5,3.7627175E5,0E0,0E0,0E0,0E0,0E0,0E0,0E0,0E0,0E0,0E0,0E0,0E0,0E0,0E0,0E0,0E0,0E0,0E0,0E0,0E0,0E0,0E0,0E0,0E0,0E0,0E0,0E0,0E0,0E0,0E0,0E0,0E0,0E0,0E0,0E0,0E0,0E0,0E0,0E0,0E0,0E0,0E0,0E0,0E0,0E0,0E0,0E0,0E0,0E0,0E0,0E0,0E0,0E0,0E0,0E0,0E0,0E0,0E0,0E0,0E0,0E0,0E0,0E0,0E0],"parents":[2147483647,0,0,1,1,2,2,3,3,4,4,5,5,6,6,7,7,8,8,9,9,10,10,11,11,12,12,13,13,14,14,15,15,16,16,17,17,18,18,19,19,20,20,21,21,22,22,23,23,24,24,25,25,26,26,27,27,28,28,29,29,30,30,31,31,32,32,33,33,34,34,35,35,36,36,37,37,38,38,39,39,40,40,41,41,42,42,43,43,44,44,45,45,46,46,47,47,48,48,49,49,50,50,51,51,52,52,53,53,54,54,55,55,56,56,57,57,58,58,59,59,60,60,61,61,62,62],"right_children":[2,4,6,8,10,12,14,16,18,20,22,24,26,28,30,32,34,36,38,40,42,44,46,48,50,52,54,56,58,60,62,64,66,68,70,72,74,76,78,80,82,84,86,88,90,92,94,96,98,100,102,104,106,108,110,112,114,116,118,120,122,124,126,-1,-1,-1,-1,-1,-1,-1,-1,-1,-1,-1,-1,-1,-1,-1,-1,-1,-1,-1,-1,-1,-1,-1,-1,-1,-1,-1,-1,-1,-1,-1,-1,-1,-1,-1,-1,-1,-1,-1,-1,-1,-1,-1,-1,-1,-1,-1,-1,-1,-1,-1,-1,-1,-1,-1,-1,-1,-1,-1,-1,-1,-1,-1,-1],"split_conditions":[7.556355E-2,-2.58311E-1,1.140136E0,2.307246E0,-7.939643E-1,-1.2249402E0,-5.2608073E-2,3.1163052E-1,1.3303967E-16,1.3516567E0,-1.147952E-1,1.4944407E-1,1.1593373E-1,-2.4426095E0,7.434566E-1,-9.9997354E-1,1.3662429E0,-1.6572372E0,-3.4191614E-1,-5.119571E-1,2.7698264E-1,-5.1197916E-1,3.8189474E-1,3.0197317E-2,2.2602468E0,-6.219958E-1,2.520474E-1,-2.1301777E0,-7.0098466E-1,1.0853007E0,9.0360194E-1,4.3387482E-1,-9.626515E-1,9.5202327E-1,6.568311E-1,-3.4243965E-1,-2.1240372E-2,8.377412E-1,9.148646E-1,3.6570176E-1,9.563196E-1,-4.5960426E-1,-1.0867631E0,5.627105E-1,8.093622E-1,5.259375E-1,7.408551E-1,-6.992073E-1,4.383219E-1,-5.403106E-1,3.443597E-1,-1.8053787E0,3.282296E-1,-4.9205735E-2,9.7376406E-1,-4.9957964E-1,4.482796E-1,-1.0281228E0,8.196884E-1,8.5510266E-1,-7.0705664E-1,-1.5084149E0,5.684751E-1,-1.0245198E0,2.4373739E0,-5.0934453E0,-2.3823404E0,-1.3519013E0,1.228476E0,1.6563377E0,8.505499E0,-5.381561E-2,-1.2024437E1,-1.9908018E0,3.6847613E0,-4.334311E0,-1.1623776E1,-6.6292896E0,-1.7722224E0,-1.5973201E0,-5.7148833E0,-1.112286E0,2.6205862E0,4.6106343E0,-6.994945E0,-2.9483027E0,-1.946524E1,-1.2244245E0,-3.640638E0,-6.2644017E-1,1.6936094E0,-1.1145732E-1,1.8641832E0,2.580901E0,-5.5519074E-1,1.8074354E0,-2.835179E0,1.3575041E0,5.7136183E0,4.397113E0,-3.6522334E0,-3.0512142E0,7.168002E0,5.9211245E0,-1.5626383E0,5.9888028E-2,1.6015763E0,1.0757624E-1,1.7573628E0,2.4588664E0,5.2485166E0,-1.0126041E0,-1.3750793E1,1.4790057E0,-1.4071347E0,5.102651E0,-8.67503E-1,4.2491217E0,8.137849E0,-4.45839E-1,3.8851802E0,1.1428425E0,-1.050019E1,-1.8239969E0,4.6419153E0,-3.0916355E0,3.4500682E0],"split_indices":[638,658,682,390,682,338,35,418,9,421,154,344,658,396,820,161,227,352,682,330,43,418,440,386,176,659,682,374,715,408,703,799,440,820,828,263,594,654,36,140,484,241,264,79,658,396,169,724,130,455,145,168,308,659,396,132,263,188,824,482,73,44,659,0,0,0,0,0,0,0,0,0,0,0,0,0,0,0,0,0,0,0,0,0,0,0,0,0,0,0,0,0,0,0,0,0,0,0,0,0,0,0,0,0,0,0,0,0,0,0,0,0,0,0,0,0,0,0,0,0,0,0,0,0,0,0,0],"split_type":[0,0,0,0,0,0,0,0,0,0,0,0,0,0,0,0,0,0,0,0,0,0,0,0,0,0,0,0,0,0,0,0,0,0,0,0,0,0,0,0,0,0,0,0,0,0,0,0,0,0,0,0,0,0,0,0,0,0,0,0,0,0,0,0,0,0,0,0,0,0,0,0,0,0,0,0,0,0,0,0,0,0,0,0,0,0,0,0,0,0,0,0,0,0,0,0,0,0,0,0,0,0,0,0,0,0,0,0,0,0,0,0,0,0,0,0,0,0,0,0,0,0,0,0,0,0,0],"sum_hessian":[4.0004E4,2.109E4,1.8914E4,8.21E3,1.288E4,1.5799E4,3.115E3,7.565E3,6.45E2,3.137E3,9.743E3,1.769E3,1.403E4,1.887E3,1.228E3,5.425E3,2.14E3,1.59E2,4.86E2,2.992E3,1.45E2,4.394E3,5.349E3,5.7E2,1.199E3,7.008E3,7.022E3,2.7E1,1.86E3,6.23E2,6.05E2,9.26E2,4.499E3,1.878E3,2.62E2,1E1,1.49E2,1.68E2,3.18E2,9.07E2,2.085E3,8.6E1,5.9E1,1.254E3,3.14E3,3.588E3,1.761E3,3.5E2,2.2E2,1.155E3,4.4E1,1.51E3,5.498E3,3.999E3,3.023E3,2E1,7E0,3.79E2,1.481E3,5.9E2,3.3E1,4.94E2,1.11E2,7.44E2,1.82E2,1.025E3,3.474E3,1.478E3,4E2,1.99E2,6.3E1,1E0,9E0,1.23E2,2.6E1,3.6E1,1.32E2,2.53E2,6.5E1,5.01E2,4.06E2,1.838E3,2.47E2,2.7E1,5.9E1,1.6E1,4.3E1,8.58E2,3.96E2,2.397E3,7.43E2,2.886E3,7.02E2,1.437E3,3.24E2,8.1E1,2.69E2,1.29E2,9.1E1,3E1,1.125E3,8E0,3.6E1,4E1,1.47E3,3.461E3,2.037E3,1.485E3,2.514E3,2.521E3,5.02E2,6E0,1.4E1,5E0,2E0,1.67E2,2.12E2,8.92E2,5.89E2,4.73E2,1.17E2,1.3E1,2E1,3.1E1,4.63E2,5.9E1,5.2E1],"tree_param":{"num_deleted":"0","num_feature":"830","num_nodes":"127","size_leaf_vector":"1"}},{"base_weights":[-2.291136E-2,-1.7526388E1,1.8586842E1,-3.440234E1,-5.4128284E0,3.543817E0,4.0512928E1,-5.8172363E1,-2.2417463E1,-2.7213917E1,4.021254E0,-3.385194E1,1.4005111E1,2.9844E1,7.157333E1,-1.8623694E2,-5.4968857E1,-4.679815E1,-1.2127964E1,-9.062058E1,-1.9859884E1,-7.7491903E0,1.812161E1,-1.6553453E1,-6.025714E1,-1.6722158E0,3.490246E1,1.25327E1,4.2013786E1,5.31305E1,1.1181999E2,2.5523357E1,-2.3616986E2,-5.989553E1,3.5409718E1,-4.2527744E1,-2.200339E2,-1.761123E1,3.2135204E1,-1.3558276E1,-1.2178722E2,1.94136E1,-2.6756132E1,-5.009768E1,-1.4352207E0,1.25597725E1,6.0088554E1,1.2059168E1,-4.1682423E1,1.3116614E1,-7.4251144E1,-3.1367918E1,8.803164E0,2.5836296E1,8.0692184E1,1.5728953E0,4.3699287E1,3.4443085E1,8.262308E1,2.1400011E1,7.5700294E1,9.213871E1,2.4630795E2,-1.171147E0,2.7963622E0,-1.6725332E1,-5.844263E-1,-5.2718315E0,-2.9200861E0,-1.2123859E0,5.458282E0,-1.4925444E0,-5.152399E0,-1.5875961E1,6.405281E-1,-2.6858242E0,-5.6045765E-1,5.086205E0,1.4134608E-1,-4.8186636E0,1.5200094E0,-1.0042754E1,-2.4908776E0,8.106302E0,7.17509E-1,-1.0762733E0,-3.6272044E0,-6.321772E0,-7.254131E-1,4.798233E0,-2.4733354E-1,9.728707E-1,-3.864427E0,3.991803E-1,5.5195966E0,-1.304066E-1,4.319334E0,-3.3422208E0,7.8980887E-1,-2.1481524E0,7.743612E0,-5.0582705E0,-1.4018732E0,-6.307865E0,-1.087682E0,-1.4024919E-2,2.1071846E0,2.327718E0,-2.7757972E-1,-4.301644E0,5.273473E0,-4.199769E-1,2.8791997E0,3.6186779E0,-2.0865545E0,1.2488565E0,3.099521E0,4.024367E0,1.1021018E1,5.73051E0,4.567602E-1,5.687949E0,6.30643E-1,3.2951407E0,8.740204E0,2.121106E1,6.38851E0],"categories":[],"categories_nodes":[],"categories_segments":[],"categories_sizes":[],"default_left":[0,0,0,0,0,0,0,0,0,0,0,0,0,0,0,0,0,0,0,0,0,0,0,0,0,0,0,0,0,0,0,0,0,0,0,0,0,0,0,0,0,0,0,0,0,0,0,0,0,0,0,0,0,0,0,0,0,0,0,0,0,0,0,0,0,0,0,0,0,0,0,0,0,0,0,0,0,0,0,0,0,0,0,0,0,0,0,0,0,0,0,0,0,0,0,0,0,0,0,0,0,0,0,0,0,0,0,0,0,0,0,0,0,0,0,0,0,0,0,0,0,0,0,0,0,0,0],"id":9,"left_children":[1,3,5,7,9,11,13,15,17,19,21,23,25,27,29,31,33,35,37,39,41,43,45,47,49,51,53,55,57,59,61,63,65,67,69,71,73,75,77,79,81,83,85,87,89,91,93,95,97,99,101,103,105,107,109,111,113,115,117,119,121,123,125,-1,-1,-1,-1,-1,-1,-1,-1,-1,-1,-1,-1,-1,-1,-1,-1,-1,-1,-1,-1,-1,-1,-1,-1,-1,-1,-1,-1,-1,-1,-1,-1,-1,-1,-1,-1,-1,-1,-1,-1,-1,-1,-1,-1,-1,-1,-1,-1,-1,-1,-1,-1,-1,-1,-1,-1,-1,-1,-1,-1,-1,-1,-1,-1],"loss_changes":[1.303593E7,4.2143865E6,6.3966105E6,2.44402E6,2.472063E6,4.507751E6,2.598071E6,1.100629E6,1.4356168E6,1.6781415E6,1.3940989E6,1.142547E6,2.9496865E6,1.236187E6,1.445739E6,7.568785E5,1.274422E6,1.1832552E6,9.869897E5,8.8731975E5,8.87913E5,1.224006E6,8.857624E5,1.1062869E6,1.0284845E6,1.6045726E6,1.58523E6,8.3354244E5,1.0390175E6,9.8597325E5,1.4724145E6,2.6297078E4,5.0833575E5,8.07521E5,4.813853E5,1.2605775E6,4.2383662E5,8.065834E5,7.020946E5,3.2007906E5,9.1770575E5,4.1127447E5,8.170285E5,1.2373828E6,8.761998E5,9.6020494E5,7.536616E5,6.180091E5,6.3495775E5,9.7858794E5,4.11817E5,1.2981788E6,9.0714825E5,1.2777465E6,7.459455E5,7.248849E5,8.446101E5,6.77613E5,7.4509525E5,5.979399E5,1.002901E6,1.0475705E6,8.227705E5,0E0,0E0,0E0,0E0,0E0,0E0,0E0,0E0,0E0,0E0,0E0,0E0,0E0,0E0,0E0,0E0,0E0,0E0,0E0,0E0,0E0,0E0,0E0,0E0,0E0,0E0,0E0,0E0,0E0,0E0,0E0,0E0,0E0,0E0,0E0,0E0,0E0,0E0,0E0,0E0,0E0,0E0,0E0,0E0,0E0,0E0,0E0,0E0,0E0,0E0,0E0,0E0,0E0,0E0,0E0,0E0,0E0,0E0,0E0,0E0,0E0,0E0,0E0,0E0],"parents":[2147483647,0,0,1,1,2,2,3,3,4,4,5,5,6,6,7,7,8,8,9,9,10,10,11,11,12,12,13,13,14,14,15,15,16,16,17,17,18,18,19,19,20,20,21,21,22,22,23,23,24,24,25,25,26,26,27,27,28,28,29,29,30,30,31,31,32,32,33,33,34,34,35,35,36,36,37,37,38,38,39,39,40,40,41,41,42,42,43,43,44,44,45,45,46,46,47,47,48,48,49,49,50,50,51,51,52,52,53,53,54,54,55,55,56,56,57,57,58,58,59,59,60,60,61,61,62,62],"right_children":[2,4,6,8,10,12,14,16,18,20,22,24,26,28,30,32,34,36,38,40,42,44,46,48,50,52,54,56,58,60,62,64,66,68,70,72,74,76,78,80,82,84,86,88,90,92,94,96,98,100,102,104,106,108,110,112,114,116,118,120,122,124,126,-1,-1,-1,-1,-1,-1,-1,-1,-1,-1,-1,-1,-1,-1,-1,-1,-1,-1,-1,-1,-1,-1,-1,-1,-1,-1,-1,-1,-1,-1,-1,-1,-1,-1,-1,-1,-1,-1,-1,-1,-1,-1,-1,-1,-1,-1,-1,-1,-1,-1,-1,-1,-1,-1,-1,-1,-1,-1,-1,-1,-1,-1,-1,-1],"split_conditions":[5.383668E-2,-1.6236584E-1,2.382326E-1,-4.3665737E-1,-4.573139E-1,-1.0002134E0,9.374163E-1,-2.9334753E0,-9.093179E-1,-1.6567951E0,-3.6759123E-1,5.0916135E-1,7.682322E-2,-3.4471327E-1,7.0894563E-1,-3.780767E-1,1.8742931E0,2.258382E0,1.1173264E0,-5.0189394E-1,-1.2056438E0,-1.3882263E0,6.05013E-1,5.943894E-1,1.3303967E-16,-3.5318695E-5,1.5201241E0,1.4142312E0,5.45682E-1,5.5712426E-1,1.2213566E0,-6.848488E-1,7.0676804E-1,-5.351593E-1,-1.8071489E-1,7.018666E-1,-1.2067693E0,-8.9707637E-1,-3.036924E-1,-5.8563024E-1,8.544574E-3,-1.0222229E0,1.2249509E0,-2.951581E-1,-1.7154472E0,1.3227264E0,-9.887436E-2,-3.5681486E-1,6.1276203E-1,1.6195955E0,1.6005334E0,-5.7075006E-1,1.2249509E0,4.1468215E-1,-1.7770388E0,1.3662429E0,9.455053E-1,1.0853007E0,1.3337954E0,-7.4407846E-1,4.04376E-1,3.1191233E-1,5.961664E-1,-1.171147E0,2.7963622E0,-1.6725332E1,-5.844263E-1,-5.2718315E0,-2.9200861E0,-1.2123859E0,5.458282E0,-1.4925444E0,-5.152399E0,-1.5875961E1,6.405281E-1,-2.6858242E0,-5.6045765E-1,5.086205E0,1.4134608E-1,-4.8186636E0,1.5200094E0,-1.0042754E1,-2.4908776E0,8.106302E0,7.17509E-1,-1.0762733E0,-3.6272044E0,-6.321772E0,-7.254131E-1,4.798233E0,-2.4733354E-1,9.728707E-1,-3.864427E0,3.991803E-1,5.5195966E0,-1.304066E-1,4.319334E0,-3.3422208E0,7.8980887E-1,-2.1481524E0,7.743612E0,-5.0582705E0,-1.4018732E0,-6.307865E0,-1.087682E0,-1.4024919E-2,2.1071846E0,2.327718E0,-2.7757972E-1,-4.301644E0,5.273473E0,-4.199769E-1,2.8791997E0,3.6186779E0,-2.0865545E0,1.2488565E0,3.099521E0,4.024367E0,1.1021018E1,5.73051E0,4.567602E-1,5.687949E0,6.30643E-1,3.2951407E0,8.740204E0,2.121106E1,6.38851E0],"split_indices":[682,658,658,659,440,338,638,638,682,638,693,609,820,820,824,695,823,703,659,219,267,682,823,1,9,516,682,515,824,550,78,196,787,44,241,822,682,693,42,109,770,319,381,220,212,267,571,769,506,654,682,528,425,780,374,161,477,820,350,341,801,88,768,0,0,0,0,0,0,0,0,0,0,0,0,0,0,0,0,0,0,0,0,0,0,0,0,0,0,0,0,0,0,0,0,0,0,0,0,0,0,0,0,0,0,0,0,0,0,0,0,0,0,0,0,0,0,0,0,0,0,0,0,0,0,0,0],"split_type":[0,0,0,0,0,0,0,0,0,0,0,0,0,0,0,0,0,0,0,0,0,0,0,0,0,0,0,0,0,0,0,0,0,0,0,0,0,0,0,0,0,0,0,0,0,0,0,0,0,0,0,0,0,0,0,0,0,0,0,0,0,0,0,0,0,0,0,0,0,0,0,0,0,0,0,0,0,0,0,0,0,0,0,0,0,0,0,0,0,0,0,0,0,0,0,0,0,0,0,0,0,0,0,0,0,0,0,0,0,0,0,0,0,0,0,0,0,0,0,0,0,0,0,0,0,0,0],"sum_hessian":[4.0004E4,2.0615E4,1.9389E4,8.608E3,1.2007E4,1.1505E4,7.884E3,2.875E3,5.733E3,3.622E3,8.385E3,2.511E3,8.994E3,5.88E3,2.004E3,5.9E1,2.816E3,1.693E3,4.04E3,3.67E2,3.255E3,4.572E3,3.813E3,1.525E3,9.86E2,5.143E3,3.851E3,2.434E3,3.446E3,1.387E3,6.17E2,1.2E1,4.7E1,2.673E3,1.43E2,1.662E3,3.1E1,3.599E3,4.41E2,1.09E2,2.58E2,4.84E2,2.771E3,5.86E2,3.986E3,3.376E3,4.37E2,7.15E2,8.1E2,1.58E2,8.28E2,1.337E3,3.806E3,3.225E3,6.26E2,1.807E3,6.27E2,2.917E3,5.29E2,5.83E2,8.04E2,5.5E2,6.7E1,4E0,8E0,3.8E1,9E0,7.5E2,1.923E3,7.4E1,6.9E1,1.19E3,4.72E2,2.5E1,6E0,8.32E2,2.767E3,1.54E2,2.87E2,3.7E1,7.2E1,1.59E2,9.9E1,2.1E1,4.63E2,2.206E3,5.65E2,2.33E2,3.53E2,1.2E2,3.866E3,3.229E3,1.47E2,1.67E2,2.7E2,5.84E2,1.31E2,6.45E2,1.65E2,1.15E2,4.3E1,6.87E2,1.41E2,1.95E2,1.142E3,2.839E3,9.67E2,2.261E3,9.64E2,2.5E1,6.01E2,1.531E3,2.76E2,5.19E2,1.08E2,1.638E3,1.279E3,4.7E2,5.9E1,8.4E1,4.99E2,6.19E2,1.85E2,3.34E2,2.16E2,3.1E1,3.6E1],"tree_param":{"num_deleted":"0","num_feature":"830","num_nodes":"127","size_leaf_vector":"1"}},{"base_weights":[-1.6874986E-2,-9.913124E0,2.9628311E1,-2.330017E1,6.0105767E0,1.6667221E1,5.5763977E1,-1.8470228E1,-6.410841E1,-1.8855846E1,1.4714086E1,-3.045857E1,2.4258148E1,3.80787E1,8.732463E1,-4.19619E1,-1.1002224E1,-3.033064E1,-1.0246226E2,-6.3723507E0,-5.742448E1,3.432809E0,2.9293633E1,-3.725309E1,6.4948524E1,1.4850805E1,6.6140076E1,-1.304215E1,4.5111835E1,5.8172493E1,1.22110405E2,-1.4200667E2,-3.830568E1,-2.1242048E1,7.051324E0,-5.1084583E1,4.5714545E0,-2.2673262E1,-1.3515244E2,-4.3422386E1,4.7381926E0,-8.65406E1,-2.3598148E1,-1.0261763E1,1.894316E1,1.6387451E1,4.174531E1,-2.6804384E1,-9.896631E1,-2.1786497E1,8.019716E1,-1.6733463E2,1.6181309E1,-2.2521906E1,7.2701546E1,-4.2161293E1,4.4428635E1,1.5869015E1,5.298812E1,9.216247E1,1.0283725E1,6.7037575E1,1.5822908E2,-1.2419976E1,1.8587369E0,3.4293084E0,-2.4764965E0,-1.2116467E0,-1.6744038E1,9.774582E-1,-9.3861794E-1,-2.0501738E0,-4.864934E0,-9.7776634E-1,3.6126118E0,1.4915483E-1,-3.8516495E0,-9.651083E0,-5.4338765E0,-1.4420828E0,-7.752831E0,-8.261595E-1,1.1640794E0,-7.7793283E0,-2.313473E0,1.1567588E0,-2.8878357E0,-3.496078E0,-3.0428478E-1,4.3864456E-1,2.8624127E0,1.5642298E0,-8.865812E-1,2.133806E0,5.935775E0,-5.407944E0,-8.6478484E-1,6.6706784E-2,-8.1220255E0,-1.6608737E0,2.2771943E-1,5.8759303E0,-4.5355135E-1,-1.5355073E1,-1.3130072E0,-4.706022E-1,1.4773018E0,3.6120882E0,-5.54151E0,7.6205736E-1,5.087763E0,2.6876407E0,-3.8034296E0,-4.2828264E0,4.118868E0,2.2158055E0,-2.186101E0,2.6425362E0,5.674659E0,6.690136E0,-4.5572624E-1,-5.522717E0,1.4103113E0,6.557934E0,4.4958794E-1,3.662159E0,1.1346158E1],"categories":[],"categories_nodes":[],"categories_segments":[],"categories_sizes":[],"default_left":[0,0,0,0,0,0,0,0,0,0,0,0,0,0,0,0,0,0,0,0,0,0,0,0,0,0,0,0,0,0,0,0,0,0,0,0,0,0,0,0,0,0,0,0,0,0,0,0,0,0,0,0,0,0,0,0,0,0,0,0,0,0,0,0,0,0,0,0,0,0,0,0,0,0,0,0,0,0,0,0,0,0,0,0,0,0,0,0,0,0,0,0,0,0,0,0,0,0,0,0,0,0,0,0,0,0,0,0,0,0,0,0,0,0,0,0,0,0,0,0,0,0,0,0,0,0,0],"id":10,"left_children":[1,3,5,7,9,11,13,15,17,19,21,23,25,27,29,31,33,35,37,39,41,43,45,47,49,51,53,55,57,59,61,63,65,67,69,71,73,75,77,79,81,83,85,87,89,91,93,95,97,99,101,103,105,107,109,111,113,115,117,119,121,123,125,-1,-1,-1,-1,-1,-1,-1,-1,-1,-1,-1,-1,-1,-1,-1,-1,-1,-1,-1,-1,-1,-1,-1,-1,-1,-1,-1,-1,-1,-1,-1,-1,-1,-1,-1,-1,-1,-1,-1,-1,-1,-1,-1,-1,-1,-1,-1,-1,-1,-1,-1,-1,-1,-1,-1,-1,-1,-1,-1,-1,-1,-1,-1,-1],"loss_changes":[1.1740896E7,6.39713E6,3.38538E6,3.203594E6,2.9694042E6,2.4051895E6,1.824687E6,2.555512E6,2.205869E6,1.7100841E6,1.6702378E6,6.247897E5,2.2697615E6,7.7415425E5,1.144677E6,1.242405E6,2.0495185E6,6.733928E5,2.069806E6,1.111894E6,8.3942325E5,1.2201462E6,7.0654675E5,5.441624E5,1.0000453E5,1.1682961E6,6.28644E5,4.584606E5,4.2690625E5,1.0666225E6,9.75138E5,1.411861E6,9.834305E5,1.8653598E6,8.44168E5,2.730335E5,4.1774228E5,2.5518384E5,5.34058E5,1.01123575E6,5.671521E5,9.197465E5,4.418825E5,7.580365E5,8.982099E5,6.636469E5,7.6710875E5,5.8667225E5,4.530605E5,3.2771274E3,9.472522E4,4.058783E5,9.554279E5,5.0090553E5,7.0753E5,3.550132E5,3.0004447E5,4.635139E5,5.171775E5,7.4965825E5,4.0012166E5,5.5952725E5,8.55634E5,0E0,0E0,0E0,0E0,0E0,0E0,0E0,0E0,0E0,0E0,0E0,0E0,0E0,0E0,0E0,0E0,0E0,0E0,0E0,0E0,0E0,0E0,0E0,0E0,0E0,0E0,0E0,0E0,0E0,0E0,0E0,0E0,0E0,0E0,0E0,0E0,0E0,0E0,0E0,0E0,0E0,0E0,0E0,0E0,0E0,0E0,0E0,0E0,0E0,0E0,0E0,0E0,0E0,0E0,0E0,0E0,0E0,0E0,0E0,0E0,0E0,0E0,0E0,0E0],"parents":[2147483647,0,0,1,1,2,2,3,3,4,4,5,5,6,6,7,7,8,8,9,9,10,10,11,11,12,12,13,13,14,14,15,15,16,16,17,17,18,18,19,19,20,20,21,21,22,22,23,23,24,24,25,25,26,26,27,27,28,28,29,29,30,30,31,31,32,32,33,33,34,34,35,35,36,36,37,37,38,38,39,39,40,40,41,41,42,42,43,43,44,44,45,45,46,46,47,47,48,48,49,49,50,50,51,51,52,52,53,53,54,54,55,55,56,56,57,57,58,58,59,59,60,60,61,61,62,62],"right_children":[2,4,6,8,10,12,14,16,18,20,22,24,26,28,30,32,34,36,38,40,42,44,46,48,50,52,54,56,58,60,62,64,66,68,70,72,74,76,78,80,82,84,86,88,90,92,94,96,98,100,102,104,106,108,110,112,114,116,118,120,122,124,126,-1,-1,-1,-1,-1,-1,-1,-1,-1,-1,-1,-1,-1,-1,-1,-1,-1,-1,-1,-1,-1,-1,-1,-1,-1,-1,-1,-1,-1,-1,-1,-1,-1,-1,-1,-1,-1,-1,-1,-1,-1,-1,-1,-1,-1,-1,-1,-1,-1,-1,-1,-1,-1,-1,-1,-1,-1,-1,-1,-1,-1,-1,-1,-1],"split_conditions":[5.6773907E-1,9.1801025E-2,4.4837716E-1,1.9520148E0,-5.000051E-1,-1.2249402E0,9.374163E-1,-6.347643E-1,1.3303967E-16,6.917403E-1,7.556355E-2,1.3084223E0,9.2016524E-1,-9.2852384E-1,1.6151664E-1,-2.1301777E0,1.8917099E-1,-3.2253218E-1,6.2638414E-1,-1.2589371E0,1.0658661E0,1.0650722E-1,-1.709169E-1,1.5065073E0,-5.705235E-1,-3.4924283E0,-1.1320404E0,4.0916705E-1,-5.4511654E-1,4.1794647E-2,-2.2153193E-1,3.3676904E-1,-1.6780396E0,1.3575737E0,6.8704635E-1,-6.39382E-1,9.356314E-1,-6.312129E-1,6.2357243E-2,8.38437E-1,-6.0575813E-1,-2.5886005E-1,-2.5014517E-1,-8.3804834E-1,-8.2625635E-2,6.3194746E-1,8.583362E-1,-8.9707637E-1,7.556355E-2,2.9201347E-1,5.792818E-1,-1.0630673E0,-3.5318695E-5,-1.4733262E-1,-4.400129E-1,-2.681066E-1,-8.2697463E-1,8.2478213E-1,1.0935309E0,-6.0702497E-1,-8.955507E-1,2.2145054E-1,-1.2920585E0,-1.2419976E1,1.8587369E0,3.4293084E0,-2.4764965E0,-1.2116467E0,-1.6744038E1,9.774582E-1,-9.3861794E-1,-2.0501738E0,-4.864934E0,-9.7776634E-1,3.6126118E0,1.4915483E-1,-3.8516495E0,-9.651083E0,-5.4338765E0,-1.4420828E0,-7.752831E0,-8.261595E-1,1.1640794E0,-7.7793283E0,-2.313473E0,1.1567588E0,-2.8878357E0,-3.496078E0,-3.0428478E-1,4.3864456E-1,2.8624127E0,1.5642298E0,-8.865812E-1,2.133806E0,5.935775E0,-5.407944E0,-8.6478484E-1,6.6706784E-2,-8.1220255E0,-1.6608737E0,2.2771943E-1,5.8759303E0,-4.5355135E-1,-1.5355073E1,-1.3130072E0,-4.706022E-1,1.4773018E0,3.6120882E0,-5.54151E0,7.6205736E-1,5.087763E0,2.6876407E0,-3.8034296E0,-4.2828264E0,4.118868E0,2.2158055E0,-2.186101E0,2.6425362E0,5.674659E0,6.690136E0,-4.5572624E-1,-5.522717E0,1.4103113E0,6.557934E0,4.4958794E-1,3.662159E0,1.1346158E1],"split_indices":[682,744,658,323,418,426,638,659,9,822,638,768,484,86,782,682,330,594,653,440,497,484,820,36,22,308,242,482,0,769,78,395,167,575,695,34,803,34,550,703,820,352,131,658,823,759,803,693,616,257,395,322,516,372,693,614,197,828,745,824,307,439,36,0,0,0,0,0,0,0,0,0,0,0,0,0,0,0,0,0,0,0,0,0,0,0,0,0,0,0,0,0,0,0,0,0,0,0,0,0,0,0,0,0,0,0,0,0,0,0,0,0,0,0,0,0,0,0,0,0,0,0,0,0,0,0,0],"split_type":[0,0,0,0,0,0,0,0,0,0,0,0,0,0,0,0,0,0,0,0,0,0,0,0,0,0,0,0,0,0,0,0,0,0,0,0,0,0,0,0,0,0,0,0,0,0,0,0,0,0,0,0,0,0,0,0,0,0,0,0,0,0,0,0,0,0,0,0,0,0,0,0,0,0,0,0,0,0,0,0,0,0,0,0,0,0,0,0,0,0,0,0,0,0,0,0,0,0,0,0,0,0,0,0,0,0,0,0,0,0,0,0,0,0,0,0,0,0,0,0,0,0,0,0,0,0,0],"sum_hessian":[4.0004E4,2.9996E4,1.0008E4,1.6294E4,1.3702E4,6.699E3,3.309E3,1.458E4,1.714E3,3.55E3,1.0152E4,9.26E2,5.773E3,2.132E3,1.177E3,3.508E3,1.1072E4,9.19E2,7.95E2,2.689E3,8.61E2,5.729E3,4.423E3,8.69E2,5.7E1,4.723E3,1.05E3,2.57E2,1.875E3,6.52E2,5.25E2,1.13E2,3.395E3,7.064E3,4.008E3,5.74E2,3.45E2,2.35E2,5.6E2,6.15E2,2.074E3,4.56E2,4.05E2,3.044E3,2.685E3,2.181E3,2.242E3,7.53E2,1.16E2,8E0,4.9E1,2.7E1,4.696E3,7.1E1,9.79E2,1.72E2,8.5E1,4.03E2,1.472E3,3.77E2,2.75E2,2.17E2,3.08E2,8.1E1,3.2E1,9.8E1,3.297E3,7.044E3,2E1,2.85E3,1.158E3,3.78E2,1.96E2,2.55E2,9E1,1.51E2,8.4E1,3.42E2,2.18E2,5.1E2,1.05E2,9.17E2,1.157E3,2.33E2,2.23E2,1.48E2,2.57E2,2.89E2,2.755E3,1.919E3,7.66E2,1.665E3,5.16E2,2.035E3,2.07E2,1.15E2,6.38E2,3.3E1,8.3E1,6E0,2E0,4E1,9E0,1.3E1,1.4E1,1.221E3,3.475E3,3.3E1,3.8E1,1.67E2,8.12E2,3.2E1,1.4E2,1.2E1,7.3E1,2.89E2,1.14E2,1.225E3,2.47E2,3.15E2,6.2E1,2.6E1,2.49E2,1.23E2,9.4E1,8E1,2.28E2],"tree_param":{"num_deleted":"0","num_feature":"830","num_nodes":"127","size_leaf_vector":"1"}},{"base_weights":[-2.6643865E-2,-2.018844E1,1.3341908E1,-5.070325E1,-1.2513522E1,7.0047584E0,5.2618206E1,-1.2574019E2,-4.2946888E1,-2.5211023E1,4.396716E0,-2.7237809E0,2.8253859E1,6.81353E1,1.8463068E1,-1.3446405E1,-1.682613E2,-6.351018E1,-2.5501604E1,-1.1748979E2,-2.255521E1,-4.5490413E0,3.058792E1,-3.9171143E1,2.7594364E0,2.0116514E1,5.646911E1,-1.3105046E2,7.150512E1,-1.5761873E1,5.2863903E1,3.7310993E1,-1.0585529E2,-1.9605551E2,-2.1232141E1,-7.109591E1,1.4340416E1,-4.4446274E1,7.328837E0,-1.8211465E2,3.4454605E1,-5.3223686E1,-1.50416155E1,-2.4805468E1,7.5791264E0,1.02119576E2,2.407605E1,-4.4119328E1,3.9744953E1,-7.274098E0,1.7993223E1,1.0122042E1,4.512898E1,-1.3254507E2,5.8646996E1,-1.9626034E1,-1.8297392E2,8.431172E1,2.4059622E1,-6.655028E0,-1.4430994E2,6.93822E1,-4.234634E0,4.459662E0,-3.6204038E0,-9.094204E0,1.2777808E0,-1.2682378E1,6.13048E-1,-5.877038E0,1.7757751E0,-2.9046876E0,-5.624287E0,4.755777E0,-1.645506E0,-4.903474E0,-1.4105371E0,-8.502215E-2,4.60921E0,-1.5975909E1,-4.6441936E0,-2.3042846E0,1.067025E1,-3.7394798E0,1.1705548E0,-1.9673551E0,-3.3036822E-1,-2.1133559E-2,-2.7066314E0,-1.1767781E0,1.1599002E0,7.6332426E0,3.5769E-1,1.7863401E0,-4.281969E0,-2.1406765E0,-5.1992455E0,5.3054924E0,-1.2796757E0,-1.2920097E0,3.343033E-1,5.8219445E-1,2.3430135E0,8.7787735E-1,-3.5574467E0,1.950268E0,7.1838865E0,-8.799107E0,-1.4565645E-1,5.489994E0,2.7618153E0,2.4971519E0,-4.2282424E0,-9.776861E-1,-1.2375023E1,9.193121E0,4.5815682E0,2.3933148E0,-2.2386603E0,-2.1353595E0,1.594683E0,1.0643731E0,-1.0965935E1,8.1753033E-1,5.6239195E0,1.3330123E0,-6.470598E0],"categories":[],"categories_nodes":[],"categories_segments":[],"categories_sizes":[],"default_left":[0,0,0,0,0,0,0,0,0,0,0,0,0,0,0,0,0,0,0,0,0,0,0,0,0,0,0,0,0,0,0,0,0,0,0,0,0,0,0,0,0,0,0,0,0,0,0,0,0,0,0,0,0,0,0,0,0,0,0,0,0,0,0,0,0,0,0,0,0,0,0,0,0,0,0,0,0,0,0,0,0,0,0,0,0,0,0,0,0,0,0,0,0,0,0,0,0,0,0,0,0,0,0,0,0,0,0,0,0,0,0,0,0,0,0,0,0,0,0,0,0,0,0,0,0,0,0],"id":11,"left_children":[1,3,5,7,9,11,13,15,17,19,21,23,25,27,29,31,33,35,37,39,41,43,45,47,49,51,53,55,57,59,61,63,65,67,69,71,73,75,77,79,81,83,85,87,89,91,93,95,97,99,101,103,105,107,109,111,113,115,117,119,121,123,125,-1,-1,-1,-1,-1,-1,-1,-1,-1,-1,-1,-1,-1,-1,-1,-1,-1,-1,-1,-1,-1,-1,-1,-1,-1,-1,-1,-1,-1,-1,-1,-1,-1,-1,-1,-1,-1,-1,-1,-1,-1,-1,-1,-1,-1,-1,-1,-1,-1,-1,-1,-1,-1,-1,-1,-1,-1,-1,-1,-1,-1,-1,-1,-1],"loss_changes":[1.0786758E7,3.731736E6,5.986517E6,1.8214025E6,2.7407065E6,4.2860025E6,1.761072E6,1.3950755E6,1.0330185E6,1.7650125E6,1.2848699E6,2.8441502E6,1.4857435E6,1.615357E6,1.2488245E6,4.5380422E5,8.41005E5,7.95421E5,9.921843E5,2.0338612E6,1.6284318E6,1.00657075E6,6.304684E5,7.4073725E5,1.8924078E6,1.2627212E6,6.602435E5,2.0827619E5,1.358091E6,6.18473E5,5.0041E5,2.672356E5,2.235855E5,5.830435E5,1.9093767E5,5.881235E5,3.5638256E5,7.728374E5,3.5891825E5,1.0948255E6,7.547125E5,9.3185375E5,9.648331E5,7.614961E5,8.227461E5,2.6895862E5,7.182853E5,6.052815E5,3.5407906E5,1.36855E6,8.550675E5,1.1430841E6,1.3287008E6,3.1877875E4,5.638725E5,9.20002E4,7.7643E4,8.80456E5,4.8985397E5,4.960567E5,2.4421256E5,5.463175E5,3.6456944E5,0E0,0E0,0E0,0E0,0E0,0E0,0E0,0E0,0E0,0E0,0E0,0E0,0E0,0E0,0E0,0E0,0E0,0E0,0E0,0E0,0E0,0E0,0E0,0E0,0E0,0E0,0E0,0E0,0E0,0E0,0E0,0E0,0E0,0E0,0E0,0E0,0E0,0E0,0E0,0E0,0E0,0E0,0E0,0E0,0E0,0E0,0E0,0E0,0E0,0E0,0E0,0E0,0E0,0E0,0E0,0E0,0E0,0E0,0E0,0E0,0E0,0E0,0E0,0E0],"parents":[2147483647,0,0,1,1,2,2,3,3,4,4,5,5,6,6,7,7,8,8,9,9,10,10,11,11,12,12,13,13,14,14,15,15,16,16,17,17,18,18,19,19,20,20,21,21,22,22,23,23,24,24,25,25,26,26,27,27,28,28,29,29,30,30,31,31,32,32,33,33,34,34,35,35,36,36,37,37,38,38,39,39,40,40,41,41,42,42,43,43,44,44,45,45,46,46,47,47,48,48,49,49,50,50,51,51,52,52,53,53,54,54,55,55,56,56,57,57,58,58,59,59,60,60,61,61,62,62],"right_children":[2,4,6,8,10,12,14,16,18,20,22,24,26,28,30,32,34,36,38,40,42,44,46,48,50,52,54,56,58,60,62,64,66,68,70,72,74,76,78,80,82,84,86,88,90,92,94,96,98,100,102,104,106,108,110,112,114,116,118,120,122,124,126,-1,-1,-1,-1,-1,-1,-1,-1,-1,-1,-1,-1,-1,-1,-1,-1,-1,-1,-1,-1,-1,-1,-1,-1,-1,-1,-1,-1,-1,-1,-1,-1,-1,-1,-1,-1,-1,-1,-1,-1,-1,-1,-1,-1,-1,-1,-1,-1,-1,-1,-1,-1,-1,-1,-1,-1,-1,-1,-1,-1,-1,-1,-1,-1],"split_conditions":[-1.7905304E-1,-7.930471E-1,1.1639626E0,-1.844822E0,-3.940954E-1,4.4837716E-1,3.1050432E-1,-4.9070156E-1,-2.3259334E-1,-2.4418192E0,6.011734E-1,-1.2249402E0,1.1281368E0,-2.6652215E0,7.2508E-1,3.6616218E-1,4.867882E-1,1.7615141E0,-3.3264962E-1,6.939224E-1,-8.3804834E-1,-2.580644E-1,-6.138874E-1,2.010609E0,2.374431E-1,6.6940665E-1,-2.4370418E0,1.1208912E-2,1.2249509E0,7.037259E-1,1.8681371E0,4.0984012E-2,1.0110481E0,1.0513521E0,-2.643088E-1,1.8774307E-1,-5.855806E-1,-8.412845E-1,1.0513356E0,-3.4084556E-1,1.3036457E0,1.3662429E0,-2.4043249E-1,-1.3075244E-1,-4.5957118E-1,3.2805827E-1,1.3045037E0,1.3662429E0,5.2529657E-1,1.3303967E-16,9.038367E-1,1.3656211E0,1.3677253E0,9.585629E-2,1.3768405E0,-6.850776E-1,-5.830281E-1,-1.5323005E0,8.093622E-1,4.140854E-2,-3.891273E-1,-3.6874872E-1,1.7713369E0,4.459662E0,-3.6204038E0,-9.094204E0,1.2777808E0,-1.2682378E1,6.13048E-1,-5.877038E0,1.7757751E0,-2.9046876E0,-5.624287E0,4.755777E0,-1.645506E0,-4.903474E0,-1.4105371E0,-8.502215E-2,4.60921E0,-1.5975909E1,-4.6441936E0,-2.3042846E0,1.067025E1,-3.7394798E0,1.1705548E0,-1.9673551E0,-3.3036822E-1,-2.1133559E-2,-2.7066314E0,-1.1767781E0,1.1599002E0,7.6332426E0,3.5769E-1,1.7863401E0,-4.281969E0,-2.1406765E0,-5.1992455E0,5.3054924E0,-1.2796757E0,-1.2920097E0,3.343033E-1,5.8219445E-1,2.3430135E0,8.7787735E-1,-3.5574467E0,1.950268E0,7.1838865E0,-8.799107E0,-1.4565645E-1,5.489994E0,2.7618153E0,2.4971519E0,-4.2282424E0,-9.776861E-1,-1.2375023E1,9.193121E0,4.5815682E0,2.3933148E0,-2.2386603E0,-2.1353595E0,1.594683E0,1.0643731E0,-1.0965935E1,8.1753033E-1,5.6239195E0,1.3330123E0,-6.470598E0],"split_indices":[638,418,682,682,693,658,102,153,659,682,658,338,820,352,799,773,88,781,506,571,658,66,56,176,484,824,571,65,773,694,77,44,658,636,607,801,703,757,328,123,241,315,744,218,571,594,769,29,587,9,820,30,225,258,253,175,154,3,174,723,308,154,594,0,0,0,0,0,0,0,0,0,0,0,0,0,0,0,0,0,0,0,0,0,0,0,0,0,0,0,0,0,0,0,0,0,0,0,0,0,0,0,0,0,0,0,0,0,0,0,0,0,0,0,0,0,0,0,0,0,0,0,0,0,0,0,0],"split_type":[0,0,0,0,0,0,0,0,0,0,0,0,0,0,0,0,0,0,0,0,0,0,0,0,0,0,0,0,0,0,0,0,0,0,0,0,0,0,0,0,0,0,0,0,0,0,0,0,0,0,0,0,0,0,0,0,0,0,0,0,0,0,0,0,0,0,0,0,0,0,0,0,0,0,0,0,0,0,0,0,0,0,0,0,0,0,0,0,0,0,0,0,0,0,0,0,0,0,0,0,0,0,0,0,0,0,0,0,0,0,0,0,0,0,0,0,0,0,0,0,0,0,0,0,0,0,0],"sum_hessian":[4.0004E4,1.5948E4,2.4056E4,3.196E3,1.2752E4,2.0722E4,3.334E3,2.88E2,2.908E3,7.281E3,5.471E3,1.4219E4,6.503E3,2.287E3,1.047E3,8.2E1,2.06E2,1.325E3,1.583E3,1.94E2,7.087E3,4.083E3,1.388E3,1.853E3,1.2366E4,5.058E3,1.445E3,3.3E1,2.254E3,5.27E2,5.2E2,5.6E1,2.6E1,1.71E2,3.5E1,1.208E3,1.17E2,1.002E3,5.81E2,1.35E2,5.9E1,1.385E3,5.702E3,1.526E3,2.557E3,1.06E2,1.282E3,1.747E3,1.06E2,7.458E3,4.908E3,3.622E3,1.436E3,1.1E1,1.434E3,1.4E1,1.9E1,1.77E3,4.84E2,5E2,2.7E1,4.02E2,1.18E2,4.2E1,1.4E1,1.8E1,8E0,1.59E2,1.2E1,1.1E1,2.4E1,6.16E2,5.92E2,4.3E1,7.4E1,3.52E2,6.5E2,5.23E2,5.8E1,6.8E1,6.7E1,4.3E1,1.6E1,1.232E3,1.53E2,1.986E3,3.716E3,6.96E2,8.3E2,7.7E2,1.787E3,8.2E1,2.4E1,1.215E3,6.7E1,1.47E3,2.77E2,5.7E1,4.9E1,3.532E3,3.926E3,3.53E3,1.378E3,3.407E3,2.15E2,1.238E3,1.98E2,9E0,2E0,3.84E2,1.05E3,7E0,7E0,4E0,1.5E1,1.68E2,1.602E3,3.87E2,9.7E1,2.67E2,2.33E2,6E0,2.1E1,1.26E2,2.76E2,9.9E1,1.9E1],"tree_param":{"num_deleted":"0","num_feature":"830","num_nodes":"127","size_leaf_vector":"1"}},{"base_weights":[-3.5167675E-2,-1.5300874E1,1.619538E1,-3.592135E1,-7.068922E0,6.5492797E0,4.18621E1,-4.91266E1,-8.740001E0,-1.9169327E1,5.9850497E0,-2.4417133E1,1.4729351E1,3.8330807E1,1.280753E2,-1.0921888E2,-4.160984E1,-2.9991655E1,4.7588754E0,-1.5357784E1,-7.358887E1,-1.07818775E1,1.626061E1,-3.9409126E1,1.6938647E0,-1.2559372E0,2.9736732E1,2.7840235E1,6.611479E1,1.5855194E2,1.6719332E1,-1.3446739E2,2.5535238E0,-5.1085842E1,-3.972703E-1,6.283207E0,-5.2114147E1,1.6836775E1,-2.8599957E1,-3.609478E1,-5.71928E0,-3.126174E1,-1.2443203E2,-3.0445616E1,5.389049E0,1.8296406E0,2.7104877E1,-2.281616E1,-6.9535614E1,-3.229042E1,2.1088411E1,-2.8904007E1,8.877465E0,1.9546997E1,5.5386135E1,1.5925626E1,5.9206295E1,-6.759161E1,7.202024E1,-1.3682578E1,1.8975848E2,9.7941475E1,-2.6139143E1,-1.101797E1,-4.0521545E0,5.8228283E0,-4.4686604E0,-3.7842886E0,-1.3319923E0,2.924628E-1,-8.255035E0,-8.502803E0,9.3330574E-1,-5.8869114E0,-2.0833187E0,1.5736906E-1,2.699792E0,-7.141932E-1,-4.449931E0,-5.8467875E0,-1.8246472E0,2.0314983E-1,-1.5065719E0,7.900282E-1,-3.3446593E0,-2.0281084E0,-8.779711E0,-2.5410557E0,1.0867969E0,6.133265E-1,-6.9198136E0,-1.0645884E0,9.45016E-1,-2.7620473E0,1.7702606E0,-4.269746E0,-8.3452415E-1,-5.7573218E-2,-4.946838E0,-3.148511E0,1.4930406E0,2.6657596E0,-6.3850063E-1,3.231118E0,-2.2704308E0,9.413352E-1,-1.6652917E0,-2.6190217E0,1.3317673E0,3.916072E0,2.6574055E-2,1.1844325E-1,2.9823616E0,3.0285563E0,1.0211787E1,2.7164645E0,-5.1506453E0,5.1504335E0,6.93342E-1,-5.8142023E0,2.118011E0,3.04824E0,1.3819334E1,-4.9860546E-1,8.271442E0,-4.6698728E0,2.8056488E0],"categories":[],"categories_nodes":[],"categories_segments":[],"categories_sizes":[],"default_left":[0,0,0,0,0,0,0,0,0,0,0,0,0,0,0,0,0,0,0,0,0,0,0,0,0,0,0,0,0,0,0,0,0,0,0,0,0,0,0,0,0,0,0,0,0,0,0,0,0,0,0,0,0,0,0,0,0,0,0,0,0,0,0,0,0,0,0,0,0,0,0,0,0,0,0,0,0,0,0,0,0,0,0,0,0,0,0,0,0,0,0,0,0,0,0,0,0,0,0,0,0,0,0,0,0,0,0,0,0,0,0,0,0,0,0,0,0,0,0,0,0,0,0,0,0,0,0],"id":12,"left_children":[1,3,5,7,9,11,13,15,17,19,21,23,25,27,29,31,33,35,37,39,41,43,45,47,49,51,53,55,57,59,61,63,65,67,69,71,73,75,77,79,81,83,85,87,89,91,93,95,97,99,101,103,105,107,109,111,113,115,117,119,121,123,125,-1,-1,-1,-1,-1,-1,-1,-1,-1,-1,-1,-1,-1,-1,-1,-1,-1,-1,-1,-1,-1,-1,-1,-1,-1,-1,-1,-1,-1,-1,-1,-1,-1,-1,-1,-1,-1,-1,-1,-1,-1,-1,-1,-1,-1,-1,-1,-1,-1,-1,-1,-1,-1,-1,-1,-1,-1,-1,-1,-1,-1,-1,-1,-1],"loss_changes":[9.915785E6,3.498613E6,4.8001395E6,2.1077725E6,2.3306588E6,3.576529E6,1.573201E6,1.750866E6,5.5569344E5,1.5788962E6,1.2248364E6,1.1557581E6,2.6787808E6,1.471678E6,6.74338E5,1.230487E6,1.3783585E6,6.061381E5,4.8289416E5,1.430401E6,1.04259525E6,8.608399E5,6.8908375E5,9.24505E5,7.1991144E5,1.5189079E6,1.49644E6,1.381104E6,1.1380665E6,8.80922E5,2.0504869E5,1.068739E6,6.983935E5,9.823555E5,4.885954E5,4.1819347E5,3.4704012E5,3.5043794E5,2.3554544E5,7.684625E5,8.659753E5,3.1374322E5,4.04775E5,7.120321E5,8.7865694E5,5.1964544E5,4.52218E5,5.1780906E5,5.8544025E5,4.6863262E5,5.1853972E5,1.0915911E6,9.9356475E5,6.998345E5,8.86315E5,1.2735308E6,9.1941575E5,1.6091825E5,1.109217E6,1.5787155E5,6.72674E5,9.411695E4,1.83649E5,0E0,0E0,0E0,0E0,0E0,0E0,0E0,0E0,0E0,0E0,0E0,0E0,0E0,0E0,0E0,0E0,0E0,0E0,0E0,0E0,0E0,0E0,0E0,0E0,0E0,0E0,0E0,0E0,0E0,0E0,0E0,0E0,0E0,0E0,0E0,0E0,0E0,0E0,0E0,0E0,0E0,0E0,0E0,0E0,0E0,0E0,0E0,0E0,0E0,0E0,0E0,0E0,0E0,0E0,0E0,0E0,0E0,0E0,0E0,0E0,0E0,0E0,0E0,0E0],"parents":[2147483647,0,0,1,1,2,2,3,3,4,4,5,5,6,6,7,7,8,8,9,9,10,10,11,11,12,12,13,13,14,14,15,15,16,16,17,17,18,18,19,19,20,20,21,21,22,22,23,23,24,24,25,25,26,26,27,27,28,28,29,29,30,30,31,31,32,32,33,33,34,34,35,35,36,36,37,37,38,38,39,39,40,40,41,41,42,42,43,43,44,44,45,45,46,46,47,47,48,48,49,49,50,50,51,51,52,52,53,53,54,54,55,55,56,56,57,57,58,58,59,59,60,60,61,61,62,62],"right_children":[2,4,6,8,10,12,14,16,18,20,22,24,26,28,30,32,34,36,38,40,42,44,46,48,50,52,54,56,58,60,62,64,66,68,70,72,74,76,78,80,82,84,86,88,90,92,94,96,98,100,102,104,106,108,110,112,114,116,118,120,122,124,126,-1,-1,-1,-1,-1,-1,-1,-1,-1,-1,-1,-1,-1,-1,-1,-1,-1,-1,-1,-1,-1,-1,-1,-1,-1,-1,-1,-1,-1,-1,-1,-1,-1,-1,-1,-1,-1,-1,-1,-1,-1,-1,-1,-1,-1,-1,-1,-1,-1,-1,-1,-1,-1,-1,-1,-1,-1,-1,-1,-1,-1,-1,-1,-1],"split_conditions":[5.383668E-2,-5.119571E-1,5.4683614E-1,9.996252E-1,4.8303604E-2,-1.0002134E0,2.2606115E0,-1.7771937E0,1.3303967E-16,2.502985E0,-1.7091376E-1,4.7734536E-2,5.4814722E-2,1.4142312E0,7.0675564E-1,1.1580065E0,6.6872066E-1,-7.558526E-1,-3.6594775E-1,-4.3665737E-1,1.3303967E-16,1.3303967E-16,4.0635895E-2,6.8450224E-1,-4.2610425E-1,-3.5318695E-5,1.0102942E0,1.0682697E0,-1.2249402E0,-7.256039E-1,-2.0529972E-1,8.544574E-3,-4.033889E-2,1.2249509E0,2.8667688E0,-1.7163064E0,-7.784539E-1,-3.6911896E-1,1.1039832E-1,-1.3183156E0,6.392655E-1,-2.1369754E-1,1.3672794E0,1.3662429E0,1.6384326E0,-9.872557E-2,-1.844534E0,-9.6281177E-1,1.3303967E-16,7.06759E-1,2.852488E-1,-7.073439E-1,1.3656211E0,-1.6047988E0,1.3662429E0,1.2249509E0,1.1165239E0,-4.5497072E-1,1.224352E0,-3.1333888E-1,-5.2531475E-1,7.5955105E-1,3.2844776E-1,-1.101797E1,-4.0521545E0,5.8228283E0,-4.4686604E0,-3.7842886E0,-1.3319923E0,2.924628E-1,-8.255035E0,-8.502803E0,9.3330574E-1,-5.8869114E0,-2.0833187E0,1.5736906E-1,2.699792E0,-7.141932E-1,-4.449931E0,-5.8467875E0,-1.8246472E0,2.0314983E-1,-1.5065719E0,7.900282E-1,-3.3446593E0,-2.0281084E0,-8.779711E0,-2.5410557E0,1.0867969E0,6.133265E-1,-6.9198136E0,-1.0645884E0,9.45016E-1,-2.7620473E0,1.7702606E0,-4.269746E0,-8.3452415E-1,-5.7573218E-2,-4.946838E0,-3.148511E0,1.4930406E0,2.6657596E0,-6.3850063E-1,3.231118E0,-2.2704308E0,9.413352E-1,-1.6652917E0,-2.6190217E0,1.3317673E0,3.916072E0,2.6574055E-2,1.1844325E-1,2.9823616E0,3.0285563E0,1.0211787E1,2.7164645E0,-5.1506453E0,5.1504335E0,6.93342E-1,-5.8142023E0,2.118011E0,3.04824E0,1.3819334E1,-4.9860546E-1,8.271442E0,-4.6698728E0,2.8056488E0],"split_indices":[682,330,658,774,658,338,682,660,9,389,440,744,484,515,316,824,658,629,513,659,9,9,484,653,659,516,682,166,514,21,394,770,395,161,522,660,572,682,561,132,822,218,610,95,477,745,571,330,9,154,615,514,338,242,773,161,782,654,404,20,439,638,571,0,0,0,0,0,0,0,0,0,0,0,0,0,0,0,0,0,0,0,0,0,0,0,0,0,0,0,0,0,0,0,0,0,0,0,0,0,0,0,0,0,0,0,0,0,0,0,0,0,0,0,0,0,0,0,0,0,0,0,0,0,0,0,0],"split_type":[0,0,0,0,0,0,0,0,0,0,0,0,0,0,0,0,0,0,0,0,0,0,0,0,0,0,0,0,0,0,0,0,0,0,0,0,0,0,0,0,0,0,0,0,0,0,0,0,0,0,0,0,0,0,0,0,0,0,0,0,0,0,0,0,0,0,0,0,0,0,0,0,0,0,0,0,0,0,0,0,0,0,0,0,0,0,0,0,0,0,0,0,0,0,0,0,0,0,0,0,0,0,0,0,0,0,0,0,0,0,0,0,0,0,0,0,0,0,0,0,0,0,0,0,0,0,0],"sum_hessian":[4.0004E4,2.0615E4,1.9389E4,5.874E3,1.4741E4,1.41E4,5.289E3,3.949E3,1.925E3,7.648E3,7.093E3,2.943E3,1.1157E4,5.092E3,1.97E2,4.27E2,3.522E3,7.44E2,1.181E3,7.157E3,4.91E2,2.695E3,4.398E3,1.867E3,1.076E3,5.406E3,5.751E3,3.708E3,1.384E3,1.52E2,4.5E1,3.47E2,8E1,2.862E3,6.6E2,2.84E2,4.6E2,8.7E2,3.11E2,2.264E3,4.893E3,2.75E2,2.16E2,1.213E3,1.482E3,1.891E3,2.507E3,1.213E3,6.54E2,3.89E2,6.87E2,1.446E3,3.96E3,4.126E3,1.625E3,2.696E3,1.012E3,5.5E1,1.329E3,2.4E1,1.28E2,1.2E1,3.3E1,1.92E2,1.55E2,3.5E1,4.5E1,2.016E3,8.46E2,6.43E2,1.7E1,1E1,2.74E2,1.16E2,3.44E2,5.84E2,2.86E2,2.35E2,7.6E1,1.81E2,2.083E3,3.334E3,1.559E3,9.9E1,1.76E2,4.6E1,1.7E2,9.75E2,2.38E2,1.432E3,5E1,7.85E2,1.106E3,7.5E1,2.432E3,1.8E2,1.033E3,1.05E2,5.49E2,2.88E2,1.01E2,3.94E2,2.93E2,1.37E2,1.309E3,3.343E3,6.17E2,1.61E2,3.965E3,1.376E3,2.49E2,1.914E3,7.82E2,9.49E2,6.3E1,6E0,4.9E1,1.079E3,2.5E2,6E0,1.8E1,3.3E1,9.5E1,5E0,7E0,1.9E1,1.4E1],"tree_param":{"num_deleted":"0","num_feature":"830","num_nodes":"127","size_leaf_vector":"1"}},{"base_weights":[-4.1832533E-2,-1.0190677E1,2.1858252E1,-2.192548E1,4.002013E0,1.0827204E1,4.2892582E1,-1.8988781E1,-8.257719E1,-1.8176085E1,1.1423223E1,-2.9640722E0,3.4292027E1,5.4055847E1,-8.320547E-1,-3.082534E1,-5.0387626E0,-1.3739497E1,-1.1441663E2,-6.3066144E0,-5.3657333E1,3.705705E-1,2.3351278E1,1.7446827E1,-2.6781446E1,-1.5616059E0,5.6973557E1,5.0276688E1,1.8999368E2,5.40904E0,-1.4658586E2,-1.1480884E2,-2.7392494E1,-1.154226E1,2.0383776E1,-4.2553864E1,3.9354374E1,-1.5272304E2,-7.933832E1,-2.6643312E0,-7.285725E1,-8.621985E1,-1.8447987E1,2.655179E1,-5.626187E0,4.5067396E0,3.2438927E1,9.14672E1,9.615668E0,-4.6198303E1,-1.1993778E1,-1.3820287E2,5.577497E0,4.2830727E1,1.11830765E2,-1.3098758E2,5.242692E1,5.2328053E1,3.2139355E2,-2.5525615E0,6.6529495E1,-2.0825476E2,3.8419456E1,-4.3001704E0,-1.1976818E1,-1.4036062E-1,-2.006537E0,-8.862512E-1,2.387226E0,7.651233E0,8.3151996E-1,-4.1774626E0,7.9786825E-1,-2.317163E0,4.215933E0,-1.0730242E1,-4.9173164E0,-6.502351E0,-1.3660241E0,-8.7772894E-1,1.3596776E0,-1.1070313E1,-1.2965436E0,-2.865632E0,-8.218611E0,2.3775392E0,-2.286024E0,1.9913427E0,-3.6009073E0,-7.282843E-2,-2.819149E0,4.656738E-1,-6.105902E0,1.4767964E0,3.6073556E0,7.9169555E0,1.0673838E0,-2.8555888E-1,2.1882057E0,-2.5805078E0,-1.1555026E1,-9.4778603E-1,4.4556727E0,-1.31237E0,-1.4920009E1,-9.023887E-1,3.102859E0,2.0154188E0,8.601147E0,9.545611E0,3.4174362E-1,-1.6006363E1,2.8004155E0,4.348745E0,2.1221879E0,-1.5000046E0,7.2534347E0,2.1304981E1,-4.7347665E-1,1.3583564E0,-1.745128E0,5.1875296E0,-1.5214802E0,-1.3326285E1,-2.4935548E-1,-8.0052555E-1,3.879082E0],"categories":[],"categories_nodes":[],"categories_segments":[],"categories_sizes":[],"default_left":[0,0,0,0,0,0,0,0,0,0,0,0,0,0,0,0,0,0,0,0,0,0,0,0,0,0,0,0,0,0,0,0,0,0,0,0,0,0,0,0,0,0,0,0,0,0,0,0,0,0,0,0,0,0,0,0,0,0,0,0,0,0,0,0,0,0,0,0,0,0,0,0,0,0,0,0,0,0,0,0,0,0,0,0,0,0,0,0,0,0,0,0,0,0,0,0,0,0,0,0,0,0,0,0,0,0,0,0,0,0,0,0,0,0,0,0,0,0,0,0,0,0,0,0,0,0,0],"id":13,"left_children":[1,3,5,7,9,11,13,15,17,19,21,23,25,27,29,31,33,35,37,39,41,43,45,47,49,51,53,55,57,59,61,63,65,67,69,71,73,75,77,79,81,83,85,87,89,91,93,95,97,99,101,103,105,107,109,111,113,115,117,119,121,123,125,-1,-1,-1,-1,-1,-1,-1,-1,-1,-1,-1,-1,-1,-1,-1,-1,-1,-1,-1,-1,-1,-1,-1,-1,-1,-1,-1,-1,-1,-1,-1,-1,-1,-1,-1,-1,-1,-1,-1,-1,-1,-1,-1,-1,-1,-1,-1,-1,-1,-1,-1,-1,-1,-1,-1,-1,-1,-1,-1,-1,-1,-1,-1,-1],"loss_changes":[8.894859E6,4.55532E6,2.9367555E6,2.653925E6,2.0399158E6,2.694573E6,2.127106E6,2.358289E6,1.4974135E6,1.3061472E6,1.2238784E6,2.555951E6,2.5070965E6,1.7065E6,8.1972325E5,2.202987E6,1.0879619E6,3.6068028E5,5.34384E5,5.6509394E5,8.791515E5,7.5906675E5,7.63436E5,1.6344745E6,6.920866E5,1.1788454E6,1.426305E6,1.375368E6,1.511204E6,4.2234597E5,4.863138E5,9.8646425E5,1.1263855E6,8.7239494E5,9.231857E5,2.3576503E5,2.2420247E5,2.81665E5,4.104655E5,6.7683694E5,6.602306E5,7.322145E5,4.5033088E5,5.3359256E5,7.174285E5,5.1187275E5,6.4038775E5,7.8637775E5,9.935224E5,4.219285E5,4.6458747E5,