{"learner":{"attributes":{"best_iteration":"141","best_score":"148.37539860913532","scikit_learn":"{\"_estimator_type\": \"regressor\"}"},"feature_names":[],"feature_types":[],"gradient_booster":{"model":{"gbtree_model_param":{"num_parallel_tree":"1","num_trees":"167"},"iteration_indptr":[0,1,2,3,4,5,6,7,8,9,10,11,12,13,14,15,16,17,18,19,20,21,22,23,24,25,26,27,28,29,30,31,32,33,34,35,36,37,38,39,40,41,42,43,44,45,46,47,48,49,50,51,52,53,54,55,56,57,58,59,60,61,62,63,64,65,66,67,68,69,70,71,72,73,74,75,76,77,78,79,80,81,82,83,84,85,86,87,88,89,90,91,92,93,94,95,96,97,98,99,100,101,102,103,104,105,106,107,108,109,110,111,112,113,114,115,116,117,118,119,120,121,122,123,124,125,126,127,128,129,130,131,132,133,134,135,136,137,138,139,140,141,142,143,144,145,146,147,148,149,150,151,152,153,154,155,156,157,158,159,160,161,162,163,164,165,166,167],"tree_info":[0,0,0,0,0,0,0,0,0,0,0,0,0,0,0,0,0,0,0,0,0,0,0,0,0,0,0,0,0,0,0,0,0,0,0,0,0,0,0,0,0,0,0,0,0,0,0,0,0,0,0,0,0,0,0,0,0,0,0,0,0,0,0,0,0,0,0,0,0,0,0,0,0,0,0,0,0,0,0,0,0,0,0,0,0,0,0,0,0,0,0,0,0,0,0,0,0,0,0,0,0,0,0,0,0,0,0,0,0,0,0,0,0,0,0,0,0,0,0,0,0,0,0,0,0,0,0,0,0,0,0,0,0,0,0,0,0,0,0,0,0,0,0,0,0,0,0,0,0,0,0,0,0,0,0,0,0,0,0,0,0,0,0,0,0,0,0],"trees":[{"base_weights":[-0E0,-4.8457695E1,7.3098076E1,-1.3831856E2,-3.014605E1,4.5930058E1,1.483404E2,-3.0061426E2,-1.1361736E2,-5.505076E1,-8.777635E0,3.0566813E1,9.029568E1,1.1917151E2,2.204934E2,-1.1288088E2,-3.2474808E2,-7.207988E1,-1.2981073E2,-9.880302E1,-4.4578922E1,-2.4263123E1,1.6344734E1,1.1623957E1,4.9435226E1,7.9777084E1,1.2472616E2,9.907901E1,1.4600288E2,1.7386688E2,2.6602945E2,-1.4132608E2,8.739593E1,-3.8309378E2,-2.3775629E2,-9.2494156E1,-4.424052E1,-1.4090042E2,-6.100337E1,-6.660967E1,-1.2238694E2,-6.6800644E1,-2.543161E1,-5.322747E1,-1.4440808E1,4.245951E0,6.388075E1,-1.7520817E1,2.2214445E1,3.704621E1,7.459058E1,1.2043246E1,8.502486E1,9.615485E1,1.514567E2,7.5800354E1,1.3444547E2,1.6174579E2,1.0785159E2,1.0481082E2,1.939218E2,2.2616835E2,3.5756277E2,-1.125251E1,-2.3458183E0,5.6142316E0,1.417441E-2,-2.4766357E1,-9.094581E0,-9.651339E-1,-1.5106612E1,-5.8688087E0,5.424576E-1,-5.1145277E0,-9.163829E-1,-7.9470134E0,-1.3059418E1,-5.8394793E-2,-5.4506235E0,-5.603012E0,-1.9653128E0,-8.729021E0,-5.8644667E0,-5.559754E0,-3.0066817E0,-1.8750776E0,7.7381223E-1,-9.101465E-1,-3.7189202E0,-1.631384E0,1.15679E-1,-5.7893795E-1,1.152538E0,2.9996252E0,6.319468E0,2.8950167E0,-1.5339494E0,2.363814E0,2.742929E-1,4.0473297E-1,3.187652E0,3.2146351E0,5.9902883E0,-2.4666765E0,2.996262E0,3.9962938E0,6.365305E0,6.2273574E0,-2.1478163E-1,-1.2014195E0,9.33125E0,2.2918997E0,6.116723E0,8.426004E0,-5.4345524E-1,7.1750407E0,1.0957349E1,1.5110952E0,7.4376545E0,-2.3662033E0,7.4071403E0,1.23483715E1,2.893152E0,-1.5474287E0,1.3881569E1,7.817111E0,2.3089418E1],"categories":[],"categories_nodes":[],"categories_segments":[],"categories_sizes":[],"default_left":[0,0,0,0,0,0,0,0,0,0,0,0,0,0,0,0,0,0,0,0,0,0,0,0,0,0,0,0,0,0,0,0,0,0,0,0,0,0,0,0,0,0,0,0,0,0,0,0,0,0,0,0,0,0,0,0,0,0,0,0,0,0,0,0,0,0,0,0,0,0,0,0,0,0,0,0,0,0,0,0,0,0,0,0,0,0,0,0,0,0,0,0,0,0,0,0,0,0,0,0,0,0,0,0,0,0,0,0,0,0,0,0,0,0,0,0,0,0,0,0,0,0,0,0,0,0,0],"id":0,"left_children":[1,3,5,7,9,11,13,15,17,19,21,23,25,27,29,31,33,35,37,39,41,43,45,47,49,51,53,55,57,59,61,63,65,67,69,71,73,75,77,79,81,83,85,87,89,91,93,95,97,99,101,103,105,107,109,111,113,115,117,119,121,123,125,-1,-1,-1,-1,-1,-1,-1,-1,-1,-1,-1,-1,-1,-1,-1,-1,-1,-1,-1,-1,-1,-1,-1,-1,-1,-1,-1,-1,-1,-1,-1,-1,-1,-1,-1,-1,-1,-1,-1,-1,-1,-1,-1,-1,-1,-1,-1,-1,-1,-1,-1,-1,-1,-1,-1,-1,-1,-1,-1,-1,-1,-1,-1,-1],"loss_changes":[1.4176803E8,3.95697E7,3.2559488E7,1.604892E7,1.0641428E7,7.97521E6,8.688544E6,2.119424E6,2.309964E6,4.195672E6,4.1954225E6,3.114674E6,1.010928E6,1.516012E6,2.19258E6,5.1495494E5,1.643612E6,5.42289E5,1.869904E6,1.283016E6,3.163055E6,1.891107E6,2.363566E6,1.3507352E6,1.339246E6,8.1988E5,4.09991E5,1.36393E6,6.2788E5,6.94554E5,1.524704E6,2.5675612E5,6.888586E3,1.331248E6,6.15824E5,3.19155E5,5.1642675E5,1.183528E6,6.5624825E5,6.71932E5,4.63373E5,1.451648E6,9.0090825E5,5.538395E5,1.04229875E6,6.851381E5,4.3709025E5,6.277775E5,9.702331E5,1.431371E6,7.172275E5,3.7299247E5,7.81442E5,2.74538E5,2.646335E5,1.0279345E6,6.01165E5,6.07154E5,5.04297E5,4.6154075E5,7.34918E5,6.20336E5,6.31026E5,0E0,0E0,0E0,0E0,0E0,0E0,0E0,0E0,0E0,0E0,0E0,0E0,0E0,0E0,0E0,0E0,0E0,0E0,0E0,0E0,0E0,0E0,0E0,0E0,0E0,0E0,0E0,0E0,0E0,0E0,0E0,0E0,0E0,0E0,0E0,0E0,0E0,0E0,0E0,0E0,0E0,0E0,0E0,0E0,0E0,0E0,0E0,0E0,0E0,0E0,0E0,0E0,0E0,0E0,0E0,0E0,0E0,0E0,0E0,0E0,0E0,0E0,0E0,0E0],"parents":[2147483647,0,0,1,1,2,2,3,3,4,4,5,5,6,6,7,7,8,8,9,9,10,10,11,11,12,12,13,13,14,14,15,15,16,16,17,17,18,18,19,19,20,20,21,21,22,22,23,23,24,24,25,25,26,26,27,27,28,28,29,29,30,30,31,31,32,32,33,33,34,34,35,35,36,36,37,37,38,38,39,39,40,40,41,41,42,42,43,43,44,44,45,45,46,46,47,47,48,48,49,49,50,50,51,51,52,52,53,53,54,54,55,55,56,56,57,57,58,58,59,59,60,60,61,61,62,62],"right_children":[2,4,6,8,10,12,14,16,18,20,22,24,26,28,30,32,34,36,38,40,42,44,46,48,50,52,54,56,58,60,62,64,66,68,70,72,74,76,78,80,82,84,86,88,90,92,94,96,98,100,102,104,106,108,110,112,114,116,118,120,122,124,126,-1,-1,-1,-1,-1,-1,-1,-1,-1,-1,-1,-1,-1,-1,-1,-1,-1,-1,-1,-1,-1,-1,-1,-1,-1,-1,-1,-1,-1,-1,-1,-1,-1,-1,-1,-1,-1,-1,-1,-1,-1,-1,-1,-1,-1,-1,-1,-1,-1,-1,-1,-1,-1,-1,-1,-1,-1,-1,-1,-1,-1,-1,-1,-1],"split_conditions":[2.2054014E-1,-1.1555687E0,1.1153258E0,-2.4418192E0,-3.3231255E-1,7.847867E-1,1.6005334E0,-9.9997354E-1,-3.6594775E-1,-9.626515E-1,2.1355847E-1,1.160387E-1,7.7243936E-1,8.690419E-1,6.8450224E-1,8.107178E-1,-2.379546E-1,-3.5247892E-2,7.849201E-1,-6.1355054E-1,-1.6233268E-1,-3.8971305E-1,4.9536404E-1,-5.1379174E-1,1.4141606E0,-1.2249402E0,1.8307067E-1,1.4141606E0,3.0244344E-1,1.3147497E-1,2.6370907E0,-1.1503413E-1,1.9204365E0,9.033073E-1,-1.844534E0,1.7127258E0,-9.8030597E-1,2.5965972E0,5.418208E-2,1.15324005E-1,-1.3186251E0,-4.091145E-1,1.3213346E0,-9.9997354E-1,8.404543E-2,-3.4469733E-1,7.9734164E-1,-1.2252749E0,-6.1477757E-1,5.4002456E-2,3.9041528E-1,-5.83213E-1,1.1400476E0,2.0213164E-1,-2.6607516E0,1.0695479E-1,1.2430277E0,-2.1381259E-1,-6.8436813E-1,-1.1103091E0,5.735798E-1,-2.4426095E0,-1.207072E0,-1.125251E1,-2.3458183E0,5.6142316E0,1.417441E-2,-2.4766357E1,-9.094581E0,-9.651339E-1,-1.5106612E1,-5.8688087E0,5.424576E-1,-5.1145277E0,-9.163829E-1,-7.9470134E0,-1.3059418E1,-5.8394793E-2,-5.4506235E0,-5.603012E0,-1.9653128E0,-8.729021E0,-5.8644667E0,-5.559754E0,-3.0066817E0,-1.8750776E0,7.7381223E-1,-9.101465E-1,-3.7189202E0,-1.631384E0,1.15679E-1,-5.7893795E-1,1.152538E0,2.9996252E0,6.319468E0,2.8950167E0,-1.5339494E0,2.363814E0,2.742929E-1,4.0473297E-1,3.187652E0,3.2146351E0,5.9902883E0,-2.4666765E0,2.996262E0,3.9962938E0,6.365305E0,6.2273574E0,-2.1478163E-1,-1.2014195E0,9.33125E0,2.2918997E0,6.116723E0,8.426004E0,-5.4345524E-1,7.1750407E0,1.0957349E1,1.5110952E0,7.4376545E0,-2.3662033E0,7.4071403E0,1.23483715E1,2.893152E0,-1.5474287E0,1.3881569E1,7.817111E0,2.3089418E1],"split_indices":[660,660,660,682,660,682,682,403,205,682,592,592,592,682,697,527,301,418,592,675,592,682,682,593,516,360,88,516,79,757,682,130,517,262,241,321,682,345,504,593,682,593,55,95,352,757,761,190,125,682,638,680,682,81,505,506,301,109,592,196,301,506,636,0,0,0,0,0,0,0,0,0,0,0,0,0,0,0,0,0,0,0,0,0,0,0,0,0,0,0,0,0,0,0,0,0,0,0,0,0,0,0,0,0,0,0,0,0,0,0,0,0,0,0,0,0,0,0,0,0,0,0,0,0,0,0,0],"split_type":[0,0,0,0,0,0,0,0,0,0,0,0,0,0,0,0,0,0,0,0,0,0,0,0,0,0,0,0,0,0,0,0,0,0,0,0,0,0,0,0,0,0,0,0,0,0,0,0,0,0,0,0,0,0,0,0,0,0,0,0,0,0,0,0,0,0,0,0,0,0,0,0,0,0,0,0,0,0,0,0,0,0,0,0,0,0,0,0,0,0,0,0,0,0,0,0,0,0,0,0,0,0,0,0,0,0,0,0,0,0,0,0,0,0,0,0,0,0,0,0,0,0,0,0,0,0,0],"sum_hessian":[4.0007E4,2.406E4,1.5947E4,4.064E3,1.9996E4,1.1726E4,4.221E3,5.25E2,3.539E3,9.228E3,1.0768E4,8.72E3,3.006E3,3.021E3,1.2E3,6.5E1,4.6E2,1.005E3,2.534E3,1.769E3,7.459E3,6.662E3,4.106E3,4.358E3,4.362E3,2.323E3,6.83E2,1.749E3,1.272E3,6.12E2,5.88E2,5.9E1,6E0,2.59E2,2.01E2,5.69E2,4.36E2,2.175E3,3.59E2,7.61E2,1.008E3,3.443E3,4.016E3,1.678E3,4.984E3,3.28E3,8.26E2,1.16E3,3.198E3,2.936E3,1.426E3,1.69E2,2.154E3,3.48E2,3.35E2,1.07E3,6.79E2,8.82E2,3.9E2,1.49E2,4.63E2,4.29E2,1.59E2,3.6E1,2.3E1,5E0,1E0,2.24E2,3.5E1,1.3E1,1.88E2,5.41E2,2.8E1,1.74E2,2.62E2,1.979E3,1.96E2,1.22E2,2.37E2,4.17E2,3.44E2,5E2,5.08E2,1.336E3,2.107E3,3.488E3,5.28E2,3.18E2,1.36E3,2.799E3,2.185E3,1.702E3,1.578E3,6.32E2,1.94E2,1.22E2,1.038E3,1.615E3,1.583E3,1.022E3,1.914E3,7.92E2,6.34E2,7E1,9.9E1,1.167E3,9.87E2,3.23E2,2.5E1,7E0,3.28E2,4.47E2,6.23E2,6.52E2,2.7E1,3.1E2,5.72E2,6.7E1,3.23E2,1.6E1,1.33E2,4.25E2,3.8E1,8E0,4.21E2,2.2E1,1.37E2],"tree_param":{"num_deleted":"0","num_feature":"767","num_nodes":"127","size_leaf_vector":"1"}},{"base_weights":[4.8619006E-3,-4.5970364E1,6.8234665E1,-1.3020828E2,-2.8668528E1,4.5013885E1,1.465813E2,-2.8344818E2,-1.0688616E2,-5.1775444E1,-8.548947E0,2.1658306E1,7.312324E1,1.0564847E2,1.8674356E2,-1.0697734E2,-3.0611868E2,-1.733768E2,-9.694822E1,-9.297512E1,-4.1914585E1,-2.956772E1,8.340304E0,6.2631083E0,3.6688618E1,5.7712593E1,1.00758965E2,1.280943E2,7.330448E1,1.6326843E2,2.5467589E2,-1.3447469E2,8.538983E1,-2.665759E2,-4.3708014E2,-1.9979291E2,-1.05268364E2,-9.086156E1,-1.9832376E2,-6.193334E1,-1.1464383E2,-6.2812553E1,-2.390783E1,-4.6299786E1,-1.4163976E1,-1.4879248E0,4.4904778E1,-6.517831E0,3.130379E1,2.6370026E1,6.2208237E1,4.1843056E1,7.810647E1,7.381057E1,1.2687681E2,1.0170361E2,1.5483992E2,-1.4502796E0,8.268659E1,8.767128E1,1.7194453E2,1.5722891E2,3.090156E2,-1.0700115E1,-2.241392E0,5.4846725E0,1.407992E-2,-1.7264269E1,-5.089637E0,-3.6724782E0,-2.9399511E1,-1.4739684E1,-9.220778E0,-8.597113E0,-8.468866E-1,-4.442087E0,-7.6155295E0,-5.652308E0,-1.4592525E1,-5.161541E0,-1.8879055E0,1.1472311E0,-7.0700226E0,-5.2281547E0,-2.8269632E0,-1.7628304E0,7.2807634E-1,-6.861939E0,-2.5578933E0,-1.5239375E0,1.13581E0,-1.3076088E0,3.810816E-1,1.42848E0,4.1576357E0,-1.9234121E0,2.8839895E-1,-6.4568E-1,2.6517413E0,9.344034E-1,3.0846703E0,2.424142E-1,4.2049165E0,1.1711571E0,4.788278E0,4.138363E0,7.799174E0,3.2464776E0,5.975616E0,7.977679E0,2.1333864E0,2.2894037E0,6.9727902E0,6.846136E0,1.1074363E1,-3.390945E0,3.4947042E0,-3.3205068E0,5.1232057E0,-6.710329E0,5.9132576E0,1.1451106E1,8.568168E0,4.9283385E0,1.1854678E1,4.3216496E0,1.9418896E1],"categories":[],"categories_nodes":[],"categories_segments":[],"categories_sizes":[],"default_left":[0,0,0,0,0,0,0,0,0,0,0,0,0,0,0,0,0,0,0,0,0,0,0,0,0,0,0,0,0,0,0,0,0,0,0,0,0,0,0,0,0,0,0,0,0,0,0,0,0,0,0,0,0,0,0,0,0,0,0,0,0,0,0,0,0,0,0,0,0,0,0,0,0,0,0,0,0,0,0,0,0,0,0,0,0,0,0,0,0,0,0,0,0,0,0,0,0,0,0,0,0,0,0,0,0,0,0,0,0,0,0,0,0,0,0,0,0,0,0,0,0,0,0,0,0,0,0],"id":1,"left_children":[1,3,5,7,9,11,13,15,17,19,21,23,25,27,29,31,33,35,37,39,41,43,45,47,49,51,53,55,57,59,61,63,65,67,69,71,73,75,77,79,81,83,85,87,89,91,93,95,97,99,101,103,105,107,109,111,113,115,117,119,121,123,125,-1,-1,-1,-1,-1,-1,-1,-1,-1,-1,-1,-1,-1,-1,-1,-1,-1,-1,-1,-1,-1,-1,-1,-1,-1,-1,-1,-1,-1,-1,-1,-1,-1,-1,-1,-1,-1,-1,-1,-1,-1,-1,-1,-1,-1,-1,-1,-1,-1,-1,-1,-1,-1,-1,-1,-1,-1,-1,-1,-1,-1,-1,-1,-1],"loss_changes":[1.2554749E8,3.481893E7,2.9258328E7,1.4308512E7,9.223059E6,8.153848E6,5.890464E6,1.86832E6,2.207968E6,3.720404E6,3.7717322E6,1.5728192E6,2.355526E6,1.260416E6,2.610716E6,4.782473E5,1.48794E6,6.41641E5,1.769684E6,1.137588E6,2.79742E6,1.2143182E6,2.1188435E6,1.0809426E6,8.928035E5,1.151633E6,1.33808E6,6.32212E5,5.4351475E5,7.93068E5,2.044792E6,2.3102288E5,6.5486797E3,1.264412E6,1.666564E6,3.64364E5,4.7858188E5,1.70975E6,6.04819E5,5.2682875E5,4.60998E5,1.284047E6,7.9666725E5,5.257385E5,9.2448556E5,7.418539E5,6.289875E5,6.489244E5,6.227355E5,6.596976E5,4.48492E5,1.7370165E6,6.77871E5,4.68178E5,5.21977E5,4.847045E5,4.58662E5,3.353178E5,2.939995E5,4.3551475E5,4.6518E5,4.171655E5,8.06778E5,0E0,0E0,0E0,0E0,0E0,0E0,0E0,0E0,0E0,0E0,0E0,0E0,0E0,0E0,0E0,0E0,0E0,0E0,0E0,0E0,0E0,0E0,0E0,0E0,0E0,0E0,0E0,0E0,0E0,0E0,0E0,0E0,0E0,0E0,0E0,0E0,0E0,0E0,0E0,0E0,0E0,0E0,0E0,0E0,0E0,0E0,0E0,0E0,0E0,0E0,0E0,0E0,0E0,0E0,0E0,0E0,0E0,0E0,0E0,0E0,0E0,0E0,0E0,0E0],"parents":[2147483647,0,0,1,1,2,2,3,3,4,4,5,5,6,6,7,7,8,8,9,9,10,10,11,11,12,12,13,13,14,14,15,15,16,16,17,17,18,18,19,19,20,20,21,21,22,22,23,23,24,24,25,25,26,26,27,27,28,28,29,29,30,30,31,31,32,32,33,33,34,34,35,35,36,36,37,37,38,38,39,39,40,40,41,41,42,42,43,43,44,44,45,45,46,46,47,47,48,48,49,49,50,50,51,51,52,52,53,53,54,54,55,55,56,56,57,57,58,58,59,59,60,60,61,61,62,62],"right_children":[2,4,6,8,10,12,14,16,18,20,22,24,26,28,30,32,34,36,38,40,42,44,46,48,50,52,54,56,58,60,62,64,66,68,70,72,74,76,78,80,82,84,86,88,90,92,94,96,98,100,102,104,106,108,110,112,114,116,118,120,122,124,126,-1,-1,-1,-1,-1,-1,-1,-1,-1,-1,-1,-1,-1,-1,-1,-1,-1,-1,-1,-1,-1,-1,-1,-1,-1,-1,-1,-1,-1,-1,-1,-1,-1,-1,-1,-1,-1,-1,-1,-1,-1,-1,-1,-1,-1,-1,-1,-1,-1,-1,-1,-1,-1,-1,-1,-1,-1,-1,-1,-1,-1,-1,-1,-1],"split_conditions":[2.1355018E-1,-1.1555687E0,1.0915986E0,-2.4418192E0,-3.3231255E-1,6.6873693E-1,1.2445929E0,-9.9997354E-1,-1.844822E0,-9.626515E-1,-9.860313E-2,7.656892E-2,5.158968E-1,7.8224815E-2,2.2606115E0,8.107178E-1,1.297597E0,2.6819336E-1,2.5965972E0,-6.142531E-1,-1.6233268E-1,-2.1267995E-2,4.7673705E-1,3.995934E-1,7.6259744E-1,4.8601463E-1,1.0102942E0,3.0719638E-1,-1.2249402E0,-1.0432432E0,3.2051098E-1,-1.1503413E-1,1.9204365E0,9.031904E-1,-7.802392E-1,-2.6815635E-1,3.9039347E-1,7.018514E-1,1.4141606E0,1.15324005E-1,-1.7154472E0,-4.091145E-1,1.3213346E0,-1.3662093E0,5.6230325E-1,-4.571592E-1,5.0590783E-1,-3.8906658E-1,-7.073439E-1,1.4141606E0,-8.0794424E-1,1.4141606E0,1.1400476E0,3.2824063E-1,1.6506346E0,-1.905551E-1,6.2045824E-2,-5.83213E-1,-2.6684983E0,-2.4370418E0,-2.5229383E-2,-2.747574E-2,2.3731048E-1,-1.0700115E1,-2.241392E0,5.4846725E0,1.407992E-2,-1.7264269E1,-5.089637E0,-3.6724782E0,-2.9399511E1,-1.4739684E1,-9.220778E0,-8.597113E0,-8.468866E-1,-4.442087E0,-7.6155295E0,-5.652308E0,-1.4592525E1,-5.161541E0,-1.8879055E0,1.1472311E0,-7.0700226E0,-5.2281547E0,-2.8269632E0,-1.7628304E0,7.2807634E-1,-6.861939E0,-2.5578933E0,-1.5239375E0,1.13581E0,-1.3076088E0,3.810816E-1,1.42848E0,4.1576357E0,-1.9234121E0,2.8839895E-1,-6.4568E-1,2.6517413E0,9.344034E-1,3.0846703E0,2.424142E-1,4.2049165E0,1.1711571E0,4.788278E0,4.138363E0,7.799174E0,3.2464776E0,5.975616E0,7.977679E0,2.1333864E0,2.2894037E0,6.9727902E0,6.846136E0,1.1074363E1,-3.390945E0,3.4947042E0,-3.3205068E0,5.1232057E0,-6.710329E0,5.9132576E0,1.1451106E1,8.568168E0,4.9283385E0,1.1854678E1,4.3216496E0,1.9418896E1],"split_indices":[660,660,682,682,660,660,660,403,682,682,592,592,592,101,682,527,3,352,345,676,592,682,682,682,342,682,660,761,360,484,761,130,517,264,540,482,328,759,516,593,212,593,55,30,757,352,592,352,162,516,0,516,396,0,176,693,109,680,744,43,629,614,638,0,0,0,0,0,0,0,0,0,0,0,0,0,0,0,0,0,0,0,0,0,0,0,0,0,0,0,0,0,0,0,0,0,0,0,0,0,0,0,0,0,0,0,0,0,0,0,0,0,0,0,0,0,0,0,0,0,0,0,0,0,0,0,0],"split_type":[0,0,0,0,0,0,0,0,0,0,0,0,0,0,0,0,0,0,0,0,0,0,0,0,0,0,0,0,0,0,0,0,0,0,0,0,0,0,0,0,0,0,0,0,0,0,0,0,0,0,0,0,0,0,0,0,0,0,0,0,0,0,0,0,0,0,0,0,0,0,0,0,0,0,0,0,0,0,0,0,0,0,0,0,0,0,0,0,0,0,0,0,0,0,0,0,0,0,0,0,0,0,0,0,0,0,0,0,0,0,0,0,0,0,0,0,0,0,0,0,0,0,0,0,0,0,0],"sum_hessian":[4.0007E4,2.3903E4,1.6104E4,4.064E3,1.9839E4,1.2432E4,3.672E3,5.25E2,3.539E3,9.228E3,1.0611E4,6.798E3,5.634E3,1.833E3,1.839E3,6.5E1,4.6E2,4.43E2,3.096E3,1.769E3,7.459E3,4.725E3,5.886E3,3.364E3,3.434E3,3.633E3,2.001E3,1.068E3,7.65E2,1.387E3,4.52E2,5.9E1,6E0,3.72E2,8.8E1,3.08E2,1.35E2,2.935E3,1.61E2,7.4E2,1.029E3,3.443E3,4.016E3,2.257E3,2.468E3,4.645E3,1.241E3,2.231E3,1.133E3,2.457E3,9.77E2,2.057E3,1.576E3,1E3,1.001E3,5.57E2,5.11E2,8.6E1,6.79E2,1.52E2,1.235E3,1.73E2,2.79E2,3.6E1,2.3E1,5E0,1E0,3.29E2,4.3E1,1.3E1,7.5E1,1.37E2,1.71E2,9.2E1,4.3E1,2.018E3,9.17E2,5.6E1,1.05E2,4.05E2,3.35E2,2.3E1,1.006E3,1.336E3,2.107E3,3.488E3,5.28E2,1.03E2,2.154E3,1.844E3,6.24E2,1.29E3,3.355E3,6.74E2,5.67E2,6.81E2,1.55E3,2.66E2,8.67E2,1.726E3,7.31E2,1.18E2,8.59E2,1.303E3,7.54E2,1.356E3,2.2E2,5.81E2,4.19E2,9.35E2,6.6E1,1.09E2,4.48E2,2.32E2,2.79E2,4.5E1,4.1E1,1E1,6.69E2,4E0,1.48E2,7.22E2,5.13E2,6.9E1,1.04E2,1.9E1,2.6E2],"tree_param":{"num_deleted":"0","num_feature":"767","num_nodes":"127","size_leaf_vector":"1"}},{"base_weights":[4.3221703E-4,-4.2912495E1,6.473458E1,-9.8258484E1,-1.9260242E1,4.0483543E1,1.3189911E2,-2.1361467E2,-7.723408E1,-4.435913E1,-7.19425E0,2.4033945E1,7.371761E1,1.0587767E2,1.9626892E2,-3.0575397E2,-1.7848923E2,-1.2713569E2,-6.751765E1,-5.6388584E1,-1.2606798E1,-2.7146875E1,1.006749E1,1.2365131E1,5.099271E1,5.908804E1,9.629865E1,8.824868E1,1.2941058E2,1.5419666E2,2.373925E2,-1.1651414E2,-3.4161453E2,-1.2014332E2,-2.056862E2,-9.703863E1,-1.6700084E2,-9.1009384E1,-4.795478E1,-9.360057E1,-4.9061665E1,-5.312157E1,7.585554E0,-5.699045E1,-1.7123064E1,-5.742208E0,2.6018385E1,-1.465669E1,2.724331E1,-2.7534626E1,6.0267693E1,-1.88409E1,6.183602E1,1.23685234E2,7.423258E1,6.705823E1,1.2046457E2,1.09761696E2,1.5949016E2,8.978283E1,1.7303827E2,2.1025584E2,3.5368555E2,5.137296E-1,-9.207573E0,2.3797996E-1,-2.1583546E1,-9.299206E0,-4.1018543E0,-1.3934559E1,-7.620764E0,-3.4748485E0,-7.636159E0,-6.4023485E0,-1.2438299E1,-4.3138456E0,-7.343511E0,-4.575751E0,-2.017024E0,-7.749557E0,-4.346038E0,-3.8782277E0,-2.1785476E0,-1.1212215E0,-5.502988E0,-6.1454904E-1,1.7435393E0,-4.1023083E0,4.5449582E-1,-1.8182012E0,5.0456546E-2,-9.1408724E-1,8.685458E-1,6.991365E-1,2.8234322E0,-1.9457895E0,6.0850924E-1,5.882907E-1,3.0966089E0,2.5432365E0,-3.6064618E0,2.4015844E0,5.239762E0,2.1576574E0,-3.9148815E0,1.7496263E0,4.0683513E0,8.056749E0,4.2584643E0,3.0996633E0,5.8929915E0,1.9325324E0,5.4797525E0,7.5649767E0,-7.7243257E-1,4.321956E0,7.9765253E0,5.9694557E0,1.1359744E1,-2.620355E0,6.446402E0,1.3711795E1,8.227519E0,1.0462566E1,1.6042732E1,-1.0736878E0,2.2232151E1],"categories":[],"categories_nodes":[],"categories_segments":[],"categories_sizes":[],"default_left":[0,0,0,0,0,0,0,0,0,0,0,0,0,0,0,0,0,0,0,0,0,0,0,0,0,0,0,0,0,0,0,0,0,0,0,0,0,0,0,0,0,0,0,0,0,0,0,0,0,0,0,0,0,0,0,0,0,0,0,0,0,0,0,0,0,0,0,0,0,0,0,0,0,0,0,0,0,0,0,0,0,0,0,0,0,0,0,0,0,0,0,0,0,0,0,0,0,0,0,0,0,0,0,0,0,0,0,0,0,0,0,0,0,0,0,0,0,0,0,0,0,0,0,0,0,0,0],"id":2,"left_children":[1,3,5,7,9,11,13,15,17,19,21,23,25,27,29,31,33,35,37,39,41,43,45,47,49,51,53,55,57,59,61,63,65,67,69,71,73,75,77,79,81,83,85,87,89,91,93,95,97,99,101,103,105,107,109,111,113,115,117,119,121,123,125,-1,-1,-1,-1,-1,-1,-1,-1,-1,-1,-1,-1,-1,-1,-1,-1,-1,-1,-1,-1,-1,-1,-1,-1,-1,-1,-1,-1,-1,-1,-1,-1,-1,-1,-1,-1,-1,-1,-1,-1,-1,-1,-1,-1,-1,-1,-1,-1,-1,-1,-1,-1,-1,-1,-1,-1,-1,-1,-1,-1,-1,-1,-1,-1],"loss_changes":[1.1118127E8,3.1490664E7,2.5944076E7,1.7338384E7,5.106756E6,6.400166E6,6.9158E6,3.140484E6,2.890948E6,2.085599E6,3.9300035E6,2.4675275E6,1.235796E6,1.164168E6,1.79524E6,1.674444E6,1.10188E6,1.052065E6,2.321046E6,1.044694E6,1.2428555E6,1.574905E6,1.5446311E6,2.2132465E6,1.74106E6,5.18349E5,8.39887E5,1.133886E6,6.15126E5,6.26868E5,1.283128E6,2.8387488E5,1.534108E6,4.192845E5,9.0715E5,6.272925E5,8.25113E5,1.320718E6,1.121459E6,4.08859E5,6.42743E5,6.568805E5,3.9219528E5,9.795815E5,9.4104175E5,5.928838E5,9.165655E5,8.6528506E5,1.5032622E6,6.035292E5,1.1348485E6,2.401756E5,4.31768E5,2.9296E5,4.231405E5,8.87652E5,5.28215E5,6.22027E5,7.21537E5,4.0781912E5,6.86115E5,6.55724E5,6.87194E5,0E0,0E0,0E0,0E0,0E0,0E0,0E0,0E0,0E0,0E0,0E0,0E0,0E0,0E0,0E0,0E0,0E0,0E0,0E0,0E0,0E0,0E0,0E0,0E0,0E0,0E0,0E0,0E0,0E0,0E0,0E0,0E0,0E0,0E0,0E0,0E0,0E0,0E0,0E0,0E0,0E0,0E0,0E0,0E0,0E0,0E0,0E0,0E0,0E0,0E0,0E0,0E0,0E0,0E0,0E0,0E0,0E0,0E0,0E0,0E0,0E0,0E0,0E0,0E0],"parents":[2147483647,0,0,1,1,2,2,3,3,4,4,5,5,6,6,7,7,8,8,9,9,10,10,11,11,12,12,13,13,14,14,15,15,16,16,17,17,18,18,19,19,20,20,21,21,22,22,23,23,24,24,25,25,26,26,27,27,28,28,29,29,30,30,31,31,32,32,33,33,34,34,35,35,36,36,37,37,38,38,39,39,40,40,41,41,42,42,43,43,44,44,45,45,46,46,47,47,48,48,49,49,50,50,51,51,52,52,53,53,54,54,55,55,56,56,57,57,58,58,59,59,60,60,61,61,62,62],"right_children":[2,4,6,8,10,12,14,16,18,20,22,24,26,28,30,32,34,36,38,40,42,44,46,48,50,52,54,56,58,60,62,64,66,68,70,72,74,76,78,80,82,84,86,88,90,92,94,96,98,100,102,104,106,108,110,112,114,116,118,120,122,124,126,-1,-1,-1,-1,-1,-1,-1,-1,-1,-1,-1,-1,-1,-1,-1,-1,-1,-1,-1,-1,-1,-1,-1,-1,-1,-1,-1,-1,-1,-1,-1,-1,-1,-1,-1,-1,-1,-1,-1,-1,-1,-1,-1,-1,-1,-1,-1,-1,-1,-1,-1,-1,-1,-1,-1,-1,-1,-1,-1,-1,-1,-1,-1,-1],"split_conditions":[2.2054014E-1,-7.7826595E-1,1.1153258E0,-1.844822E0,-3.8971305E-1,6.3280916E-1,1.6005334E0,-2.9334753E0,-1.2249402E0,1.4141606E0,-9.860313E-2,1.4141606E0,1.1153258E0,8.690419E-1,6.8450224E-1,-7.0705664E-1,-3.044153E-1,8.196884E-1,-7.1140003E-1,-1.1555687E0,-1.7024432E-1,-6.850776E-1,-3.6611536E-1,-1.17030945E-2,-1.0002134E0,-1.7770388E0,-4.1895697E-1,1.4141606E0,2.2913541E-1,1.3147497E-1,3.1074066E0,-2.604625E-1,-2.9341936E0,4.0889904E-3,3.5355365E-1,8.5937035E-1,1.4141606E0,1.000188E0,-4.091145E-1,-3.1284016E-1,-1.7922226E-1,-1.7029956E-1,-1.2291792E-1,1.2249509E0,-3.472955E-1,-5.7795914E-3,3.1129345E-1,2.6007065E-1,2.5999328E-1,-5.403106E-1,6.2139314E-1,1.0684654E-2,-9.1133493E-1,1.0935309E0,1.8962465E-1,1.0695479E-1,1.2430277E0,1.3063775E-1,-2.0571178E-1,-1.1103091E0,-9.480061E-1,2.9021558E-1,4.7683653E-1,5.137296E-1,-9.207573E0,2.3797996E-1,-2.1583546E1,-9.299206E0,-4.1018543E0,-1.3934559E1,-7.620764E0,-3.4748485E0,-7.636159E0,-6.4023485E0,-1.2438299E1,-4.3138456E0,-7.343511E0,-4.575751E0,-2.017024E0,-7.749557E0,-4.346038E0,-3.8782277E0,-2.1785476E0,-1.1212215E0,-5.502988E0,-6.1454904E-1,1.7435393E0,-4.1023083E0,4.5449582E-1,-1.8182012E0,5.0456546E-2,-9.1408724E-1,8.685458E-1,6.991365E-1,2.8234322E0,-1.9457895E0,6.0850924E-1,5.882907E-1,3.0966089E0,2.5432365E0,-3.6064618E0,2.4015844E0,5.239762E0,2.1576574E0,-3.9148815E0,1.7496263E0,4.0683513E0,8.056749E0,4.2584643E0,3.0996633E0,5.8929915E0,1.9325324E0,5.4797525E0,7.5649767E0,-7.7243257E-1,4.321956E0,7.9765253E0,5.9694557E0,1.1359744E1,-2.620355E0,6.446402E0,1.3711795E1,8.227519E0,1.0462566E1,1.6042732E1,-1.0736878E0,2.2232151E1],"split_indices":[660,660,660,682,682,682,682,682,360,516,592,516,682,682,697,469,153,588,682,682,680,593,736,682,514,330,14,516,761,757,682,147,110,351,352,759,516,491,593,418,592,526,660,249,385,660,462,352,440,213,660,196,736,745,680,506,301,506,109,196,738,33,638,0,0,0,0,0,0,0,0,0,0,0,0,0,0,0,0,0,0,0,0,0,0,0,0,0,0,0,0,0,0,0,0,0,0,0,0,0,0,0,0,0,0,0,0,0,0,0,0,0,0,0,0,0,0,0,0,0,0,0,0,0,0,0,0],"split_type":[0,0,0,0,0,0,0,0,0,0,0,0,0,0,0,0,0,0,0,0,0,0,0,0,0,0,0,0,0,0,0,0,0,0,0,0,0,0,0,0,0,0,0,0,0,0,0,0,0,0,0,0,0,0,0,0,0,0,0,0,0,0,0,0,0,0,0,0,0,0,0,0,0,0,0,0,0,0,0,0,0,0,0,0,0,0,0,0,0,0,0,0,0,0,0,0,0,0,0,0,0,0,0,0,0,0,0,0,0,0,0,0,0,0,0,0,0,0,0,0,0,0,0,0,0,0,0],"sum_hessian":[4.0007E4,2.406E4,1.5947E4,7.196E3,1.6864E4,1.1726E4,4.221E3,1.098E3,6.098E3,5.468E3,1.1396E4,7.853E3,3.873E3,3.021E3,1.2E3,2.86E2,8.12E2,9.78E2,5.12E3,3.961E3,1.507E3,5.284E3,6.112E3,5.489E3,2.364E3,2.368E3,1.505E3,1.749E3,1.272E3,6.12E2,5.88E2,5.1E1,2.35E2,2.72E2,5.4E2,5.73E2,4.05E2,2.313E3,2.807E3,6.36E2,3.325E3,4.97E2,1.01E3,1.319E3,3.965E3,3.072E3,3.04E3,1.949E3,3.54E3,2.48E2,2.116E3,7.9E1,2.289E3,6.55E2,8.5E2,1.07E3,6.79E2,7.92E2,4.8E2,1.49E2,4.63E2,4.95E2,9.3E1,1.3E1,3.8E1,1.2E1,2.23E2,1.53E2,1.19E2,3.92E2,1.48E2,2.6E2,3.13E2,1.74E2,2.31E2,1.454E3,8.59E2,9.32E2,1.875E3,2.22E2,4.14E2,1.482E3,1.843E3,2.69E2,2.28E2,5.54E2,4.56E2,1.121E3,1.98E2,2.284E3,1.681E3,2.092E3,9.8E2,1.814E3,1.226E3,1.134E3,8.15E2,2.07E3,1.47E3,7.8E1,1.7E2,1.222E3,8.94E2,3.7E1,4.2E1,3.61E2,1.928E3,5.35E2,1.2E2,4.51E2,3.99E2,4.47E2,6.23E2,6.52E2,2.7E1,3.14E2,4.78E2,1.71E2,3.09E2,1.6E1,1.33E2,1.65E2,2.98E2,3.24E2,1.71E2,4E0,8.9E1],"tree_param":{"num_deleted":"0","num_feature":"767","num_nodes":"127","size_leaf_vector":"1"}},{"base_weights":[2.9822413E-3,-5.134537E1,4.8181007E1,-1.8432756E2,-4.1942776E1,2.7146954E1,1.19550095E2,-2.4363635E2,-1.2802412E2,-7.266353E1,-2.6291782E1,1.2371966E1,5.8749386E1,9.591615E1,1.8370273E2,-3.593467E2,-2.0993332E2,-6.869038E1,-1.594935E2,-9.609203E1,-5.3926044E1,-4.9833744E1,-1.5096721E1,-1.514882E0,3.4582413E1,8.3506035E1,4.502525E1,7.223456E1,1.1233274E2,1.4320384E2,2.216202E2,-2.2319088E1,-3.8349667E2,-1.4213072E2,-2.5726395E2,-9.860754E1,-3.4517488E0,-1.6428003E2,7.727726E1,-1.4629347E2,-8.266268E1,-7.697348E1,-3.6464485E1,-7.827687E1,-3.95405E1,-3.1906569E1,-7.5729376E-1,-1.8876678E1,9.931246E0,2.2273888E1,5.8625553E1,4.692131E1,9.733015E1,2.3219912E1,5.9953407E1,4.1533566E1,1.0838166E2,9.5863045E1,1.3920033E2,1.6677095E2,9.84737E1,1.7242343E2,2.7278156E2,-5.360407E0,3.8849852E0,-2.6142246E1,-8.0464115E0,-1.0597504E1,-2.8478606E0,-2.0402283E1,-1.0471776E1,-6.8614693E0,1.0755566E0,-1.9462717E0,5.22062E0,-1.1013605E1,-5.905148E0,5.445717E0,4.2818257E-1,-6.099194E0,-1.029231E1,-5.491423E0,-2.773262E0,-6.8819385E0,-3.5015175E0,-3.886642E0,-1.2139784E0,-5.276549E0,-4.7755143E-1,-3.6853878E0,-1.1359425E0,-2.4938035E0,-1.0163882E-1,-9.929339E-1,8.4383035E-1,-6.1866134E-1,-2.91736E0,-1.3126057E0,9.2351705E-1,-3.285359E0,1.5765914E0,2.6845143E0,5.2632637E0,-3.6251247E-1,3.7175717E0,3.5271757E0,7.0582395E0,1.7812544E0,-2.417517E0,2.7562096E0,5.116189E0,3.1704695E0,-3.9227605E0,7.1732483E0,2.3095803E0,3.694102E0,6.9168468E0,3.5089107E0,8.968522E0,5.3644285E0,1.1445223E1,1.6628048E0,7.571191E0,8.496346E0,1.5707162E1,3.7835748E0,1.7116945E1],"categories":[],"categories_nodes":[],"categories_segments":[],"categories_sizes":[],"default_left":[0,0,0,0,0,0,0,0,0,0,0,0,0,0,0,0,0,0,0,0,0,0,0,0,0,0,0,0,0,0,0,0,0,0,0,0,0,0,0,0,0,0,0,0,0,0,0,0,0,0,0,0,0,0,0,0,0,0,0,0,0,0,0,0,0,0,0,0,0,0,0,0,0,0,0,0,0,0,0,0,0,0,0,0,0,0,0,0,0,0,0,0,0,0,0,0,0,0,0,0,0,0,0,0,0,0,0,0,0,0,0,0,0,0,0,0,0,0,0,0,0,0,0,0,0,0,0],"id":3,"left_children":[1,3,5,7,9,11,13,15,17,19,21,23,25,27,29,31,33,35,37,39,41,43,45,47,49,51,53,55,57,59,61,63,65,67,69,71,73,75,77,79,81,83,85,87,89,91,93,95,97,99,101,103,105,107,109,111,113,115,117,119,121,123,125,-1,-1,-1,-1,-1,-1,-1,-1,-1,-1,-1,-1,-1,-1,-1,-1,-1,-1,-1,-1,-1,-1,-1,-1,-1,-1,-1,-1,-1,-1,-1,-1,-1,-1,-1,-1,-1,-1,-1,-1,-1,-1,-1,-1,-1,-1,-1,-1,-1,-1,-1,-1,-1,-1,-1,-1,-1,-1,-1,-1,-1,-1,-1,-1],"loss_changes":[9.901138E7,2.416184E7,3.0971188E7,4.012884E6,8.689294E6,7.445494E6,6.980656E6,1.784216E6,1.16597E6,2.638278E6,3.158146E6,3.3578785E6,1.695958E6,1.275422E6,1.673016E6,9.63176E5,1.290798E6,4.7885E5,5.92718E5,1.7244E6,1.349716E6,1.106507E6,1.9639075E6,1.3339978E6,1.2285275E6,8.74613E5,1.0584105E6,1.5557325E6,7.8725E5,5.31415E5,1.217264E6,1.456035E5,1.066064E6,6.53478E5,1.447016E6,3.2707038E5,2.4781097E5,3.9627E5,7.5704062E3,4.90224E5,6.60049E5,9.72984E5,8.87991E5,6.864975E5,1.277786E6,1.0936032E6,1.0330963E6,6.752299E5,7.054281E5,8.6942975E5,5.387235E5,4.0947512E5,9.62111E5,5.636496E5,6.58545E5,9.814189E5,4.73056E5,7.94719E5,5.51896E5,6.06176E5,4.3600325E5,6.51531E5,6.32986E5,0E0,0E0,0E0,0E0,0E0,0E0,0E0,0E0,0E0,0E0,0E0,0E0,0E0,0E0,0E0,0E0,0E0,0E0,0E0,0E0,0E0,0E0,0E0,0E0,0E0,0E0,0E0,0E0,0E0,0E0,0E0,0E0,0E0,0E0,0E0,0E0,0E0,0E0,0E0,0E0,0E0,0E0,0E0,0E0,0E0,0E0,0E0,0E0,0E0,0E0,0E0,0E0,0E0,0E0,0E0,0E0,0E0,0E0,0E0,0E0,0E0,0E0,0E0,0E0],"parents":[2147483647,0,0,1,1,2,2,3,3,4,4,5,5,6,6,7,7,8,8,9,9,10,10,11,11,12,12,13,13,14,14,15,15,16,16,17,17,18,18,19,19,20,20,21,21,22,22,23,23,24,24,25,25,26,26,27,27,28,28,29,29,30,30,31,31,32,32,33,33,34,34,35,35,36,36,37,37,38,38,39,39,40,40,41,41,42,42,43,43,44,44,45,45,46,46,47,47,48,48,49,49,50,50,51,51,52,52,53,53,54,54,55,55,56,56,57,57,58,58,59,59,60,60,61,61,62,62],"right_children":[2,4,6,8,10,12,14,16,18,20,22,24,26,28,30,32,34,36,38,40,42,44,46,48,50,52,54,56,58,60,62,64,66,68,70,72,74,76,78,80,82,84,86,88,90,92,94,96,98,100,102,104,106,108,110,112,114,116,118,120,122,124,126,-1,-1,-1,-1,-1,-1,-1,-1,-1,-1,-1,-1,-1,-1,-1,-1,-1,-1,-1,-1,-1,-1,-1,-1,-1,-1,-1,-1,-1,-1,-1,-1,-1,-1,-1,-1,-1,-1,-1,-1,-1,-1,-1,-1,-1,-1,-1,-1,-1,-1,-1,-1,-1,-1,-1,-1,-1,-1,-1,-1,-1,-1,-1,-1],"split_conditions":[-5.7795914E-3,-1.844822E0,1.050532E0,-1.927077E0,-7.7826595E-1,5.5712426E-1,1.6005334E0,-9.514487E-1,-6.151321E-1,-2.58206E-1,-4.0857133E-1,2.8632122E-1,-5.3816175E-1,5.6773907E-1,3.5079187E-1,-1.9252646E0,4.6601033E-1,1.604597E-1,2.1296332E0,-1.2249402E0,-7.6529175E-1,-6.850776E-1,-2.2225812E-1,-1.7093031E-1,1.4141606E0,-3.5968113E-1,-1.7939882E-1,1.4141606E0,2.2913541E-1,-1.907285E-1,2.2606115E0,8.1192446E-1,6.444388E-1,5.2786726E-1,2.6742956E-1,1.2998993E0,6.5679634E-1,5.9006286E-1,8.817475E-1,-4.360245E-1,4.8617488E-1,-4.9998853E-1,-3.1361827E-1,1.2249509E0,-1.7090823E-1,1.4141606E0,-1.1824655E-2,1.4142312E0,-1.2249402E0,-8.0951357E-1,6.124526E-1,-5.35594E-1,-4.90292E-1,1.5942372E0,4.9618185E-1,1.5586545E0,1.224352E0,6.8557024E-2,-1.2086896E0,1.3113266E-1,3.6626205E-1,1.2006177E0,2.3731048E-1,-5.360407E0,3.8849852E0,-2.6142246E1,-8.0464115E0,-1.0597504E1,-2.8478606E0,-2.0402283E1,-1.0471776E1,-6.8614693E0,1.0755566E0,-1.9462717E0,5.22062E0,-1.1013605E1,-5.905148E0,5.445717E0,4.2818257E-1,-6.099194E0,-1.029231E1,-5.491423E0,-2.773262E0,-6.8819385E0,-3.5015175E0,-3.886642E0,-1.2139784E0,-5.276549E0,-4.7755143E-1,-3.6853878E0,-1.1359425E0,-2.4938035E0,-1.0163882E-1,-9.929339E-1,8.4383035E-1,-6.1866134E-1,-2.91736E0,-1.3126057E0,9.2351705E-1,-3.285359E0,1.5765914E0,2.6845143E0,5.2632637E0,-3.6251247E-1,3.7175717E0,3.5271757E0,7.0582395E0,1.7812544E0,-2.417517E0,2.7562096E0,5.116189E0,3.1704695E0,-3.9227605E0,7.1732483E0,2.3095803E0,3.694102E0,6.9168468E0,3.5089107E0,8.968522E0,5.3644285E0,1.1445223E1,1.6628048E0,7.571191E0,8.496346E0,1.5707162E1,3.7835748E0,1.7116945E1],"split_indices":[660,682,660,660,660,682,682,255,676,592,592,592,57,682,761,22,696,330,328,382,682,593,682,352,516,396,693,516,761,695,682,385,240,12,4,124,745,592,512,526,440,330,593,271,682,516,352,515,360,682,660,306,736,126,88,594,426,506,109,736,541,3,638,0,0,0,0,0,0,0,0,0,0,0,0,0,0,0,0,0,0,0,0,0,0,0,0,0,0,0,0,0,0,0,0,0,0,0,0,0,0,0,0,0,0,0,0,0,0,0,0,0,0,0,0,0,0,0,0,0,0,0,0,0,0,0,0],"split_type":[0,0,0,0,0,0,0,0,0,0,0,0,0,0,0,0,0,0,0,0,0,0,0,0,0,0,0,0,0,0,0,0,0,0,0,0,0,0,0,0,0,0,0,0,0,0,0,0,0,0,0,0,0,0,0,0,0,0,0,0,0,0,0,0,0,0,0,0,0,0,0,0,0,0,0,0,0,0,0,0,0,0,0,0,0,0,0,0,0,0,0,0,0,0,0,0,0,0,0,0,0,0,0,0,0,0,0,0,0,0,0,0,0,0,0,0,0,0,0,0,0,0,0,0,0,0,0],"sum_hessian":[4.0007E4,1.9366E4,2.0641E4,1.269E3,1.8097E4,1.5951E4,4.69E3,6.05E2,6.64E2,6.098E3,1.1999E4,1.0877E4,5.074E3,3.442E3,1.248E3,1.19E2,4.86E2,2.39E2,4.25E2,2.695E3,3.403E3,3.858E3,8.141E3,6.697E3,4.18E3,1.795E3,3.279E3,1.427E3,2.015E3,6.22E2,6.26E2,9E0,1.1E2,2.13E2,2.73E2,1.61E2,7.8E1,4.19E2,6E0,5.52E2,2.143E3,1.455E3,1.948E3,1.011E3,2.847E3,3.743E3,4.398E3,2.659E3,4.038E3,2.775E3,1.405E3,5.02E2,1.293E3,1.341E3,1.938E3,7.81E2,6.46E2,1.272E3,7.43E2,3.93E2,2.29E2,3.37E2,2.89E2,5E0,4E0,8.6E1,2.4E1,1.51E2,6.2E1,1.24E2,1.49E2,1.42E2,1.9E1,6.3E1,1.5E1,3.13E2,1.06E2,3E0,3E0,2.14E2,3.38E2,1.714E3,4.29E2,4.67E2,9.88E2,7.01E2,1.247E3,8.87E2,1.24E2,1.373E3,1.474E3,2.834E3,9.09E2,2.129E3,2.269E3,2.073E3,5.86E2,5.88E2,3.45E3,1.32E2,2.643E3,9.65E2,4.4E2,1.12E2,3.9E2,4.57E2,8.36E2,1.221E3,1.2E2,1.262E3,6.76E2,7.1E2,7.1E1,5.52E2,9.4E1,4.72E2,8E2,9E1,6.53E2,1.02E2,2.91E2,6.9E1,1.6E2,2.66E2,7.1E1,1.9E1,2.7E2],"tree_param":{"num_deleted":"0","num_feature":"767","num_nodes":"127","size_leaf_vector":"1"}},{"base_weights":[-1.0762601E-3,-3.8470215E1,5.7088707E1,-1.0976651E2,-2.3826628E1,3.7919388E1,1.2461445E2,-2.4066457E2,-8.984776E1,-4.1380966E1,-4.7681565E0,1.775205E1,6.1943863E1,1.0215255E2,1.7672339E2,-8.7013756E1,-2.6050687E2,-5.054766E1,-1.020438E2,-7.720277E1,-3.292349E1,-1.6777277E1,1.7977226E1,9.48946E0,4.1052773E1,4.804405E1,8.679353E1,1.2461081E2,7.300516E1,1.6240865E2,2.743738E2,-1.4745253E2,1.2166072E1,-3.1161807E2,-1.8148018E2,-5.520913E1,4.3166203E1,-1.3071837E2,-8.13829E1,-5.1818012E1,-9.506017E1,-6.517468E1,-2.4467215E1,-3.1520834E1,-3.9573338E0,7.9398136E0,5.8251945E1,2.9408038E0,3.8274498E1,2.9790724E1,6.569906E1,1.2472708E1,5.56529E1,7.376388E1,1.25451454E2,8.400535E1,1.393423E2,5.5404667E1,9.849339E1,1.6921893E2,3.9310993E1,3.1619482E2,3.025533E1,1.5121642E0,-1.0128927E1,-3.0309036E0,4.0680785E0,-2.0356424E1,-6.3529887E0,-8.739654E0,-1.950617E1,4.506605E0,-3.4936917E0,-3.886978E0,5.3375525E0,-1.1016057E1,-6.966315E0,-5.9387417E0,-3.0273068E0,-4.009338E0,-7.337569E-1,-8.09019E0,-4.9396772E0,-6.3455863E0,-3.0683334E0,-2.1602726E0,-5.164438E-1,-1.5436438E0,-3.4954252E0,-7.182126E-1,1.5942669E0,1.08662516E-1,2.0453203E0,2.5682862E0,6.063254E0,-4.097891E-1,1.6403586E0,2.7395172E0,-1.460016E0,5.390543E-1,2.8090792E0,2.4837534E0,5.2768993E0,1.7431668E0,-3.0511975E0,5.444786E-1,3.7236633E0,3.456147E0,5.8071733E0,8.312234E0,1.7979854E0,3.7501237E0,7.636601E0,9.18093E0,5.409535E0,3.6691756E0,-1.7861984E0,6.9503965E0,2.2929685E0,7.3283854E0,1.1546836E1,-1.371451E0,7.0242004E0,9.071744E0,2.2880606E1,-4.5914493E0,5.4092345E0],"categories":[],"categories_nodes":[],"categories_segments":[],"categories_sizes":[],"default_left":[0,0,0,0,0,0,0,0,0,0,0,0,0,0,0,0,0,0,0,0,0,0,0,0,0,0,0,0,0,0,0,0,0,0,0,0,0,0,0,0,0,0,0,0,0,0,0,0,0,0,0,0,0,0,0,0,0,0,0,0,0,0,0,0,0,0,0,0,0,0,0,0,0,0,0,0,0,0,0,0,0,0,0,0,0,0,0,0,0,0,0,0,0,0,0,0,0,0,0,0,0,0,0,0,0,0,0,0,0,0,0,0,0,0,0,0,0,0,0,0,0,0,0,0,0,0,0],"id":4,"left_children":[1,3,5,7,9,11,13,15,17,19,21,23,25,27,29,31,33,35,37,39,41,43,45,47,49,51,53,55,57,59,61,63,65,67,69,71,73,75,77,79,81,83,85,87,89,91,93,95,97,99,101,103,105,107,109,111,113,115,117,119,121,123,125,-1,-1,-1,-1,-1,-1,-1,-1,-1,-1,-1,-1,-1,-1,-1,-1,-1,-1,-1,-1,-1,-1,-1,-1,-1,-1,-1,-1,-1,-1,-1,-1,-1,-1,-1,-1,-1,-1,-1,-1,-1,-1,-1,-1,-1,-1,-1,-1,-1,-1,-1,-1,-1,-1,-1,-1,-1,-1,-1,-1,-1,-1,-1,-1],"loss_changes":[8.789821E7,2.4942296E7,2.0817124E7,1.0442392E7,6.638182E6,6.076732E6,4.019868E6,1.441926E6,1.658068E6,3.108714E6,2.60418E6,1.3134972E6,1.944796E6,1.566662E6,1.124442E6,4.526122E5,1.435436E6,3.93064E5,1.512836E6,8.51512E5,2.269775E6,1.1778788E6,1.3279856E6,9.5272025E5,4.8015575E5,9.93373E5,9.55039E5,7.45084E5,4.535265E5,7.37966E5,1.187686E6,2.044225E5,1.4954112E5,1.263686E6,6.631335E5,3.57133E5,2.686745E5,6.91162E5,8.24594E5,4.8608775E5,4.89983E5,9.437105E5,1.2131995E6,4.36784E5,8.209724E5,4.2353588E5,3.9840625E5,9.8637956E5,4.4217538E5,4.3636875E5,2.6979075E5,7.057272E5,9.02223E5,5.3097E5,5.95691E5,3.0201825E5,5.73018E5,3.4520488E5,4.27016E5,7.86942E5,3.1192825E5,6.64771E5,2.2795011E5,0E0,0E0,0E0,0E0,0E0,0E0,0E0,0E0,0E0,0E0,0E0,0E0,0E0,0E0,0E0,0E0,0E0,0E0,0E0,0E0,0E0,0E0,0E0,0E0,0E0,0E0,0E0,0E0,0E0,0E0,0E0,0E0,0E0,0E0,0E0,0E0,0E0,0E0,0E0,0E0,0E0,0E0,0E0,0E0,0E0,0E0,0E0,0E0,0E0,0E0,0E0,0E0,0E0,0E0,0E0,0E0,0E0,0E0,0E0,0E0,0E0,0E0,0E0,0E0],"parents":[2147483647,0,0,1,1,2,2,3,3,4,4,5,5,6,6,7,7,8,8,9,9,10,10,11,11,12,12,13,13,14,14,15,15,16,16,17,17,18,18,19,19,20,20,21,21,22,22,23,23,24,24,25,25,26,26,27,27,28,28,29,29,30,30,31,31,32,32,33,33,34,34,35,35,36,36,37,37,38,38,39,39,40,40,41,41,42,42,43,43,44,44,45,45,46,46,47,47,48,48,49,49,50,50,51,51,52,52,53,53,54,54,55,55,56,56,57,57,58,58,59,59,60,60,61,61,62,62],"right_children":[2,4,6,8,10,12,14,16,18,20,22,24,26,28,30,32,34,36,38,40,42,44,46,48,50,52,54,56,58,60,62,64,66,68,70,72,74,76,78,80,82,84,86,88,90,92,94,96,98,100,102,104,106,108,110,112,114,116,118,120,122,124,126,-1,-1,-1,-1,-1,-1,-1,-1,-1,-1,-1,-1,-1,-1,-1,-1,-1,-1,-1,-1,-1,-1,-1,-1,-1,-1,-1,-1,-1,-1,-1,-1,-1,-1,-1,-1,-1,-1,-1,-1,-1,-1,-1,-1,-1,-1,-1,-1,-1,-1,-1,-1,-1,-1,-1,-1,-1,-1,-1,-1,-1,-1,-1,-1],"split_conditions":[2.1355018E-1,-1.1555687E0,1.1153258E0,-2.4418192E0,-2.6790556E-1,6.6873693E-1,1.7106376E0,-9.9997354E-1,-7.0705664E-1,-9.45091E-1,2.8632122E-1,7.3997545E-1,5.158968E-1,-6.395899E-2,3.1074066E0,-2.0768711E-1,-2.5897607E-1,1.5194036E0,-3.8936684E-1,-6.142531E-1,-7.784017E-1,-2.681575E-2,5.2582145E-1,6.3280916E-1,5.681567E-1,-6.586853E-1,1.3338267E0,7.1883804E-1,3.904374E-1,1.3656211E0,9.313847E-3,-1.5549978E0,-2.655644E-2,9.033073E-1,2.8203342E0,-1.0304198E0,-5.5422366E-1,-2.129747E0,-7.1140003E-1,1.4141606E0,-1.6567951E0,-8.115224E-1,-2.8483844E-1,7.0645946E-1,6.1267364E-1,1.0853007E0,8.1915146E-1,1.4141606E0,1.2185531E0,1.8906601E-1,2.5999328E-1,1.4142312E0,-1.2249402E0,3.9086288E-1,1.2719669E0,5.793871E-1,1.224352E0,1.4822326E0,7.987098E-1,1.1273229E-1,4.4804814E-1,-1.3973676E-1,-3.321697E-1,1.5121642E0,-1.0128927E1,-3.0309036E0,4.0680785E0,-2.0356424E1,-6.3529887E0,-8.739654E0,-1.950617E1,4.506605E0,-3.4936917E0,-3.886978E0,5.3375525E0,-1.1016057E1,-6.966315E0,-5.9387417E0,-3.0273068E0,-4.009338E0,-7.337569E-1,-8.09019E0,-4.9396772E0,-6.3455863E0,-3.0683334E0,-2.1602726E0,-5.164438E-1,-1.5436438E0,-3.4954252E0,-7.182126E-1,1.5942669E0,1.08662516E-1,2.0453203E0,2.5682862E0,6.063254E0,-4.097891E-1,1.6403586E0,2.7395172E0,-1.460016E0,5.390543E-1,2.8090792E0,2.4837534E0,5.2768993E0,1.7431668E0,-3.0511975E0,5.444786E-1,3.7236633E0,3.456147E0,5.8071733E0,8.312234E0,1.7979854E0,3.7501237E0,7.636601E0,9.18093E0,5.409535E0,3.6691756E0,-1.7861984E0,6.9503965E0,2.2929685E0,7.3283854E0,1.1546836E1,-1.371451E0,7.0242004E0,9.071744E0,2.2880606E1,-4.5914493E0,5.4092345E0],"split_indices":[660,660,682,682,660,660,660,403,249,682,592,473,592,57,682,4,280,505,592,676,592,682,682,682,592,264,660,660,330,184,35,43,219,262,456,123,561,660,682,516,682,593,757,637,374,757,760,516,104,352,682,515,360,0,176,88,206,570,153,736,505,307,3,0,0,0,0,0,0,0,0,0,0,0,0,0,0,0,0,0,0,0,0,0,0,0,0,0,0,0,0,0,0,0,0,0,0,0,0,0,0,0,0,0,0,0,0,0,0,0,0,0,0,0,0,0,0,0,0,0,0,0,0,0,0,0,0],"split_type":[0,0,0,0,0,0,0,0,0,0,0,0,0,0,0,0,0,0,0,0,0,0,0,0,0,0,0,0,0,0,0,0,0,0,0,0,0,0,0,0,0,0,0,0,0,0,0,0,0,0,0,0,0,0,0,0,0,0,0,0,0,0,0,0,0,0,0,0,0,0,0,0,0,0,0,0,0,0,0,0,0,0,0,0,0,0,0,0,0,0,0,0,0,0,0,0,0,0,0,0,0,0,0,0,0,0,0,0,0,0,0,0,0,0,0,0,0,0,0,0,0,0,0,0,0,0,0],"sum_hessian":[4.0007E4,2.3903E4,1.6104E4,4.064E3,1.9839E4,1.2553E4,3.551E3,5.25E2,3.539E3,1.0322E4,9.517E3,6.832E3,5.721E3,2.498E3,1.053E3,6.5E1,4.6E2,8.48E2,2.691E3,1.959E3,8.363E3,6.23E3,3.287E3,5.052E3,1.78E3,3.684E3,2.037E3,1.396E3,1.102E3,9.37E2,1.16E2,3.8E1,2.7E1,2.65E2,1.95E2,8.11E2,3.7E1,1.109E3,1.582E3,8.22E2,1.137E3,1.726E3,6.637E3,2.892E3,3.338E3,2.639E3,6.48E2,4.123E3,9.29E2,1.234E3,5.46E2,6.53E2,3.031E3,1.541E3,4.96E2,3.86E2,1.01E3,6.67E2,4.35E2,8.85E2,5.2E1,9.7E1,1.9E1,4E0,3.4E1,1.3E1,1.4E1,2.29E2,3.6E1,1.69E2,2.6E1,1.4E1,7.97E2,1E1,2.7E1,2.2E2,8.89E2,9.97E2,5.85E2,5.92E2,2.3E2,2.57E2,8.8E2,4.3E2,1.296E3,3.836E3,2.801E3,2.39E3,5.02E2,2.648E3,6.9E2,2.145E3,4.94E2,4.88E2,1.6E2,2.948E3,1.175E3,8.33E2,9.6E1,5.61E2,6.73E2,2.72E2,2.74E2,5.21E2,1.32E2,3.69E2,2.662E3,9.22E2,6.19E2,4.33E2,6.3E1,2.71E2,1.15E2,7.77E2,2.33E2,6.27E2,4E1,3.32E2,1.03E2,3.09E2,5.76E2,3.2E1,2E1,3.5E1,6.2E1,6E0,1.3E1],"tree_param":{"num_deleted":"0","num_feature":"767","num_nodes":"127","size_leaf_vector":"1"}},{"base_weights":[2.8082635E-3,-2.9523462E1,6.6070694E1,-8.229822E1,-1.0934139E1,4.498851E1,1.21309044E2,-1.803719E2,-6.442516E1,-2.9741686E1,3.1360142E0,3.425766E1,7.884806E1,1.0013513E2,1.6624344E2,-2.6083975E2,-1.4975542E2,-1.0847237E2,-5.5854385E1,-6.3795013E1,-2.3126925E1,-7.797184E0,2.3012833E1,1.7039082E1,5.015259E1,6.2635403E1,1.071894E2,1.1687977E2,7.03728E1,1.26131165E2,2.0277464E2,-1.3604611E2,-3.0474734E2,-9.582479E1,-1.7511588E2,-8.113933E1,-1.4481065E2,-7.6181404E1,-3.893401E1,-7.379434E1,-1.554868E1,-5.1327175E1,-1.4693531E1,-1.6260048E1,1.4705536E1,1.4567824E1,5.091388E1,6.004027E-1,3.9639637E1,4.102079E1,6.946749E1,3.872074E1,8.235271E1,-3.510004E1,1.1135929E2,9.985328E1,1.4449467E2,3.447744E1,9.073612E1,1.6647906E2,9.9137985E1,3.2504505E1,2.1309041E2,-1.3594623E1,-3.7035432E0,-1.7888224E0,-2.0323845E1,-7.0028152E0,-1.4239883E0,-1.1319815E1,-3.5472424E0,-2.676421E0,-6.576125E0,-5.4014564E0,-1.089976E1,-5.4436893E0,-2.5163486E0,-3.254066E0,-1.0767729E0,-1.5218655E0,-5.388678E0,3.9648667E-1,-4.547591E0,-2.4313934E0,-4.9128556E0,-1.5285307E0,3.193512E-2,-2.1711705E0,-5.452047E-1,-2.5709276E0,1.3335735E0,3.9096868E-1,1.9685243E0,3.4527383E0,-1.7435263E0,-2.2352445E0,6.6895896E-1,1.7353044E0,4.5494156E0,4.7020286E-1,3.1671996E0,4.3682823E0,-4.0158534E0,-2.282073E0,2.937524E0,1.433367E0,5.594131E0,2.2490494E0,-5.54172E0,4.299927E0,7.5418954E0,4.705159E0,7.278634E0,-2.2118304E0,8.843738E0,2.7638907E0,-5.779748E0,4.449158E0,8.374637E0,3.7452786E0,1.1526167E1,6.7645946E0,7.1404284E-1,4.496482E0,-1.3396237E0,8.916281E0,1.4892994E1],"categories":[],"categories_nodes":[],"categories_segments":[],"categories_sizes":[],"default_left":[0,0,0,0,0,0,0,0,0,0,0,0,0,0,0,0,0,0,0,0,0,0,0,0,0,0,0,0,0,0,0,0,0,0,0,0,0,0,0,0,0,0,0,0,0,0,0,0,0,0,0,0,0,0,0,0,0,0,0,0,0,0,0,0,0,0,0,0,0,0,0,0,0,0,0,0,0,0,0,0,0,0,0,0,0,0,0,0,0,0,0,0,0,0,0,0,0,0,0,0,0,0,0,0,0,0,0,0,0,0,0,0,0,0,0,0,0,0,0,0,0,0,0,0,0,0,0],"id":5,"left_children":[1,3,5,7,9,11,13,15,17,19,21,23,25,27,29,31,33,35,37,39,41,43,45,47,49,51,53,55,57,59,61,63,65,67,69,71,73,75,77,79,81,83,85,87,89,91,93,95,97,99,101,103,105,107,109,111,113,115,117,119,121,123,125,-1,-1,-1,-1,-1,-1,-1,-1,-1,-1,-1,-1,-1,-1,-1,-1,-1,-1,-1,-1,-1,-1,-1,-1,-1,-1,-1,-1,-1,-1,-1,-1,-1,-1,-1,-1,-1,-1,-1,-1,-1,-1,-1,-1,-1,-1,-1,-1,-1,-1,-1,-1,-1,-1,-1,-1,-1,-1,-1,-1,-1,-1,-1,-1],"loss_changes":[7.8074584E7,2.7129072E7,1.4351616E7,1.2533536E7,5.416431E6,3.233368E6,3.109892E6,2.41024E6,2.25584E6,1.960768E6,2.5471655E6,1.8588335E6,9.3334E5,1.098428E6,1.376324E6,1.27706E6,9.8592E5,8.84202E5,1.739424E6,6.75426E5,1.7409282E6,1.4421992E6,9.73702E5,1.2200624E6,6.01212E5,6.279005E5,4.8911E5,5.81106E5,6.044255E5,4.50404E5,9.12928E5,4.9894838E5,1.888778E6,3.98792E5,7.70694E5,5.6424675E5,7.01651E5,1.125017E6,8.958115E5,8.91872E5,3.4339828E5,5.300535E5,9.305514E5,7.83292E5,9.039445E5,4.6866456E5,5.24256E5,7.659005E5,5.18282E5,9.4281325E5,5.51102E5,5.194483E5,4.60688E5,1.4434808E5,3.54394E5,3.57056E5,3.32332E5,5.278531E5,3.57558E5,4.44065E5,3.93371E5,1.0905092E5,8.78534E5,0E0,0E0,0E0,0E0,0E0,0E0,0E0,0E0,0E0,0E0,0E0,0E0,0E0,0E0,0E0,0E0,0E0,0E0,0E0,0E0,0E0,0E0,0E0,0E0,0E0,0E0,0E0,0E0,0E0,0E0,0E0,0E0,0E0,0E0,0E0,0E0,0E0,0E0,0E0,0E0,0E0,0E0,0E0,0E0,0E0,0E0,0E0,0E0,0E0,0E0,0E0,0E0,0E0,0E0,0E0,0E0,0E0,0E0,0E0,0E0,0E0,0E0,0E0,0E0],"parents":[2147483647,0,0,1,1,2,2,3,3,4,4,5,5,6,6,7,7,8,8,9,9,10,10,11,11,12,12,13,13,14,14,15,15,16,16,17,17,18,18,19,19,20,20,21,21,22,22,23,23,24,24,25,25,26,26,27,27,28,28,29,29,30,30,31,31,32,32,33,33,34,34,35,35,36,36,37,37,38,38,39,39,40,40,41,41,42,42,43,43,44,44,45,45,46,46,47,47,48,48,49,49,50,50,51,51,52,52,53,53,54,54,55,55,56,56,57,57,58,58,59,59,60,60,61,61,62,62],"right_children":[2,4,6,8,10,12,14,16,18,20,22,24,26,28,30,32,34,36,38,40,42,44,46,48,50,52,54,56,58,60,62,64,66,68,70,72,74,76,78,80,82,84,86,88,90,92,94,96,98,100,102,104,106,108,110,112,114,116,118,120,122,124,126,-1,-1,-1,-1,-1,-1,-1,-1,-1,-1,-1,-1,-1,-1,-1,-1,-1,-1,-1,-1,-1,-1,-1,-1,-1,-1,-1,-1,-1,-1,-1,-1,-1,-1,-1,-1,-1,-1,-1,-1,-1,-1,-1,-1,-1,-1,-1,-1,-1,-1,-1,-1,-1,-1,-1,-1,-1,-1,-1,-1,-1,-1,-1,-1],"split_conditions":[4.1829222E-1,-7.7826595E-1,1.0915986E0,-1.844822E0,-1.7909724E-1,1.1153258E0,1.8431814E0,-2.9334753E0,-1.2249402E0,-9.2756253E-1,2.8632122E-1,1.160387E-1,5.465765E-1,2.075135E-1,3.5079187E-1,-5.9273887E-1,-3.044153E-1,8.196884E-1,-7.1140003E-1,1.2249509E0,-7.24214E-1,4.3826193E-1,5.2582145E-1,3.995934E-1,1.4141606E0,6.102556E-2,-1.6559525E0,6.0095376E-1,-9.070738E-2,-9.341114E-1,7.5955105E-1,-6.208843E-1,-1.425193E0,6.936987E-1,9.5493263E-1,8.5937035E-1,1.4141606E0,2.7639344E-1,1.240145E-1,-7.0705664E-1,4.090208E-1,1.000188E0,-3.0858707E-1,-5.3560686E-1,-1.2249402E0,5.2829725E-1,1.3556231E0,-6.602737E-1,7.44676E-1,7.630952E-2,2.1625328E0,-9.472418E-1,-7.531247E-1,-1.0689354E-1,-2.674856E-1,2.7745044E-1,-2.127595E0,2.128515E0,1.7106376E0,1.6128281E-2,1.224352E0,-3.4594497E-1,-2.0983557E-1,-1.3594623E1,-3.7035432E0,-1.7888224E0,-2.0323845E1,-7.0028152E0,-1.4239883E0,-1.1319815E1,-3.5472424E0,-2.676421E0,-6.576125E0,-5.4014564E0,-1.089976E1,-5.4436893E0,-2.5163486E0,-3.254066E0,-1.0767729E0,-1.5218655E0,-5.388678E0,3.9648667E-1,-4.547591E0,-2.4313934E0,-4.9128556E0,-1.5285307E0,3.193512E-2,-2.1711705E0,-5.452047E-1,-2.5709276E0,1.3335735E0,3.9096868E-1,1.9685243E0,3.4527383E0,-1.7435263E0,-2.2352445E0,6.6895896E-1,1.7353044E0,4.5494156E0,4.7020286E-1,3.1671996E0,4.3682823E0,-4.0158534E0,-2.282073E0,2.937524E0,1.433367E0,5.594131E0,2.2490494E0,-5.54172E0,4.299927E0,7.5418954E0,4.705159E0,7.278634E0,-2.2118304E0,8.843738E0,2.7638907E0,-5.779748E0,4.449158E0,8.374637E0,3.7452786E0,1.1526167E1,6.7645946E0,7.1404284E-1,4.496482E0,-1.3396237E0,8.916281E0,1.4892994E1],"split_indices":[660,660,682,682,660,660,682,682,360,592,592,592,592,123,761,740,153,588,682,249,682,682,682,682,516,418,218,440,505,738,660,308,22,350,374,759,516,440,593,205,21,403,407,352,470,757,147,593,462,682,455,505,593,242,22,761,615,572,660,736,206,258,34,0,0,0,0,0,0,0,0,0,0,0,0,0,0,0,0,0,0,0,0,0,0,0,0,0,0,0,0,0,0,0,0,0,0,0,0,0,0,0,0,0,0,0,0,0,0,0,0,0,0,0,0,0,0,0,0,0,0,0,0,0,0,0,0],"split_type":[0,0,0,0,0,0,0,0,0,0,0,0,0,0,0,0,0,0,0,0,0,0,0,0,0,0,0,0,0,0,0,0,0,0,0,0,0,0,0,0,0,0,0,0,0,0,0,0,0,0,0,0,0,0,0,0,0,0,0,0,0,0,0,0,0,0,0,0,0,0,0,0,0,0,0,0,0,0,0,0,0,0,0,0,0,0,0,0,0,0,0,0,0,0,0,0,0,0,0,0,0,0,0,0,0,0,0,0,0,0,0,0,0,0,0,0,0,0,0,0,0,0,0,0,0,0,0],"sum_hessian":[4.0007E4,2.7653E4,1.2354E4,7.196E3,2.0457E4,8.952E3,3.402E3,1.098E3,6.098E3,8.751E3,1.1706E4,6.81E3,2.142E3,2.33E3,1.072E3,2.86E2,8.12E2,9.78E2,5.12E3,1.412E3,7.339E3,7.555E3,4.151E3,3.277E3,3.533E3,1.379E3,7.63E2,1.476E3,8.54E2,5.28E2,5.44E2,8.3E1,2.03E2,2.72E2,5.4E2,5.73E2,4.05E2,2.313E3,2.807E3,1.166E3,2.46E2,1.68E3,5.659E3,5.492E3,2.063E3,3.196E3,9.55E2,1.902E3,1.375E3,2.416E3,1.117E3,6.34E2,7.45E2,2E1,7.43E2,9.36E2,5.4E2,3.17E2,5.37E2,1.95E2,3.33E2,3.3E1,5.11E2,3E1,5.3E1,2.4E1,1.79E2,2.07E2,6.5E1,4.79E2,6.1E1,2.6E2,3.13E2,1.74E2,2.31E2,1.614E3,6.99E2,1.616E3,1.191E3,2.95E2,8.71E2,1.85E2,6.1E1,1.255E3,4.25E2,3.31E3,2.349E3,1.445E3,4.047E3,2.34E2,1.829E3,2.225E3,9.71E2,8.84E2,7.1E1,4.1E2,1.492E3,1.072E3,3.03E2,6.36E2,1.78E3,1.094E3,2.3E1,7.2E1,5.62E2,1.21E2,6.24E2,1E1,1E1,2.1E2,5.33E2,4.87E2,4.49E2,7E0,5.33E2,2.96E2,2.1E1,4.16E2,1.21E2,4.4E1,1.51E2,2.86E2,4.7E1,1.7E1,1.6E1,1.95E2,3.16E2],"tree_param":{"num_deleted":"0","num_feature":"767","num_nodes":"127","size_leaf_vector":"1"}},{"base_weights":[-5.829582E-4,-2.480901E1,6.9888435E1,-7.747261E1,-7.8189454E0,5.1255085E1,1.25722466E2,-1.7000505E2,-6.0609577E1,-2.5302544E1,7.6165915E0,3.9693363E1,7.698314E1,1.1019856E2,1.8261203E2,-1.4913551E2,-2.7939517E2,-8.139774E1,-4.399267E1,-4.5782795E1,-1.5382099E1,-3.38761E0,2.6749378E1,2.9769245E1,6.1516464E1,9.453696E1,5.548059E1,9.5459274E1,1.4952599E2,1.1095508E2,2.2853008E2,-2.5664978E2,-1.3147885E2,-8.3243546E1,-3.3743665E2,-1.2503232E2,-6.973268E1,-3.213282E1,-7.2284546E1,-1.2947597E1,-5.5348663E1,-3.3181095E1,-4.0591474E0,-1.2197761E1,1.710931E1,2.0145992E1,5.6781918E1,1.1164472E2,2.6544529E1,4.611072E1,8.264158E1,7.125265E1,1.1594564E2,-1.9995165E1,6.6155785E1,8.310399E1,1.3545593E2,-2.4766817E1,1.5311652E2,1.3315077E2,2.84861E1,1.7074287E2,2.8308563E2,-7.5901537E0,-2.0662767E1,-1.4949629E0,-8.583669E0,-7.2204013E0,2.0310912E0,-3.588021E0,-2.327278E1,-5.342094E0,-9.117099E0,-4.4664803E0,-6.574233E-1,-2.9003851E0,-9.0809894E-1,-6.1599026E0,-2.520617E0,-1.5074677E0,1.710033E0,-4.073377E0,-1.6415129E0,-2.4968467E0,-5.238251E-1,-1.0811765E0,6.8307143E-1,-1.646974E0,-1.0016164E-1,-3.7895286E0,1.2624983E0,1.4498875E-1,1.6266334E0,2.201748E0,5.174243E0,9.664039E0,3.6547446E0,8.135062E-1,2.4587324E0,4.7639117E0,2.0809531E0,2.5692816E0,5.9097247E0,-7.1756E0,4.4872513E0,-5.0723333E0,7.088583E0,-5.396572E0,5.962126E-1,3.1124682E0,6.642775E0,5.467258E0,2.2347295E0,8.429755E0,-3.0819416E0,1.4108145E0,-2.8378081E0,9.627384E0,3.5502203E0,3.3168855E0,1.0006817E1,-4.6851544E0,3.615768E0,1.2030983E1,1.8769476E0,2.7537136E0,1.7910765E1],"categories":[],"categories_nodes":[],"categories_segments":[],"categories_sizes":[],"default_left":[0,0,0,0,0,0,0,0,0,0,0,0,0,0,0,0,0,0,0,0,0,0,0,0,0,0,0,0,0,0,0,0,0,0,0,0,0,0,0,0,0,0,0,0,0,0,0,0,0,0,0,0,0,0,0,0,0,0,0,0,0,0,0,0,0,0,0,0,0,0,0,0,0,0,0,0,0,0,0,0,0,0,0,0,0,0,0,0,0,0,0,0,0,0,0,0,0,0,0,0,0,0,0,0,0,0,0,0,0,0,0,0,0,0,0,0,0,0,0,0,0,0,0,0,0,0,0],"id":6,"left_children":[1,3,5,7,9,11,13,15,17,19,21,23,25,27,29,31,33,35,37,39,41,43,45,47,49,51,53,55,57,59,61,63,65,67,69,71,73,75,77,79,81,83,85,87,89,91,93,95,97,99,101,103,105,107,109,111,113,115,117,119,121,123,125,-1,-1,-1,-1,-1,-1,-1,-1,-1,-1,-1,-1,-1,-1,-1,-1,-1,-1,-1,-1,-1,-1,-1,-1,-1,-1,-1,-1,-1,-1,-1,-1,-1,-1,-1,-1,-1,-1,-1,-1,-1,-1,-1,-1,-1,-1,-1,-1,-1,-1,-1,-1,-1,-1,-1,-1,-1,-1,-1,-1,-1,-1,-1,-1],"loss_changes":[6.939312E7,2.6424088E7,1.08559E7,1.1157376E7,6.0310375E6,2.317472E6,2.149628E6,2.189426E6,2.079952E6,2.12291E6,2.5003852E6,1.165228E6,8.75632E5,1.088538E6,1.601852E6,1.52394E6,1.685849E6,1.305104E6,1.125414E6,1.066567E6,1.4238058E6,1.3639475E6,8.50364E5,9.688635E5,5.208315E5,5.94962E5,9.0757725E5,6.66415E5,3.76422E5,3.8985325E5,6.41958E5,1.076349E6,9.9383E5,2.4586897E5,1.59081E6,4.33218E5,5.88346E5,6.59947E5,8.854395E5,3.9988897E5,9.120665E5,5.6346E5,9.354414E5,8.4749544E5,7.2724075E5,4.3977562E5,4.33778E5,2.7142725E5,6.7571025E5,3.57438E5,4.106215E5,5.1455225E5,3.79201E5,3.0903966E5,5.7494E5,4.10443E5,3.867905E5,2.8595469E4,2.96688E5,3.9387925E5,2.373602E5,6.919085E5,4.59506E5,0E0,0E0,0E0,0E0,0E0,0E0,0E0,0E0,0E0,0E0,0E0,0E0,0E0,0E0,0E0,0E0,0E0,0E0,0E0,0E0,0E0,0E0,0E0,0E0,0E0,0E0,0E0,0E0,0E0,0E0,0E0,0E0,0E0,0E0,0E0,0E0,0E0,0E0,0E0,0E0,0E0,0E0,0E0,0E0,0E0,0E0,0E0,0E0,0E0,0E0,0E0,0E0,0E0,0E0,0E0,0E0,0E0,0E0,0E0,0E0,0E0,0E0,0E0,0E0],"parents":[2147483647,0,0,1,1,2,2,3,3,4,4,5,5,6,6,7,7,8,8,9,9,10,10,11,11,12,12,13,13,14,14,15,15,16,16,17,17,18,18,19,19,20,20,21,21,22,22,23,23,24,24,25,25,26,26,27,27,28,28,29,29,30,30,31,31,32,32,33,33,34,34,35,35,36,36,37,37,38,38,39,39,40,40,41,41,42,42,43,43,44,44,45,45,46,46,47,47,48,48,49,49,50,50,51,51,52,52,53,53,54,54,55,55,56,56,57,57,58,58,59,59,60,60,61,61,62,62],"right_children":[2,4,6,8,10,12,14,16,18,20,22,24,26,28,30,32,34,36,38,40,42,44,46,48,50,52,54,56,58,60,62,64,66,68,70,72,74,76,78,80,82,84,86,88,90,92,94,96,98,100,102,104,106,108,110,112,114,116,118,120,122,124,126,-1,-1,-1,-1,-1,-1,-1,-1,-1,-1,-1,-1,-1,-1,-1,-1,-1,-1,-1,-1,-1,-1,-1,-1,-1,-1,-1,-1,-1,-1,-1,-1,-1,-1,-1,-1,-1,-1,-1,-1,-1,-1,-1,-1,-1,-1,-1,-1,-1,-1,-1,-1,-1,-1,-1,-1,-1,-1,-1,-1,-1,-1,-1,-1],"split_conditions":[5.35215E-1,-7.7826595E-1,1.2445929E0,-1.844822E0,-9.1333285E-2,1.1153258E0,2.2606115E0,1.297597E0,-2.58206E-1,-4.0857133E-1,2.8632122E-1,5.681567E-1,7.8224815E-2,9.5493263E-1,3.2051098E-1,-1.2860873E0,-6.7616343E-1,-1.2249402E0,6.70043E-1,-7.0705664E-1,-3.8971305E-1,4.3826193E-1,7.067203E-1,-1.7154864E0,3.2824063E-1,1.1610103E-1,-1.2249402E0,8.5509163E-1,-1.0304246E0,-4.296051E-1,3.540563E-1,-1.5000081E0,-1.4188472E0,1.3662429E0,-6.1477214E-1,1.7556137E0,1.3025128E0,2.0103307E-2,-1.3049912E-1,3.1263065E-1,1.000188E0,1.4141606E0,-4.1340628E-1,-1.8877265E-1,-1.3662093E0,-3.1355768E-1,3.6268204E-1,-3.6928385E-1,3.995934E-1,-1.8846539E-1,-6.82752E-1,-2.6652215E0,-2.9341936E0,-5.241301E-1,1.0109873E0,4.195853E-1,2.6370907E0,2.2606115E0,1.6005334E0,-1.630012E-1,2.056706E-1,1.0706952E0,-1.2589371E0,-7.5901537E0,-2.0662767E1,-1.4949629E0,-8.583669E0,-7.2204013E0,2.0310912E0,-3.588021E0,-2.327278E1,-5.342094E0,-9.117099E0,-4.4664803E0,-6.574233E-1,-2.9003851E0,-9.0809894E-1,-6.1599026E0,-2.520617E0,-1.5074677E0,1.710033E0,-4.073377E0,-1.6415129E0,-2.4968467E0,-5.238251E-1,-1.0811765E0,6.8307143E-1,-1.646974E0,-1.0016164E-1,-3.7895286E0,1.2624983E0,1.4498875E-1,1.6266334E0,2.201748E0,5.174243E0,9.664039E0,3.6547446E0,8.135062E-1,2.4587324E0,4.7639117E0,2.0809531E0,2.5692816E0,5.9097247E0,-7.1756E0,4.4872513E0,-5.0723333E0,7.088583E0,-5.396572E0,5.962126E-1,3.1124682E0,6.642775E0,5.467258E0,2.2347295E0,8.429755E0,-3.0819416E0,1.4108145E0,-2.8378081E0,9.627384E0,3.5502203E0,3.3168855E0,1.0006817E1,-4.6851544E0,3.615768E0,1.2030983E1,1.8769476E0,2.7537136E0,1.7910765E1],"split_indices":[660,660,682,682,660,660,682,3,592,592,592,592,101,484,761,211,385,382,759,183,682,682,682,322,0,681,272,592,143,587,614,212,727,117,760,323,132,87,374,561,271,516,495,352,426,681,396,614,682,526,717,242,374,550,504,38,132,594,220,20,616,220,242,0,0,0,0,0,0,0,0,0,0,0,0,0,0,0,0,0,0,0,0,0,0,0,0,0,0,0,0,0,0,0,0,0,0,0,0,0,0,0,0,0,0,0,0,0,0,0,0,0,0,0,0,0,0,0,0,0,0,0,0,0,0,0,0],"split_type":[0,0,0,0,0,0,0,0,0,0,0,0,0,0,0,0,0,0,0,0,0,0,0,0,0,0,0,0,0,0,0,0,0,0,0,0,0,0,0,0,0,0,0,0,0,0,0,0,0,0,0,0,0,0,0,0,0,0,0,0,0,0,0,0,0,0,0,0,0,0,0,0,0,0,0,0,0,0,0,0,0,0,0,0,0,0,0,0,0,0,0,0,0,0,0,0,0,0,0,0,0,0,0,0,0,0,0,0,0,0,0,0,0,0,0,0,0,0,0,0,0,0,0,0,0,0,0],"sum_hessian":[4.0007E4,2.953E4,1.0477E4,7.196E3,2.2334E4,7.867E3,2.61E3,1.098E3,6.098E3,1.047E4,1.1864E4,5.442E3,2.425E3,2.069E3,5.41E2,9.38E2,1.6E2,2.695E3,3.403E3,3.407E3,7.063E3,7.536E3,4.328E3,3.754E3,1.688E3,1.32E3,1.105E3,1.525E3,5.44E2,2.22E2,3.19E2,1.17E2,8.21E2,4.1E1,1.19E2,5.52E2,2.143E3,2.41E3,9.93E2,7.73E2,2.634E3,2.74E3,4.323E3,5.273E3,2.263E3,3.559E3,7.69E2,1.32E2,3.622E3,9.91E2,6.97E2,6.49E2,6.71E2,1.36E2,9.69E2,1.184E3,3.41E2,1E1,5.34E2,1.71E2,5.1E1,1.71E2,1.48E2,5.5E1,6.2E1,8.3E1,7.38E2,3.1E1,1E1,2.1E1,9.8E1,2.51E2,3.01E2,1.982E3,1.61E2,1.226E3,1.184E3,4.86E2,5.07E2,6E2,1.73E2,1.811E3,8.23E2,2.033E3,7.07E2,2.27E3,2.053E3,2.148E3,3.125E3,1E2,2.163E3,1.007E3,2.552E3,4.68E2,3.01E2,5.8E1,7.4E1,1.915E3,1.707E3,2.41E2,7.5E2,2.07E2,4.9E2,7E0,6.42E2,4E0,6.67E2,3.6E1,1E2,7.47E2,2.22E2,1.001E3,1.83E2,3.34E2,7E0,3E0,7E0,4.9E2,4.4E1,5.8E1,1.13E2,9E0,4.2E1,1.38E2,3.3E1,1.1E1,1.37E2],"tree_param":{"num_deleted":"0","num_feature":"767","num_nodes":"127","size_leaf_vector":"1"}},{"base_weights":[-2.477871E-4,-4.0508415E1,3.8006447E1,-1.4122302E2,-3.256432E1,2.1252977E1,9.485182E1,-1.9450383E2,-9.48923E1,-5.6131363E1,-2.0729103E1,9.608011E0,4.616058E1,7.568201E1,1.4689963E2,-2.972662E2,-1.6599736E2,-4.4409588E1,-1.2304987E2,-8.0633064E1,-4.2553844E1,-3.565233E1,-8.065872E0,-1.497708E0,2.737114E1,6.791487E1,3.4113953E1,6.835024E1,1.1724905E2,1.1346539E2,1.7826141E2,-3.7046788E0,-3.1863846E2,-1.2431229E2,-2.2709924E2,-7.452574E1,1.2341313E1,-1.343429E2,-2.5742659E1,-6.689898E1,-1.1264286E2,-2.4771122E1,-5.95768E1,-5.041079E1,-2.26738E1,-2.835228E1,7.1298254E-1,-2.5881506E1,4.928849E0,1.660344E1,4.8420353E1,3.4758312E1,8.049099E1,2.056116E1,5.472478E1,4.2477722E1,8.118997E1,8.882659E1,1.5452922E2,1.3474757E2,7.360516E1,1.4428555E2,2.4180429E2,-4.386301E0,4.4119287E0,-2.1938122E1,-6.18593E0,-5.217969E0,-1.2991862E1,-9.4417515E0,-2.1407034E1,3.6090055E-1,-5.433765E0,3.8647122E0,-1.7492983E0,1.4841485E0,-8.334965E0,4.751144E0,-5.0708804E0,-3.3151183E0,-7.2429676E0,-8.118532E0,-4.4849205E0,-2.2222052E0,-4.3268856E-1,-5.1894975E0,-2.400164E0,-4.8982024E0,-2.5344734E0,-2.4634209E0,-3.1404683E-1,-1.1862516E0,-4.033502E0,-4.3747842E-1,1.2385948E0,-2.591714E0,-5.510684E-1,-3.5269115E-2,1.8727412E0,-3.2782617E0,1.2190489E0,3.0753982E0,-3.8920546E0,-8.387505E-1,2.926016E0,2.7489696E0,5.929568E0,2.4865742E-1,2.46513E0,2.4572692E0,5.064444E0,6.641804E-1,4.5873075E0,4.0222945E0,6.4234114E0,6.6431236E0,6.5122133E-1,1.28353E0,1.0159779E1,3.9052963E0,9.36862E0,1.8511727E0,7.097439E0,6.5084567E0,1.1961928E1,1.613327E1,5.7111783E0],"categories":[],"categories_nodes":[],"categories_segments":[],"categories_sizes":[],"default_left":[0,0,0,0,0,0,0,0,0,0,0,0,0,0,0,0,0,0,0,0,0,0,0,0,0,0,0,0,0,0,0,0,0,0,0,0,0,0,0,0,0,0,0,0,0,0,0,0,0,0,0,0,0,0,0,0,0,0,0,0,0,0,0,0,0,0,0,0,0,0,0,0,0,0,0,0,0,0,0,0,0,0,0,0,0,0,0,0,0,0,0,0,0,0,0,0,0,0,0,0,0,0,0,0,0,0,0,0,0,0,0,0,0,0,0,0,0,0,0,0,0,0,0,0,0,0,0],"id":7,"left_children":[1,3,5,7,9,11,13,15,17,19,21,23,25,27,29,31,33,35,37,39,41,43,45,47,49,51,53,55,57,59,61,63,65,67,69,71,73,75,77,79,81,83,85,87,89,91,93,95,97,99,101,103,105,107,109,111,113,115,117,119,121,123,125,-1,-1,-1,-1,-1,-1,-1,-1,-1,-1,-1,-1,-1,-1,-1,-1,-1,-1,-1,-1,-1,-1,-1,-1,-1,-1,-1,-1,-1,-1,-1,-1,-1,-1,-1,-1,-1,-1,-1,-1,-1,-1,-1,-1,-1,-1,-1,-1,-1,-1,-1,-1,-1,-1,-1,-1,-1,-1,-1,-1,-1,-1,-1,-1],"loss_changes":[6.161869E7,1.5463216E7,1.9648516E7,3.34141E6,5.001962E6,4.625052E6,4.59736E6,1.507024E6,1.0528215E6,1.968634E6,2.2602815E6,2.1477665E6,1.312773E6,9.86382E5,1.153718E6,8.10849E5,1.114682E6,5.0160438E5,5.110895E5,8.75659E5,1.162001E6,1.0428285E6,1.1557571E6,1.0518248E6,9.4246025E5,7.288575E5,9.087935E5,9.52436E5,4.251275E5,4.540505E5,1.087718E6,1.3412688E5,9.31907E5,9.878045E5,1.393205E6,2.5019075E5,2.4639833E5,3.467045E5,4.2974356E5,8.92869E5,4.574325E5,4.0923362E5,1.0127095E6,6.258755E5,9.399651E5,6.42756E5,7.2488806E5,4.012873E5,7.706709E5,7.4507075E5,4.8055125E5,3.538277E5,7.90189E5,6.709547E5,5.026695E5,1.0556865E6,6.60657E5,5.121185E5,3.799285E5,5.152535E5,4.2282362E5,6.79538E5,6.23351E5,0E0,0E0,0E0,0E0,0E0,0E0,0E0,0E0,0E0,0E0,0E0,0E0,0E0,0E0,0E0,0E0,0E0,0E0,0E0,0E0,0E0,0E0,0E0,0E0,0E0,0E0,0E0,0E0,0E0,0E0,0E0,0E0,0E0,0E0,0E0,0E0,0E0,0E0,0E0,0E0,0E0,0E0,0E0,0E0,0E0,0E0,0E0,0E0,0E0,0E0,0E0,0E0,0E0,0E0,0E0,0E0,0E0,0E0,0E0,0E0,0E0,0E0,0E0,0E0],"parents":[2147483647,0,0,1,1,2,2,3,3,4,4,5,5,6,6,7,7,8,8,9,9,10,10,11,11,12,12,13,13,14,14,15,15,16,16,17,17,18,18,19,19,20,20,21,21,22,22,23,23,24,24,25,25,26,26,27,27,28,28,29,29,30,30,31,31,32,32,33,33,34,34,35,35,36,36,37,37,38,38,39,39,40,40,41,41,42,42,43,43,44,44,45,45,46,46,47,47,48,48,49,49,50,50,51,51,52,52,53,53,54,54,55,55,56,56,57,57,58,58,59,59,60,60,61,61,62,62],"right_children":[2,4,6,8,10,12,14,16,18,20,22,24,26,28,30,32,34,36,38,40,42,44,46,48,50,52,54,56,58,60,62,64,66,68,70,72,74,76,78,80,82,84,86,88,90,92,94,96,98,100,102,104,106,108,110,112,114,116,118,120,122,124,126,-1,-1,-1,-1,-1,-1,-1,-1,-1,-1,-1,-1,-1,-1,-1,-1,-1,-1,-1,-1,-1,-1,-1,-1,-1,-1,-1,-1,-1,-1,-1,-1,-1,-1,-1,-1,-1,-1,-1,-1,-1,-1,-1,-1,-1,-1,-1,-1,-1,-1,-1,-1,-1,-1,-1,-1,-1,-1,-1,-1,-1,-1,-1,-1],"split_conditions":[-5.7795914E-3,-1.7773206E0,1.050532E0,-1.927077E0,-7.7826595E-1,5.5712426E-1,1.6005334E0,-9.514487E-1,-6.151321E-1,-4.091145E-1,-1.14984415E-1,2.8632122E-1,-5.3816175E-1,1.9210767E0,3.5079187E-1,-1.9252646E0,8.25889E-1,1.604597E-1,1.0513356E0,7.2987545E-1,-6.146642E-1,-2.0565116E-1,-4.887825E-1,-6.337093E-1,1.4141606E0,-3.5968113E-1,2.7732116E-1,3.818616E-1,3.1999537E-1,-1.5144691E-1,4.2725894E-1,8.1192446E-1,6.444388E-1,1.8323177E0,1.2569171E0,-7.531247E-1,-2.958791E-1,-2.2770712E0,-1.009283E0,1.8811535E0,1.3837029E-1,1.3780452E-1,-8.3845145E-1,-1.2249402E0,-1.7090823E-1,1.2249509E0,4.478213E-1,-2.049406E-1,6.8037945E-1,-8.0951357E-1,1.7849159E0,-5.35594E-1,-4.90292E-1,5.6764513E-1,3.6616218E-1,1.4141606E0,2.2913541E-1,1.6005334E0,-8.5398763E-1,1.3113266E-1,5.159361E-1,4.0936044E-1,-1.12838514E-1,-4.386301E0,4.4119287E0,-2.1938122E1,-6.18593E0,-5.217969E0,-1.2991862E1,-9.4417515E0,-2.1407034E1,3.6090055E-1,-5.433765E0,3.8647122E0,-1.7492983E0,1.4841485E0,-8.334965E0,4.751144E0,-5.0708804E0,-3.3151183E0,-7.2429676E0,-8.118532E0,-4.4849205E0,-2.2222052E0,-4.3268856E-1,-5.1894975E0,-2.400164E0,-4.8982024E0,-2.5344734E0,-2.4634209E0,-3.1404683E-1,-1.1862516E0,-4.033502E0,-4.3747842E-1,1.2385948E0,-2.591714E0,-5.510684E-1,-3.5269115E-2,1.8727412E0,-3.2782617E0,1.2190489E0,3.0753982E0,-3.8920546E0,-8.387505E-1,2.926016E0,2.7489696E0,5.929568E0,2.4865742E-1,2.46513E0,2.4572692E0,5.064444E0,6.641804E-1,4.5873075E0,4.0222945E0,6.4234114E0,6.6431236E0,6.5122133E-1,1.28353E0,1.0159779E1,3.9052963E0,9.36862E0,1.8511727E0,7.097439E0,6.5084567E0,1.1961928E1,1.613327E1,5.7111783E0],"split_indices":[660,682,660,660,660,682,682,255,676,593,592,592,57,660,761,22,737,330,438,759,698,593,682,264,516,396,680,682,218,651,429,385,240,324,3,175,219,64,3,434,306,22,682,382,682,403,440,680,660,682,412,306,736,660,73,516,761,616,680,736,352,636,169,0,0,0,0,0,0,0,0,0,0,0,0,0,0,0,0,0,0,0,0,0,0,0,0,0,0,0,0,0,0,0,0,0,0,0,0,0,0,0,0,0,0,0,0,0,0,0,0,0,0,0,0,0,0,0,0,0,0,0,0,0,0,0,0],"split_type":[0,0,0,0,0,0,0,0,0,0,0,0,0,0,0,0,0,0,0,0,0,0,0,0,0,0,0,0,0,0,0,0,0,0,0,0,0,0,0,0,0,0,0,0,0,0,0,0,0,0,0,0,0,0,0,0,0,0,0,0,0,0,0,0,0,0,0,0,0,0,0,0,0,0,0,0,0,0,0,0,0,0,0,0,0,0,0,0,0,0,0,0,0,0,0,0,0,0,0,0,0,0,0,0,0,0,0,0,0,0,0,0,0,0,0,0,0,0,0,0,0,0,0,0,0,0,0],"sum_hessian":[4.0007E4,1.9366E4,2.0641E4,1.406E3,1.796E4,1.5951E4,4.69E3,6.42E2,7.64E2,5.994E3,1.1966E4,1.0877E4,5.074E3,3.442E3,1.248E3,1.23E2,5.19E2,2.81E2,4.83E2,2.123E3,3.871E3,5.486E3,6.48E3,6.697E3,4.18E3,1.795E3,3.279E3,2.944E3,4.98E2,6.22E2,6.26E2,9E0,1.14E2,3.23E2,1.96E2,1.82E2,9.9E1,4.3E2,5.3E1,1.503E3,6.2E2,1.903E3,1.968E3,2.556E3,2.93E3,1.952E3,4.528E3,1.392E3,5.305E3,2.775E3,1.405E3,5.02E2,1.293E3,1.988E3,1.291E3,9.88E2,1.956E3,2.98E2,2E2,3.93E2,2.29E2,4.25E2,2.01E2,5E0,4E0,8.9E1,2.5E1,2.41E2,8.2E1,1.39E2,5.7E1,3.1E1,1.51E2,4.2E1,5.7E1,1.1E1,4.19E2,1.8E1,3.5E1,1.249E3,2.54E2,3.75E2,2.45E2,1.115E3,7.88E2,8.17E2,1.151E3,5.15E2,2.041E3,1.421E3,1.509E3,1.609E3,3.43E2,3.234E3,1.294E3,6.77E2,7.15E2,4.391E3,9.14E2,1.32E2,2.643E3,1.375E3,3E1,1.12E2,3.9E2,4.57E2,8.36E2,1.11E3,8.78E2,8.95E2,3.96E2,5.19E2,4.69E2,1.283E3,6.73E2,2.3E2,6.8E1,2.2E1,1.78E2,1E2,2.93E2,1.24E2,1.05E2,2.72E2,1.53E2,1.64E2,3.7E1],"tree_param":{"num_deleted":"0","num_feature":"767","num_nodes":"127","size_leaf_vector":"1"}},{"base_weights":[-4.5293155E-3,-2.2069649E1,6.2156128E1,-6.875193E1,-7.0091925E0,4.6780724E1,1.1652569E2,-1.9253632E2,-5.8247677E1,-2.2446991E1,6.620216E0,3.810577E1,7.6557106E1,9.106347E1,1.4581546E2,-2.9399417E2,-1.6422806E2,-8.74414E1,-4.554519E1,-3.3732998E1,-7.3579116E0,-3.155626E0,2.3617676E1,2.8947382E1,5.770439E1,6.031482E1,9.7935875E1,6.013493E1,1.1366738E2,1.18003815E2,2.0411714E2,-5.1464825E1,-3.3300766E2,1.0503612E2,-1.7154051E2,-7.2111046E1,-1.20744644E2,-4.1062374E1,-1.3308281E2,-5.8631638E1,-2.6479822E1,-1.2911807E1,2.7244446E1,-3.4967888E1,1.7757193E0,1.8806122E1,5.9250366E1,1.2673532E2,2.6310993E1,4.3327335E1,7.9297844E1,7.518272E1,1.2613752E1,-8.1891136E1,1.0183936E2,1.4659485E2,4.280184E1,1.3903577E2,7.6025795E1,9.4252945E1,1.6421788E2,1.5073398E2,2.5556807E2,3.3344193E0,-7.0840845E0,-1.3329866E0,-2.1804451E1,-1.0859162E0,7.8863997E0,-7.571246E0,-1.3348742E1,-3.7321095E0,-8.461366E0,-1.0250438E1,-5.1352663E0,-3.7020006E0,-1.6651024E0,-3.037467E0,-9.737424E0,-3.0775282E0,-6.1949863E0,-2.9221938E0,-1.070031E0,-2.0528405E0,-2.0539658E-1,-1.4135568E0,2.353569E0,-7.685939E0,-1.8468621E0,-2.8645736E-1,1.5174851E0,-2.6970955E-2,1.5179598E0,2.3174498E0,5.6769977E0,-2.3482547E0,8.247558E0,7.919574E-1,2.4513838E0,2.1027396E0,4.67015E0,3.8271334E0,6.7976346E0,2.6890209E0,6.1063514E0,-1.2521783E0,3.8297586E0,2.6351342E0,-9.358314E0,3.9843497E0,7.411764E0,1.0227287E1,-1.4765017E-1,-1.3245436E0,3.340675E0,4.4369025E0,9.426267E0,-9.2125267E-1,5.714208E0,6.5749073E0,1.5027179E0,1.0584528E1,9.6252465E-1,1.0735594E1,1.3535019E0,2.270047E0,1.619192E1],"categories":[],"categories_nodes":[],"categories_segments":[],"categories_sizes":[],"default_left":[0,0,0,0,0,0,0,0,0,0,0,0,0,0,0,0,0,0,0,0,0,0,0,0,0,0,0,0,0,0,0,0,0,0,0,0,0,0,0,0,0,0,0,0,0,0,0,0,0,0,0,0,0,0,0,0,0,0,0,0,0,0,0,0,0,0,0,0,0,0,0,0,0,0,0,0,0,0,0,0,0,0,0,0,0,0,0,0,0,0,0,0,0,0,0,0,0,0,0,0,0,0,0,0,0,0,0,0,0,0,0,0,0,0,0,0,0,0,0,0,0,0,0,0,0,0,0],"id":8,"left_children":[1,3,5,7,9,11,13,15,17,19,21,23,25,27,29,31,33,35,37,39,41,43,45,47,49,51,53,55,57,59,61,63,65,67,69,71,73,75,77,79,81,83,85,87,89,91,93,95,97,99,101,103,105,107,109,111,113,115,117,119,121,123,125,-1,-1,-1,-1,-1,-1,-1,-1,-1,-1,-1,-1,-1,-1,-1,-1,-1,-1,-1,-1,-1,-1,-1,-1,-1,-1,-1,-1,-1,-1,-1,-1,-1,-1,-1,-1,-1,-1,-1,-1,-1,-1,-1,-1,-1,-1,-1,-1,-1,-1,-1,-1,-1,-1,-1,-1,-1,-1,-1,-1,-1,-1,-1,-1],"loss_changes":[5.489464E7,2.0762644E7,8.720556E6,9.27612E6,4.702205E6,2.090864E6,1.61236E6,1.219828E6,2.434256E6,1.782164E6,1.9734032E6,1.127054E6,5.90527E5,8.21827E5,1.52283E6,9.20708E5,1.042331E6,9.54566E5,1.780926E6,1.0692745E6,8.6638994E5,1.1841448E6,7.34097E5,1.0935025E6,5.977685E5,7.47997E5,6.150435E5,7.6860075E5,5.98076E5,6.82735E5,5.98917E5,2.3103205E5,8.31044E5,7.4868734E4,8.06331E5,8.814E5,9.75459E5,1.2047015E6,4.70284E5,3.97314E5,8.87144E5,7.827219E5,3.873098E5,3.6265688E5,1.008258E6,4.7933375E5,3.4358738E5,2.4275762E5,8.0481025E5,3.28561E5,3.610785E5,6.17594E5,4.6188256E5,2.5108339E5,5.23675E5,3.17164E5,4.001182E5,3.9749E5,5.492809E5,5.131115E5,4.08127E5,6.2437825E5,4.05521E5,0E0,0E0,0E0,0E0,0E0,0E0,0E0,0E0,0E0,0E0,0E0,0E0,0E0,0E0,0E0,0E0,0E0,0E0,0E0,0E0,0E0,0E0,0E0,0E0,0E0,0E0,0E0,0E0,0E0,0E0,0E0,0E0,0E0,0E0,0E0,0E0,0E0,0E0,0E0,0E0,0E0,0E0,0E0,0E0,0E0,0E0,0E0,0E0,0E0,0E0,0E0,0E0,0E0,0E0,0E0,0E0,0E0,0E0,0E0,0E0,0E0,0E0,0E0,0E0],"parents":[2147483647,0,0,1,1,2,2,3,3,4,4,5,5,6,6,7,7,8,8,9,9,10,10,11,11,12,12,13,13,14,14,15,15,16,16,17,17,18,18,19,19,20,20,21,21,22,22,23,23,24,24,25,25,26,26,27,27,28,28,29,29,30,30,31,31,32,32,33,33,34,34,35,35,36,36,37,37,38,38,39,39,40,40,41,41,42,42,43,43,44,44,45,45,46,46,47,47,48,48,49,49,50,50,51,51,52,52,53,53,54,54,55,55,56,56,57,57,58,58,59,59,60,60,61,61,62,62],"right_children":[2,4,6,8,10,12,14,16,18,20,22,24,26,28,30,32,34,36,38,40,42,44,46,48,50,52,54,56,58,60,62,64,66,68,70,72,74,76,78,80,82,84,86,88,90,92,94,96,98,100,102,104,106,108,110,112,114,116,118,120,122,124,126,-1,-1,-1,-1,-1,-1,-1,-1,-1,-1,-1,-1,-1,-1,-1,-1,-1,-1,-1,-1,-1,-1,-1,-1,-1,-1,-1,-1,-1,-1,-1,-1,-1,-1,-1,-1,-1,-1,-1,-1,-1,-1,-1,-1,-1,-1,-1,-1,-1,-1,-1,-1,-1,-1,-1,-1,-1,-1,-1,-1,-1,-1,-1,-1],"split_conditions":[5.35215E-1,-7.7826595E-1,1.3338267E0,-2.4418192E0,-9.1333285E-2,1.2719338E0,2.7745044E-1,-9.848777E-1,-1.1320404E0,1.0685634E-1,2.8632122E-1,5.681567E-1,-1.8639715E-2,7.443723E-1,2.2606115E0,-3.7931043E-1,-3.4924283E0,7.6306444E-1,2.6229017E0,-7.1140003E-1,4.9536404E-1,-1.2249402E0,8.8520443E-1,-1.8053787E0,3.9086288E-1,-6.1461943E-1,-2.4426095E0,-1.5323005E0,-1.5144691E-1,1.115275E0,3.540563E-1,-4.9070156E-1,-1.7644677E0,-3.9022908E-1,7.4293995E-1,1.1173264E0,-3.893318E-1,-3.1361827E-1,1.4141606E0,1.3677253E0,-7.647331E-1,-4.184133E-1,-1.0002134E0,-1.1555687E0,6.1227584E-1,-3.507499E-1,4.5808798E-1,-1.2610943E0,1.4558367E-1,1.4116266E0,4.353722E-1,7.040921E-1,1.2224874E0,-6.7555374E-1,-5.9472054E-1,1.1415128E0,-7.930471E-1,6.0132396E-1,-7.9538137E-1,1.7106376E0,2.4668455E0,1.0706952E0,-1.2589371E0,3.3344193E0,-7.0840845E0,-1.3329866E0,-2.1804451E1,-1.0859162E0,7.8863997E0,-7.571246E0,-1.3348742E1,-3.7321095E0,-8.461366E0,-1.0250438E1,-5.1352663E0,-3.7020006E0,-1.6651024E0,-3.037467E0,-9.737424E0,-3.0775282E0,-6.1949863E0,-2.9221938E0,-1.070031E0,-2.0528405E0,-2.0539658E-1,-1.4135568E0,2.353569E0,-7.685939E0,-1.8468621E0,-2.8645736E-1,1.5174851E0,-2.6970955E-2,1.5179598E0,2.3174498E0,5.6769977E0,-2.3482547E0,8.247558E0,7.919574E-1,2.4513838E0,2.1027396E0,4.67015E0,3.8271334E0,6.7976346E0,2.6890209E0,6.1063514E0,-1.2521783E0,3.8297586E0,2.6351342E0,-9.358314E0,3.9843497E0,7.411764E0,1.0227287E1,-1.4765017E-1,-1.3245436E0,3.340675E0,4.4369025E0,9.426267E0,-9.2125267E-1,5.714208E0,6.5749073E0,1.5027179E0,1.0584528E1,9.6252465E-1,1.0735594E1,1.3535019E0,2.270047E0,1.619192E1],"split_indices":[660,660,682,682,660,660,761,278,682,680,592,592,740,757,682,740,110,759,345,682,682,360,682,300,0,653,242,399,651,1,614,527,255,43,585,637,374,593,516,71,592,352,250,682,682,593,396,372,593,757,630,715,276,518,429,130,396,638,593,594,499,220,242,0,0,0,0,0,0,0,0,0,0,0,0,0,0,0,0,0,0,0,0,0,0,0,0,0,0,0,0,0,0,0,0,0,0,0,0,0,0,0,0,0,0,0,0,0,0,0,0,0,0,0,0,0,0,0,0,0,0,0,0,0,0,0,0],"split_type":[0,0,0,0,0,0,0,0,0,0,0,0,0,0,0,0,0,0,0,0,0,0,0,0,0,0,0,0,0,0,0,0,0,0,0,0,0,0,0,0,0,0,0,0,0,0,0,0,0,0,0,0,0,0,0,0,0,0,0,0,0,0,0,0,0,0,0,0,0,0,0,0,0,0,0,0,0,0,0,0,0,0,0,0,0,0,0,0,0,0,0,0,0,0,0,0,0,0,0,0,0,0,0,0,0,0,0,0,0,0,0,0,0,0,0,0,0,0,0,0,0,0,0,0,0,0,0],"sum_hessian":[4.0007E4,2.953E4,1.0477E4,7.196E3,2.2334E4,8.179E3,2.298E3,5.52E2,6.644E3,1.047E4,1.1864E4,6.348E3,1.831E3,1.247E3,1.051E3,1.04E2,4.48E2,2E3,4.644E3,5.984E3,4.486E3,7.536E3,4.328E3,4.34E3,2.008E3,1.058E3,7.73E2,5.39E2,7.08E2,7.28E2,3.23E2,1.7E1,8.7E1,9E0,4.39E2,1.387E3,6.13E2,4.429E3,2.15E2,1.337E3,4.647E3,3.87E3,6.16E2,1.005E3,6.531E3,3.824E3,5.04E2,1.04E2,4.236E3,1.22E3,7.88E2,8.03E2,2.55E2,1.3E1,7.6E2,8E1,4.59E2,4.1E2,2.98E2,4.97E2,2.31E2,1.74E2,1.49E2,7E0,1E1,9E0,7.8E1,2E0,7E0,2.47E2,1.92E2,1.226E3,1.61E2,2.4E2,3.73E2,1.725E3,2.704E3,6.2E1,1.53E2,1.163E3,1.74E2,1.291E3,3.356E3,1.186E3,2.684E3,1.16E2,5E2,3.3E1,9.72E2,5.113E3,1.418E3,9.66E2,2.858E3,3.29E2,1.75E2,5E0,9.9E1,2.236E3,2E3,9.97E2,2.23E2,5.57E2,2.31E2,3.85E2,4.18E2,1.57E2,9.8E1,6E0,7E0,3.01E2,4.59E2,6.8E1,1.2E1,7.5E1,3.84E2,9.8E1,3.12E2,5.2E1,2.46E2,4.03E2,9.4E1,2.12E2,1.9E1,1.4E2,3.4E1,1.1E1,1.38E2],"tree_param":{"num_deleted":"0","num_feature":"767","num_nodes":"127","size_leaf_vector":"1"}},{"base_weights":[1.9070489E-4,-2.8671883E1,4.255127E1,-8.3009674E1,-1.7511614E1,2.7755154E1,9.247471E1,-1.839126E2,-6.7658585E1,-3.9416306E1,-8.006099E0,1.2875849E1,4.5663963E1,7.5170334E1,1.3400777E2,-1.5679266E2,-2.861612E2,-9.078901E1,-5.1982193E1,-4.89766E1,-1.2349979E1,-2.2732042E1,5.0391316E0,5.401944E0,3.3952045E1,3.4856762E1,6.8743065E1,9.092957E1,4.7539078E1,1.13068985E2,1.8079483E2,-1.9388187E2,-8.376941E1,-3.5759674E2,-1.03791725E2,-4.734527E1,-1.04829575E2,-6.863309E1,-2.6592972E1,-4.3087364E1,-1.1106409E2,3.1064157E0,-6.548921E1,-4.2949333E1,-1.2054083E1,-6.638508E0,1.8434591E1,-1.5384972E1,1.2479234E1,-1.1388405E2,3.5389168E1,-9.861878E0,4.6875923E1,-2.7423868E1,7.596904E1,9.807101E1,3.6495804E1,3.2477345E1,7.647697E1,8.758298E1,1.6040273E2,2.1877036E2,9.187697E1,-1.2700468E1,-1.4183201E0,-1.0362012E1,-7.90261E-1,-2.2961573E1,1.1048045E0,1.5345575E0,-1.0003261E1,-5.5969415E0,-1.7346113E0,-7.0260663E0,-3.345419E0,-5.1567426E0,-2.0333798E0,-9.675865E-1,-7.2863507E0,-4.1599026E0,-2.085249E0,-7.6779165E0,-1.7304981E0,8.7097096E-1,-2.272394E0,2.641112E-1,-5.1535916E0,-2.1671839E0,-5.586576E0,-9.261439E-2,-1.8943223E0,-1.0318643E0,3.048856E-1,-1.1366058E-2,1.8347021E0,-5.7628794E0,-4.201423E-1,3.469615E-1,2.1547124E0,-8.107075E0,-0E0,1.1789644E0,2.8824375E0,-2.1757508E-2,-4.4900336E0,1.87097E0,4.2360954E0,9.974637E-1,-3.4337745E0,5.214671E0,1.4986341E0,6.208279E0,1.6993678E0,-4.98006E0,2.9254434E0,2.8195014E0,-3.0983627E-1,4.864096E0,-4.288983E0,2.8140132E0,7.0533347E0,6.806766E0,1.4003721E1,7.2118387E0,1.5067135E1,6.282514E0,-1.5927092E0],"categories":[],"categories_nodes":[],"categories_segments":[],"categories_sizes":[],"default_left":[0,0,0,0,0,0,0,0,0,0,0,0,0,0,0,0,0,0,0,0,0,0,0,0,0,0,0,0,0,0,0,0,0,0,0,0,0,0,0,0,0,0,0,0,0,0,0,0,0,0,0,0,0,0,0,0,0,0,0,0,0,0,0,0,0,0,0,0,0,0,0,0,0,0,0,0,0,0,0,0,0,0,0,0,0,0,0,0,0,0,0,0,0,0,0,0,0,0,0,0,0,0,0,0,0,0,0,0,0,0,0,0,0,0,0,0,0,0,0,0,0,0,0,0,0,0,0],"id":9,"left_children":[1,3,5,7,9,11,13,15,17,19,21,23,25,27,29,31,33,35,37,39,41,43,45,47,49,51,53,55,57,59,61,63,65,67,69,71,73,75,77,79,81,83,85,87,89,91,93,95,97,99,101,103,105,107,109,111,113,115,117,119,121,123,125,-1,-1,-1,-1,-1,-1,-1,-1,-1,-1,-1,-1,-1,-1,-1,-1,-1,-1,-1,-1,-1,-1,-1,-1,-1,-1,-1,-1,-1,-1,-1,-1,-1,-1,-1,-1,-1,-1,-1,-1,-1,-1,-1,-1,-1,-1,-1,-1,-1,-1,-1,-1,-1,-1,-1,-1,-1,-1,-1,-1,-1,-1,-1,-1],"loss_changes":[4.8829236E7,1.4488084E7,1.1880362E7,6.206602E6,4.1296885E6,3.309898E6,2.563198E6,1.116838E6,1.247678E6,1.548462E6,2.661828E6,1.0704271E6,1.387543E6,1.103857E6,8.85192E5,1.057658E6,1.0295905E6,8.26918E5,8.86655E5,1.582229E6,1.2980155E6,1.4005265E6,1.1509354E6,7.420985E5,4.1002588E5,2.078021E6,1.261475E6,6.14827E5,4.010565E5,8.05609E5,9.11438E5,8.22078E5,9.979696E5,7.18744E5,3.6045875E5,2.8437562E5,5.90047E5,7.478235E5,8.353908E5,8.6878E5,4.963705E5,5.793904E5,5.1110825E5,7.4187225E5,8.754081E5,4.8748222E5,7.750431E5,8.6094875E5,5.881406E5,4.568767E4,3.4437225E5,5.079679E5,1.1148755E6,1.7980284E5,9.12752E5,5.25822E5,3.3257434E5,3.572705E5,2.6718988E5,5.8060675E5,6.673075E5,4.4862E5,1.8825731E5,0E0,0E0,0E0,0E0,0E0,0E0,0E0,0E0,0E0,0E0,0E0,0E0,0E0,0E0,0E0,0E0,0E0,0E0,0E0,0E0,0E0,0E0,0E0,0E0,0E0,0E0,0E0,0E0,0E0,0E0,0E0,0E0,0E0,0E0,0E0,0E0,0E0,0E0,0E0,0E0,0E0,0E0,0E0,0E0,0E0,0E0,0E0,0E0,0E0,0E0,0E0,0E0,0E0,0E0,0E0,0E0,0E0,0E0,0E0,0E0,0E0,0E0,0E0,0E0],"parents":[2147483647,0,0,1,1,2,2,3,3,4,4,5,5,6,6,7,7,8,8,9,9,10,10,11,11,12,12,13,13,14,14,15,15,16,16,17,17,18,18,19,19,20,20,21,21,22,22,23,23,24,24,25,25,26,26,27,27,28,28,29,29,30,30,31,31,32,32,33,33,34,34,35,35,36,36,37,37,38,38,39,39,40,40,41,41,42,42,43,43,44,44,45,45,46,46,47,47,48,48,49,49,50,50,51,51,52,52,53,53,54,54,55,55,56,56,57,57,58,58,59,59,60,60,61,61,62,62],"right_children":[2,4,6,8,10,12,14,16,18,20,22,24,26,28,30,32,34,36,38,40,42,44,46,48,50,52,54,56,58,60,62,64,66,68,70,72,74,76,78,80,82,84,86,88,90,92,94,96,98,100,102,104,106,108,110,112,114,116,118,120,122,124,126,-1,-1,-1,-1,-1,-1,-1,-1,-1,-1,-1,-1,-1,-1,-1,-1,-1,-1,-1,-1,-1,-1,-1,-1,-1,-1,-1,-1,-1,-1,-1,-1,-1,-1,-1,-1,-1,-1,-1,-1,-1,-1,-1,-1,-1,-1,-1,-1,-1,-1,-1,-1,-1,-1,-1,-1,-1,-1,-1,-1,-1,-1,-1,-1],"split_conditions":[2.1355018E-1,-1.1555687E0,1.0915986E0,-2.4418192E0,-5.1212835E-1,6.6873693E-1,1.7106376E0,1.297597E0,-3.8936684E-1,1.4141606E0,-9.860313E-2,7.3997545E-1,1.4141606E0,1.9710004E-1,1.115275E0,1.7618813E-1,-6.151321E-1,-3.6594775E-1,-7.1140003E-1,1.3662429E0,1.000188E0,-7.073439E-1,-2.8483844E-1,-5.1379174E-1,-2.4426095E0,8.3791256E-2,-1.2249402E0,1.3656211E0,4.4859815E-1,5.059907E-1,-6.147848E-1,9.031904E-1,-4.8864436E-1,3.1083887E0,3.0204728E-1,-9.2373985E-1,5.3525925E-1,2.2050145E-1,1.8304783E0,-1.1773176E0,7.138337E-1,1.224352E0,-6.4683837E-1,1.5406517E0,1.224352E0,2.1355847E-1,-8.306692E-2,-1.1770579E0,6.967543E-1,2.463359E0,1.8906601E-1,1.3670304E0,5.157371E-1,3.3770666E-1,1.224352E0,1.2185531E0,-9.1000307E-1,2.2914033E-1,2.0126235E0,2.648081E-1,2.2606115E0,-3.2396755E-1,1.5209136E0,-1.2700468E1,-1.4183201E0,-1.0362012E1,-7.90261E-1,-2.2961573E1,1.1048045E0,1.5345575E0,-1.0003261E1,-5.5969415E0,-1.7346113E0,-7.0260663E0,-3.345419E0,-5.1567426E0,-2.0333798E0,-9.675865E-1,-7.2863507E0,-4.1599026E0,-2.085249E0,-7.6779165E0,-1.7304981E0,8.7097096E-1,-2.272394E0,2.641112E-1,-5.1535916E0,-2.1671839E0,-5.586576E0,-9.261439E-2,-1.8943223E0,-1.0318643E0,3.048856E-1,-1.1366058E-2,1.8347021E0,-5.7628794E0,-4.201423E-1,3.469615E-1,2.1547124E0,-8.107075E0,-0E0,1.1789644E0,2.8824375E0,-2.1757508E-2,-4.4900336E0,1.87097E0,4.2360954E0,9.974637E-1,-3.4337745E0,5.214671E0,1.4986341E0,6.208279E0,1.6993678E0,-4.98006E0,2.9254434E0,2.8195014E0,-3.0983627E-1,4.864096E0,-4.288983E0,2.8140132E0,7.0533347E0,6.806766E0,1.4003721E1,7.2118387E0,1.5067135E1,6.282514E0,-1.5927092E0],"split_indices":[660,660,682,682,682,660,660,3,592,516,592,473,516,101,1,592,126,161,682,513,73,184,757,593,264,682,514,294,765,614,103,264,352,765,674,34,462,418,455,682,253,426,65,521,184,680,418,66,760,259,352,550,506,367,426,148,242,104,417,757,682,395,65,0,0,0,0,0,0,0,0,0,0,0,0,0,0,0,0,0,0,0,0,0,0,0,0,0,0,0,0,0,0,0,0,0,0,0,0,0,0,0,0,0,0,0,0,0,0,0,0,0,0,0,0,0,0,0,0,0,0,0,0,0,0,0,0],"split_type":[0,0,0,0,0,0,0,0,0,0,0,0,0,0,0,0,0,0,0,0,0,0,0,0,0,0,0,0,0,0,0,0,0,0,0,0,0,0,0,0,0,0,0,0,0,0,0,0,0,0,0,0,0,0,0,0,0,0,0,0,0,0,0,0,0,0,0,0,0,0,0,0,0,0,0,0,0,0,0,0,0,0,0,0,0,0,0,0,0,0,0,0,0,0,0,0,0,0,0,0,0,0,0,0,0,0,0,0,0,0,0,0,0,0,0,0,0,0,0,0,0,0,0,0,0,0,0],"sum_hessian":[4.0007E4,2.3903E4,1.6104E4,4.064E3,1.9839E4,1.2432E4,3.672E3,5.25E2,3.539E3,5.996E3,1.3843E4,6.798E3,5.634E3,2.608E3,1.064E3,4.31E2,9.4E1,1.414E3,2.125E3,4.426E3,1.57E3,6.5E3,7.343E3,5.026E3,1.772E3,3.851E3,1.783E3,1.649E3,9.59E2,7.54E2,3.1E2,2.77E2,1.54E2,6.2E1,3.2E1,3.54E2,1.06E3,1.275E3,8.5E2,4.055E3,3.71E2,1.222E3,3.48E2,2.238E3,4.262E3,3.925E3,3.418E3,1.274E3,3.752E3,1.1E1,1.761E3,8.16E2,3.035E3,1.23E2,1.66E3,1.452E3,1.97E2,6.42E2,3.17E2,5.05E2,2.49E2,2.09E2,1.01E2,2.49E2,2.8E1,6.3E1,9.1E1,5.8E1,4E0,1.2E1,2E1,9.2E1,2.62E2,8.39E2,2.21E2,8.43E2,4.32E2,7.74E2,7.6E1,9.63E2,3.092E3,3.04E2,6.7E1,9.6E2,2.62E2,8E1,2.68E2,1.982E3,2.56E2,2.776E3,1.486E3,2.063E3,1.862E3,1.352E3,2.066E3,1.12E2,1.162E3,2.926E3,8.26E2,8E0,3E0,7.94E2,9.67E2,7.19E2,9.7E1,1.838E3,1.197E3,5.1E1,7.2E1,1.362E3,2.98E2,1.344E3,1.08E2,1.4E1,1.83E2,4.62E2,1.8E2,3.11E2,6E0,2.23E2,2.82E2,1.64E2,8.5E1,6.1E1,1.48E2,9.2E1,9E0],"tree_param":{"num_deleted":"0","num_feature":"767","num_nodes":"127","size_leaf_vector":"1"}},{"base_weights":[-1.0565043E-2,-3.4242695E1,3.1682993E1,-1.2627882E2,-2.7791672E1,1.7577597E1,7.994301E1,-2.1822224E2,-1.04447426E2,-5.227545E1,-1.7442865E1,5.3466353E0,3.5494156E1,6.6602135E1,1.3572075E2,4.3567287E1,-2.3648857E2,-1.1037602E2,1.2366383E1,-3.2081215E1,-6.792258E1,-4.2317616E1,-1.0378398E1,-1.2555277E1,1.4105241E1,1.938596E1,4.947427E1,4.1515045E1,7.661996E1,1.0096503E2,1.6397263E2,-4.838949E1,6.7572904E0,-5.5586037E1,-2.694386E2,-7.377911E1,-1.3102754E2,-7.113063E1,7.701867E1,-5.8630146E1,-1.4938858E1,-1.2752008E2,-6.158499E1,-1.6947443E1,-5.955863E1,-2.1158865E1,1.4119251E0,-3.480625E1,-1.51152E0,6.2768707E0,3.0227758E1,4.571974E0,4.507676E1,4.4315586E1,9.842331E1,1.1921946E1,7.246173E1,9.098143E1,5.9197144E1,1.2260689E2,5.987846E1,1.2846046E2,2.232822E2,-4.4824038E0,9.034827E-1,-5.6414614E0,2.0590055E0,-1.7938602E1,-3.253921E0,-5.2478085E0,1.3170711E0,-4.952985E0,-9.108145E0,-6.521951E0,3.7480786E-1,8.66191E0,-1.5506481E0,-3.816749E0,2.0421252E0,-1.7381986E0,1.1068448E0,-2.3858452E0,-9.177377E0,-5.5198994E0,-3.2151568E0,-1.4429097E0,1.4370524E0,-3.2219932E0,-8.859954E0,-3.4982405E0,-1.0315366E0,-4.6741733E-1,1.2649373E0,-2.0600913E-1,-3.4456823E0,-6.990573E-1,1.2867428E0,-1.3401845E0,8.872541E-1,1.2445703E0,3.8091662E0,-1.0615529E0,9.9189514E-1,2.0770934E0,4.6295433E0,2.177689E0,4.243867E0,3.5453234E0,9.2873535E0,1.513557E0,-7.031868E0,4.0106472E-1,5.0395403E0,5.92319E0,2.7043443E0,5.348871E-1,4.200154E0,3.3355272E0,8.602468E0,-1.7070473E0,5.5639253E0,8.835075E0,8.185639E-1,1.432156E1,7.1858734E-1],"categories":[],"categories_nodes":[],"categories_segments":[],"categories_sizes":[],"default_left":[0,0,0,0,0,0,0,0,0,0,0,0,0,0,0,0,0,0,0,0,0,0,0,0,0,0,0,0,0,0,0,0,0,0,0,0,0,0,0,0,0,0,0,0,0,0,0,0,0,0,0,0,0,0,0,0,0,0,0,0,0,0,0,0,0,0,0,0,0,0,0,0,0,0,0,0,0,0,0,0,0,0,0,0,0,0,0,0,0,0,0,0,0,0,0,0,0,0,0,0,0,0,0,0,0,0,0,0,0,0,0,0,0,0,0,0,0,0,0,0,0,0,0,0,0],"id":10,"left_children":[1,3,5,7,9,11,13,15,17,19,21,23,25,27,29,31,33,35,37,39,41,43,45,47,49,51,53,55,57,59,61,63,-1,65,67,69,71,73,75,77,79,81,83,85,87,89,91,93,95,97,99,101,103,105,107,109,111,113,115,117,119,121,123,-1,-1,-1,-1,-1,-1,-1,-1,-1,-1,-1,-1,-1,-1,-1,-1,-1,-1,-1,-1,-1,-1,-1,-1,-1,-1,-1,-1,-1,-1,-1,-1,-1,-1,-1,-1,-1,-1,-1,-1,-1,-1,-1,-1,-1,-1,-1,-1,-1,-1,-1,-1,-1,-1,-1,-1,-1,-1,-1,-1,-1,-1],"loss_changes":[4.3422492E7,1.1395062E7,1.413513E7,2.34117E6,4.550879E6,3.5246265E6,3.422568E6,1.202361E6,7.26112E5,1.669727E6,2.2205738E6,1.5024305E6,1.4618275E6,9.3073E5,7.48972E5,1.8361883E5,1.189923E6,6.64573E5,3.5155806E5,1.060771E6,1.070097E6,1.214972E6,1.2547388E6,7.7321494E5,8.1010175E5,1.1573591E6,8.45409E5,1.0037195E6,6.34502E5,3.173715E5,7.86078E5,3.4344215E4,0E0,1.781628E5,1.038173E6,5.0432E5,5.20978E5,9.0246234E4,2.7982875E5,4.413015E5,6.7748606E5,5.776215E5,6.23738E5,3.365597E5,7.934775E5,7.51286E5,8.559328E5,7.390535E5,4.9380003E5,1.0594771E6,6.514946E5,5.1917394E5,3.515215E5,6.507765E5,6.485445E5,1.00921425E6,4.031025E5,4.86276E5,6.72679E5,3.1100925E5,4.9154162E5,6.756875E5,5.29453E5,0E0,0E0,0E0,0E0,0E0,0E0,0E0,0E0,0E0,0E0,0E0,0E0,0E0,0E0,0E0,0E0,0E0,0E0,0E0,0E0,0E0,0E0,0E0,0E0,0E0,0E0,0E0,0E0,0E0,0E0,0E0,0E0,0E0,0E0,0E0,0E0,0E0,0E0,0E0,0E0,0E0,0E0,0E0,0E0,0E0,0E0,0E0,0E0,0E0,0E0,0E0,0E0,0E0,0E0,0E0,0E0,0E0,0E0,0E0,0E0,0E0,0E0],"parents":[2147483647,0,0,1,1,2,2,3,3,4,4,5,5,6,6,7,7,8,8,9,9,10,10,11,11,12,12,13,13,14,14,15,15,16,16,17,17,18,18,19,19,20,20,21,21,22,22,23,23,24,24,25,25,26,26,27,27,28,28,29,29,30,30,31,31,33,33,34,34,35,35,36,36,37,37,38,38,39,39,40,40,41,41,42,42,43,43,44,44,45,45,46,46,47,47,48,48,49,49,50,50,51,51,52,52,53,53,54,54,55,55,56,56,57,57,58,58,59,59,60,60,61,61,62,62],"right_children":[2,4,6,8,10,12,14,16,18,20,22,24,26,28,30,32,34,36,38,40,42,44,46,48,50,52,54,56,58,60,62,64,-1,66,68,70,72,74,76,78,80,82,84,86,88,90,92,94,96,98,100,102,104,106,108,110,112,114,116,118,120,122,124,-1,-1,-1,-1,-1,-1,-1,-1,-1,-1,-1,-1,-1,-1,-1,-1,-1,-1,-1,-1,-1,-1,-1,-1,-1,-1,-1,-1,-1,-1,-1,-1,-1,-1,-1,-1,-1,-1,-1,-1,-1,-1,-1,-1,-1,-1,-1,-1,-1,-1,-1,-1,-1,-1,-1,-1,-1,-1,-1,-1,-1,-1],"split_conditions":[-1.1824655E-2,-1.927077E0,1.050532E0,-2.9334753E0,-7.1140003E-1,3.995934E-1,1.8431814E0,-2.1297746E0,1.5210083E0,-6.142531E-1,-7.3765016E-1,-2.681066E-1,-1.7939882E-1,3.818616E-1,3.5079187E-1,-3.469961E-1,-7.0705664E-1,-6.128541E-1,1.4825442E0,-2.2277315E-1,-1.3882263E0,1.3303967E-16,-4.8440194E-1,-7.073439E-1,1.4141606E0,1.000188E0,1.080187E0,1.4141606E0,-5.2608073E-2,-9.383997E-2,4.2725894E-1,8.817475E-1,6.7572904E0,-4.9231113E-3,8.6858344E-1,8.5483754E-1,-4.688954E-1,3.462386E-1,-2.4071935E-1,1.271342E0,1.4141606E0,-5.1417196E-1,-1.6567951E0,6.934642E-1,2.5250072E0,-1.2249402E0,3.99399E-1,1.3303967E-16,3.7304816E-1,-3.4191614E-1,6.0132396E-1,-3.043712E-1,7.592128E-1,8.8635373E-1,6.0311425E-1,1.5586545E0,-1.0660383E0,1.3656211E0,-1.0002134E0,1.3147497E-1,3.6626205E-1,1.0106865E0,6.3143694E-1,-4.4824038E0,9.034827E-1,-5.6414614E0,2.0590055E0,-1.7938602E1,-3.253921E0,-5.2478085E0,1.3170711E0,-4.952985E0,-9.108145E0,-6.521951E0,3.7480786E-1,8.66191E0,-1.5506481E0,-3.816749E0,2.0421252E0,-1.7381986E0,1.1068448E0,-2.3858452E0,-9.177377E0,-5.5198994E0,-3.2151568E0,-1.4429097E0,1.4370524E0,-3.2219932E0,-8.859954E0,-3.4982405E0,-1.0315366E0,-4.6741733E-1,1.2649373E0,-2.0600913E-1,-3.4456823E0,-6.990573E-1,1.2867428E0,-1.3401845E0,8.872541E-1,1.2445703E0,3.8091662E0,-1.0615529E0,9.9189514E-1,2.0770934E0,4.6295433E0,2.177689E0,4.243867E0,3.5453234E0,9.2873535E0,1.513557E0,-7.031868E0,4.0106472E-1,5.0395403E0,5.92319E0,2.7043443E0,5.348871E-1,4.200154E0,3.3355272E0,8.602468E0,-1.7070473E0,5.5639253E0,8.835075E0,8.185639E-1,1.432156E1,7.1858734E-1],"split_indices":[660,660,660,682,682,682,682,110,374,676,592,592,693,682,761,714,469,698,352,593,374,9,693,96,516,359,761,516,123,759,429,512,0,418,262,680,219,372,176,592,516,153,682,440,456,360,593,515,264,682,638,593,592,88,269,594,174,272,206,757,541,220,233,0,0,0,0,0,0,0,0,0,0,0,0,0,0,0,0,0,0,0,0,0,0,0,0,0,0,0,0,0,0,0,0,0,0,0,0,0,0,0,0,0,0,0,0,0,0,0,0,0,0,0,0,0,0,0,0,0,0,0,0,0,0],"split_type":[0,0,0,0,0,0,0,0,0,0,0,0,0,0,0,0,0,0,0,0,0,0,0,0,0,0,0,0,0,0,0,0,0,0,0,0,0,0,0,0,0,0,0,0,0,0,0,0,0,0,0,0,0,0,0,0,0,0,0,0,0,0,0,0,0,0,0,0,0,0,0,0,0,0,0,0,0,0,0,0,0,0,0,0,0,0,0,0,0,0,0,0,0,0,0,0,0,0,0,0,0,0,0,0,0,0,0,0,0,0,0,0,0,0,0,0,0,0,0,0,0,0,0,0,0],"sum_hessian":[4.0007E4,1.9233E4,2.0774E4,1.25E3,1.7983E4,1.6084E4,4.69E3,2.26E2,1.024E3,5.333E3,1.265E4,9.565E3,6.519E3,3.799E3,8.91E2,1.4E1,2.12E2,9.75E2,4.9E1,2.339E3,2.994E3,2.789E3,9.861E3,3.141E3,6.424E3,3.038E3,3.481E3,1.096E3,2.703E3,4.16E2,4.75E2,7E0,7E0,3.6E1,1.76E2,3.65E2,6.1E2,2.1E1,2.8E1,9.1E2,1.429E3,2.73E2,2.721E3,1.135E3,1.654E3,5.148E3,4.713E3,1.036E3,2.105E3,4.332E3,2.092E3,1.933E3,1.105E3,3.163E3,3.18E2,5.66E2,5.3E2,1.463E3,1.24E3,2.62E2,1.54E2,3.13E2,1.62E2,4E0,3E0,2.5E1,1.1E1,1.52E2,2.4E1,3.2E2,4.5E1,1.95E2,4.15E2,1.2E1,9E0,1.5E1,1.3E1,8.66E2,4.4E1,1.007E3,4.22E2,6.6E1,2.07E2,5.49E2,2.172E3,9.7E2,1.65E2,1.563E3,9.1E1,4.86E2,4.662E3,3.214E3,1.499E3,4.38E2,5.98E2,1.463E3,6.42E2,9.9E2,3.342E3,1.638E3,4.54E2,6.74E2,1.259E3,8.46E2,2.59E2,2.441E3,7.22E2,1.97E2,1.21E2,5.19E2,4.7E1,8.1E1,4.49E2,1.244E3,2.19E2,2.22E2,1.018E3,6.9E1,1.93E2,4.2E1,1.12E2,2.67E2,4.6E1,1.5E2,1.2E1],"tree_param":{"num_deleted":"0","num_feature":"767","num_nodes":"125","size_leaf_vector":"1"}},{"base_weights":[-9.060973E-3,-1.856907E1,5.2277126E1,-5.4990982E1,-4.7118397E0,3.6313248E1,9.015977E1,-1.3184184E2,-4.3832607E1,-1.720498E1,7.3486414E0,2.5592117E1,5.6327007E1,7.924445E1,1.39775E2,-5.4244358E1,-1.5134505E2,-7.9383095E1,-3.7082787E1,-3.299339E1,-7.039014E0,1.2919773E-1,3.023415E1,1.4801192E1,4.1152298E1,5.3542778E1,1.7152371E2,6.8183365E1,1.0935084E2,5.7036087E1,1.6537917E2,-9.850492E1,1.4141339E1,-2.5149074E2,-1.2892355E2,-5.941671E1,-1.1484816E2,-4.7179012E1,-1.3708561E1,-1.7533773E1,-4.1193226E1,-1.6605587E1,1.5811532E1,-2.5228043E1,7.102074E0,2.4073797E1,6.453032E1,3.16072E1,-4.756301E0,-2.384771E0,4.757403E1,4.3401653E1,7.481349E1,2.1225836E1,1.9606274E2,5.6570827E1,9.4374664E1,7.264639E1,1.2616261E2,1.5181603E1,1.2094313E2,1.1242408E2,2.0133533E2,-7.26288E0,3.1305745E0,-1.9238209E0,5.890882E0,-1.613994E1,1.506219E-1,-9.8742485E0,-4.9781933E0,2.8931668E-1,-4.063288E0,-7.283619E0,3.9940288E0,-2.2667973E0,-4.627919E0,-2.1022666E0,2.564754E-1,-2.9403286E0,-5.962926E-1,-2.2215073E0,-5.93264E0,-2.1539774E0,-3.407065E-1,1.4464979E0,-1.4639119E0,-9.947534E-1,-5.2178044E0,-3.2480046E-1,1.4023957E0,8.5414386E-1,2.463024E0,2.5272288E0,6.0060387E0,-2.4461699E0,2.2605755E0,-1.0924046E0,1.8313373E0,-1.778373E0,3.406766E0,2.39625E0,4.7967553E0,1.6518612E0,4.3566704E0,2.0365381E0,5.535788E0,-1.1055291E0,2.7089772E0,1.2659419E1,6.121882E-1,5.770446E-1,3.8185465E0,6.517604E0,2.5770097E0,5.9339733E0,5.3392213E-2,4.8060913E0,8.787763E0,-4.445533E0,2.4497206E0,9.820014E0,1.364301E0,2.6908464E0,8.596722E0,4.585959E0,1.3325297E1],"categories":[],"categories_nodes":[],"categories_segments":[],"categories_sizes":[],"default_left":[0,0,0,0,0,0,0,0,0,0,0,0,0,0,0,0,0,0,0,0,0,0,0,0,0,0,0,0,0,0,0,0,0,0,0,0,0,0,0,0,0,0,0,0,0,0,0,0,0,0,0,0,0,0,0,0,0,0,0,0,0,0,0,0,0,0,0,0,0,0,0,0,0,0,0,0,0,0,0,0,0,0,0,0,0,0,0,0,0,0,0,0,0,0,0,0,0,0,0,0,0,0,0,0,0,0,0,0,0,0,0,0,0,0,0,0,0,0,0,0,0,0,0,0,0,0,0],"id":11,"left_children":[1,3,5,7,9,11,13,15,17,19,21,23,25,27,29,31,33,35,37,39,41,43,45,47,49,51,53,55,57,59,61,63,65,67,69,71,73,75,77,79,81,83,85,87,89,91,93,95,97,99,101,103,105,107,109,111,113,115,117,119,121,123,125,-1,-1,-1,-1,-1,-1,-1,-1,-1,-1,-1,-1,-1,-1,-1,-1,-1,-1,-1,-1,-1,-1,-1,-1,-1,-1,-1,-1,-1,-1,-1,-1,-1,-1,-1,-1,-1,-1,-1,-1,-1,-1,-1,-1,-1,-1,-1,-1,-1,-1,-1,-1,-1,-1,-1,-1,-1,-1,-1,-1,-1,-1,-1,-1],"loss_changes":[3.8839436E7,1.4905658E7,6.314024E6,6.933192E6,3.226373E6,1.573732E6,1.590774E6,1.489068E6,1.684378E6,1.6859672E6,1.8002265E6,8.0534275E5,7.500115E5,7.92635E5,1.086461E6,6.744327E5,1.573218E6,7.43993E5,1.4102345E6,5.158255E5,1.4029022E6,1.4674752E6,5.3919475E5,9.4235725E5,5.5247175E5,5.17451E5,1.7584625E5,5.32894E5,3.42204E5,3.6445156E5,6.07538E5,5.0604462E5,3.866407E5,6.33779E5,1.010002E6,3.9717375E5,5.375265E5,1.154597E6,6.998266E5,3.4027334E5,6.15356E5,9.513181E5,6.369019E5,9.436971E5,1.3268028E6,3.6716212E5,2.7882875E5,6.8917E5,6.3548594E5,4.341921E5,3.9881025E5,7.840985E5,5.470055E5,2.2915217E4,1.1484475E5,4.37342E5,3.796735E5,4.33963E5,3.27652E5,2.4154755E5,2.0005812E5,3.3547325E5,4.77037E5,0E0,0E0,0E0,0E0,0E0,0E0,0E0,0E0,0E0,0E0,0E0,0E0,0E0,0E0,0E0,0E0,0E0,0E0,0E0,0E0,0E0,0E0,0E0,0E0,0E0,0E0,0E0,0E0,0E0,0E0,0E0,0E0,0E0,0E0,0E0,0E0,0E0,0E0,0E0,0E0,0E0,0E0,0E0,0E0,0E0,0E0,0E0,0E0,0E0,0E0,0E0,0E0,0E0,0E0,0E0,0E0,0E0,0E0,0E0,0E0,0E0,0E0,0E0,0E0],"parents":[2147483647,0,0,1,1,2,2,3,3,4,4,5,5,6,6,7,7,8,8,9,9,10,10,11,11,12,12,13,13,14,14,15,15,16,16,17,17,18,18,19,19,20,20,21,21,22,22,23,23,24,24,25,25,26,26,27,27,28,28,29,29,30,30,31,31,32,32,33,33,34,34,35,35,36,36,37,37,38,38,39,39,40,40,41,41,42,42,43,43,44,44,45,45,46,46,47,47,48,48,49,49,50,50,51,51,52,52,53,53,54,54,55,55,56,56,57,57,58,58,59,59,60,60,61,61,62,62],"right_children":[2,4,6,8,10,12,14,16,18,20,22,24,26,28,30,32,34,36,38,40,42,44,46,48,50,52,54,56,58,60,62,64,66,68,70,72,74,76,78,80,82,84,86,88,90,92,94,96,98,100,102,104,106,108,110,112,114,116,118,120,122,124,126,-1,-1,-1,-1,-1,-1,-1,-1,-1,-1,-1,-1,-1,-1,-1,-1,-1,-1,-1,-1,-1,-1,-1,-1,-1,-1,-1,-1,-1,-1,-1,-1,-1,-1,-1,-1,-1,-1,-1,-1,-1,-1,-1,-1,-1,-1,-1,-1,-1,-1,-1,-1,-1,-1,-1,-1,-1,-1,-1,-1,-1,-1,-1,-1],"split_conditions":[5.35215E-1,-6.967073E-1,1.1153258E0,-1.9257618E0,-2.1267995E-2,5.158968E-1,2.2606115E0,-9.1909766E-1,-1.2249402E0,-2.1318927E-1,5.465765E-1,2.9532984E-1,2.2606115E0,9.371566E-1,7.718015E-1,3.5394028E-1,-9.514487E-1,5.631915E-1,2.7639344E-1,-3.1375605E-1,1.4141606E0,-1.0002134E0,9.374163E-1,1.3303967E-16,-8.913485E-1,2.4601771E-1,-7.3712194E-1,5.465765E-1,-1.8007013E-1,3.913147E-1,8.377412E-1,8.5510266E-1,3.5410053E-1,1.0201708E0,-1.8877265E-1,-1.0870495E0,2.2602468E0,7.6306444E-1,-4.4951472E-1,-1.2249402E0,9.029252E-1,-5.5799687E-1,1.224352E0,1.4236698E0,1.3731825E-1,3.5355365E-1,4.478213E-1,-1.2249402E0,2.681768E-1,3.7320003E-1,8.3909833E-1,1.0853007E0,-3.2218403E-1,-1.009283E0,7.981802E-1,-1.0432432E0,9.996252E-1,1.3486738E0,-1.5462136E-1,-9.4656813E-1,6.2296015E-1,-1.3816683E-1,-4.6927696E-1,-7.26288E0,3.1305745E0,-1.9238209E0,5.890882E0,-1.613994E1,1.506219E-1,-9.8742485E0,-4.9781933E0,2.8931668E-1,-4.063288E0,-7.283619E0,3.9940288E0,-2.2667973E0,-4.627919E0,-2.1022666E0,2.564754E-1,-2.9403286E0,-5.962926E-1,-2.2215073E0,-5.93264E0,-2.1539774E0,-3.407065E-1,1.4464979E0,-1.4639119E0,-9.947534E-1,-5.2178044E0,-3.2480046E-1,1.4023957E0,8.5414386E-1,2.463024E0,2.5272288E0,6.0060387E0,-2.4461699E0,2.2605755E0,-1.0924046E0,1.8313373E0,-1.778373E0,3.406766E0,2.39625E0,4.7967553E0,1.6518612E0,4.3566704E0,2.0365381E0,5.535788E0,-1.1055291E0,2.7089772E0,1.2659419E1,6.121882E-1,5.770446E-1,3.8185465E0,6.517604E0,2.5770097E0,5.9339733E0,5.3392213E-2,4.8060913E0,8.787763E0,-4.445533E0,2.4497206E0,9.820014E0,1.364301E0,2.6908464E0,8.596722E0,4.585959E0,1.3325297E1],"split_indices":[660,660,682,682,682,592,682,3,360,680,592,440,660,484,638,306,255,654,418,65,516,250,682,515,0,761,22,240,681,637,740,416,702,56,352,744,440,759,693,360,594,682,426,521,418,440,396,448,506,64,175,757,176,3,256,484,316,605,109,86,724,614,484,0,0,0,0,0,0,0,0,0,0,0,0,0,0,0,0,0,0,0,0,0,0,0,0,0,0,0,0,0,0,0,0,0,0,0,0,0,0,0,0,0,0,0,0,0,0,0,0,0,0,0,0,0,0,0,0,0,0,0,0,0,0,0,0],"split_type":[0,0,0,0,0,0,0,0,0,0,0,0,0,0,0,0,0,0,0,0,0,0,0,0,0,0,0,0,0,0,0,0,0,0,0,0,0,0,0,0,0,0,0,0,0,0,0,0,0,0,0,0,0,0,0,0,0,0,0,0,0,0,0,0,0,0,0,0,0,0,0,0,0,0,0,0,0,0,0,0,0,0,0,0,0,0,0,0,0,0,0,0,0,0,0,0,0,0,0,0,0,0,0,0,0,0,0,0,0,0,0,0,0,0,0,0,0,0,0,0,0,0,0,0,0,0,0],"sum_hessian":[4.0007E4,2.953E4,1.0477E4,8.132E3,2.1398E4,7.382E3,3.095E3,1.02E3,7.112E3,1.0509E4,1.0889E4,4.819E3,2.563E3,2.554E3,5.41E2,2.11E2,8.09E2,1.121E3,5.991E3,4.109E3,6.4E3,8.284E3,2.605E3,2.855E3,1.964E3,2.514E3,4.9E1,1.887E3,6.67E2,1.34E2,4.07E2,1.26E2,8.5E1,1.33E2,6.76E2,7.31E2,3.9E2,4.178E3,1.813E3,1.433E3,2.676E3,4.513E3,1.887E3,1.782E3,6.502E3,2.22E3,3.85E2,1.533E3,1.322E3,2.53E2,1.711E3,1.719E3,7.95E2,9E0,4E1,1.325E3,5.62E2,2.23E2,4.44E2,8.7E1,4.7E1,1.78E2,2.29E2,1.11E2,1.5E1,5.8E1,2.7E1,1.24E2,9E0,3.69E2,3.07E2,8.4E1,6.47E2,3.79E2,1.1E1,3.194E3,9.84E2,8.26E2,9.87E2,2.7E2,1.163E3,2.508E3,1.68E2,1.625E3,2.888E3,1.567E3,3.2E2,1.572E3,2.1E2,3.678E3,2.824E3,1.415E3,8.05E2,2.47E2,1.38E2,1.15E2,1.418E3,9.6E2,3.62E2,1.76E2,7.7E1,1.399E3,3.12E2,1.124E3,5.95E2,2.45E2,5.5E2,4E0,5E0,3.6E1,4E0,1.76E2,1.149E3,4.33E2,1.29E2,1.61E2,6.2E1,1.48E2,2.96E2,1.6E1,7.1E1,2.9E1,1.8E1,6.2E1,1.16E2,3.8E1,1.91E2],"tree_param":{"num_deleted":"0","num_feature":"767","num_nodes":"127","size_leaf_vector":"1"}},{"base_weights":[2.3392176E-3,-3.0334381E1,2.846612E1,-1.1368146E2,-2.4535534E1,1.6590235E1,7.454422E1,-1.9746658E2,-9.379757E1,-4.6535656E1,-1.5299254E1,4.9759912E0,3.304043E1,6.2056133E1,1.2218335E2,4.8703915E1,-2.1492575E2,-8.512493E1,-1.8121988E2,-2.808252E1,-6.0813892E1,-3.682244E1,-8.305626E0,-6.439867E0,1.7478008E1,1.8147655E1,4.570382E1,4.3492218E1,7.611781E1,9.6842064E1,1.5608212E2,9.956381E1,-5.9638535E1,-4.790481E1,-2.4549377E2,-1.12301926E2,-5.4227757E1,-1.9492902E2,1.53339405E1,-5.2607014E1,-1.221554E1,-1.1662447E2,-5.490871E1,-1.3121875E1,-5.3195698E1,-1.8907223E1,4.392182E0,-1.6187456E1,1.0356077E1,-4.5853153E1,1.9636002E1,4.574513E0,4.108726E1,1.1657819E2,4.2352066E1,2.7425276E1,7.4495705E1,4.242539E1,8.618116E1,6.2112175E1,1.22536026E2,1.2297068E2,2.427316E2,6.6282163E0,1.1774467E-1,-4.366018E0,5.318281E-1,-5.593584E0,1.5410972E0,-1.8375053E1,-8.019876E0,-5.348505E0,-1.0690449E1,-5.039645E0,-1.291854E0,1.23307325E-1,-1.2326425E1,1.503457E0,-4.2775542E-1,-7.537121E0,-2.7473876E0,-1.5006733E0,1.0879967E0,-2.7688196E0,-8.716777E0,-3.7543075E0,-1.622597E0,-1.2097431E0,2.5104814E0,-3.5838373E0,1.1842315E0,-1.562287E0,-6.750705E-2,4.9488974E-1,-2.8650005E0,-6.0366416E-1,-2.9802885E0,-1.0450048E0,1.3774059E0,-5.1269164E0,5.1999074E-1,6.65301E-1,2.150767E0,-9.2573565E-1,9.2672324E-1,5.183833E0,2.0562146E0,4.155246E0,1.2461301E1,2.171761E0,4.55656E0,1.9160156E0,-4.049681E0,5.07618E0,-2.6899376E0,-4.502649E0,2.9198084E0,4.4858794E0,7.040822E0,-2.59427E-1,5.6231484E0,8.937869E0,3.1589754E0,8.82913E0,2.936896E0,1.6467285E1,-4.5753825E-1],"categories":[],"categories_nodes":[],"categories_segments":[],"categories_sizes":[],"default_left":[0,0,0,0,0,0,0,0,0,0,0,0,0,0,0,0,0,0,0,0,0,0,0,0,0,0,0,0,0,0,0,0,0,0,0,0,0,0,0,0,0,0,0,0,0,0,0,0,0,0,0,0,0,0,0,0,0,0,0,0,0,0,0,0,0,0,0,0,0,0,0,0,0,0,0,0,0,0,0,0,0,0,0,0,0,0,0,0,0,0,0,0,0,0,0,0,0,0,0,0,0,0,0,0,0,0,0,0,0,0,0,0,0,0,0,0,0,0,0,0,0,0,0,0,0,0,0],"id":12,"left_children":[1,3,5,7,9,11,13,15,17,19,21,23,25,27,29,31,33,35,37,39,41,43,45,47,49,51,53,55,57,59,61,63,65,67,69,71,73,75,77,79,81,83,85,87,89,91,93,95,97,99,101,103,105,107,109,111,113,115,117,119,121,123,125,-1,-1,-1,-1,-1,-1,-1,-1,-1,-1,-1,-1,-1,-1,-1,-1,-1,-1,-1,-1,-1,-1,-1,-1,-1,-1,-1,-1,-1,-1,-1,-1,-1,-1,-1,-1,-1,-1,-1,-1,-1,-1,-1,-1,-1,-1,-1,-1,-1,-1,-1,-1,-1,-1,-1,-1,-1,-1,-1,-1,-1,-1,-1,-1],"loss_changes":[3.455976E7,9.340778E6,1.1289159E7,1.946164E6,3.67678E6,3.137172E6,2.454346E6,1.090289E6,6.57701E5,1.396819E6,1.920588E6,1.3766459E6,1.274912E6,8.51838E5,6.25176E5,1.6892862E5,1.02766E6,7.515155E5,2.565445E5,9.0937875E5,9.40582E5,1.2090855E6,1.3003298E6,8.271738E5,6.3615575E5,9.750123E5,8.310515E5,7.1539875E5,6.16013E5,4.01318E5,7.89384E5,1.6864297E4,1.6271391E4,1.6624286E5,9.20495E5,6.34408E5,4.3465312E5,1.721115E5,4.358303E3,4.115415E5,5.6208675E5,5.1290025E5,5.708875E5,5.058309E5,8.90885E5,6.669901E5,8.87413E5,6.51113E5,6.53096E5,3.387528E5,6.141405E5,4.3246725E5,3.3555362E5,5.77734E5,7.043E5,4.368638E5,6.2996625E5,3.617677E5,4.47972E5,5.013508E5,4.718755E5,4.3542975E5,7.40811E5,0E0,0E0,0E0,0E0,0E0,0E0,0E0,0E0,0E0,0E0,0E0,0E0,0E0,0E0,0E0,0E0,0E0,0E0,0E0,0E0,0E0,0E0,0E0,0E0,0E0,0E0,0E0,0E0,0E0,0E0,0E0,0E0,0E0,0E0,0E0,0E0,0E0,0E0,0E0,0E0,0E0,0E0,0E0,0E0,0E0,0E0,0E0,0E0,0E0,0E0,0E0,0E0,0E0,0E0,0E0,0E0,0E0,0E0,0E0,0E0,0E0,0E0,0E0,0E0],"parents":[2147483647,0,0,1,1,2,2,3,3,4,4,5,5,6,6,7,7,8,8,9,9,10,10,11,11,12,12,13,13,14,14,15,15,16,16,17,17,18,18,19,19,20,20,21,21,22,22,23,23,24,24,25,25,26,26,27,27,28,28,29,29,30,30,31,31,32,32,33,33,34,34,35,35,36,36,37,37,38,38,39,39,40,40,41,41,42,42,43,43,44,44,45,45,46,46,47,47,48,48,49,49,50,50,51,51,52,52,53,53,54,54,55,55,56,56,57,57,58,58,59,59,60,60,61,61,62,62],"right_children":[2,4,6,8,10,12,14,16,18,20,22,24,26,28,30,32,34,36,38,40,42,44,46,48,50,52,54,56,58,60,62,64,66,68,70,72,74,76,78,80,82,84,86,88,90,92,94,96,98,100,102,104,106,108,110,112,114,116,118,120,122,124,126,-1,-1,-1,-1,-1,-1,-1,-1,-1,-1,-1,-1,-1,-1,-1,-1,-1,-1,-1,-1,-1,-1,-1,-1,-1,-1,-1,-1,-1,-1,-1,-1,-1,-1,-1,-1,-1,-1,-1,-1,-1,-1,-1,-1,-1,-1,-1,-1,-1,-1,-1,-1,-1,-1,-1,-1,-1,-1,-1,-1,-1,-1,-1,-1],"split_conditions":[-5.7795914E-3,-1.927077E0,1.1153258E0,-2.9334753E0,-7.1140003E-1,3.995934E-1,1.8431814E0,-2.1297746E0,2.5818858E0,-6.142531E-1,-6.4761543E-1,9.187285E-2,-1.7939882E-1,6.102556E-2,4.3802354E-1,6.1834045E-2,-7.0705664E-1,-1.4637288E0,8.093622E-1,-2.2277315E-1,-1.3882263E0,1.3303967E-16,5.4621328E-2,2.5205293E-1,-1.6572372E0,1.000188E0,-1.6870799E0,5.681567E-1,-4.5897055E-1,1.5258247E-1,2.6370907E0,4.584601E-1,-4.266852E-1,-3.5247892E-2,1.7618813E-1,7.0645946E-1,-4.9233273E-2,7.2173244E-1,3.8430995E-1,-1.7155936E0,1.4141606E0,-7.1152157E-1,5.9006286E-1,7.449137E-1,1.3662429E0,3.8222218E-1,2.0447824E0,1.2235262E0,-3.507499E-1,2.6398307E-1,1.4141606E0,-3.043712E-1,-5.8515924E-1,-2.830986E-1,1.1639626E0,1.7713369E0,1.9210767E0,-1.3590066E0,7.1236086E-1,-2.5021678E-1,6.021074E-1,5.9273493E-1,1.5591775E0,6.6282163E0,1.1774467E-1,-4.366018E0,5.318281E-1,-5.593584E0,1.5410972E0,-1.8375053E1,-8.019876E0,-5.348505E0,-1.0690449E1,-5.039645E0,-1.291854E0,1.23307325E-1,-1.2326425E1,1.503457E0,-4.2775542E-1,-7.537121E0,-2.7473876E0,-1.5006733E0,1.0879967E0,-2.7688196E0,-8.716777E0,-3.7543075E0,-1.622597E0,-1.2097431E0,2.5104814E0,-3.5838373E0,1.1842315E0,-1.562287E0,-6.750705E-2,4.9488974E-1,-2.8650005E0,-6.0366416E-1,-2.9802885E0,-1.0450048E0,1.3774059E0,-5.1269164E0,5.1999074E-1,6.65301E-1,2.150767E0,-9.2573565E-1,9.2672324E-1,5.183833E0,2.0562146E0,4.155246E0,1.2461301E1,2.171761E0,4.55656E0,1.9160156E0,-4.049681E0,5.07618E0,-2.6899376E0,-4.502649E0,2.9198084E0,4.4858794E0,7.040822E0,-2.59427E-1,5.6231484E0,8.937869E0,3.1589754E0,8.82913E0,2.936896E0,1.6467285E1,-4.5753825E-1],"split_indices":[660,660,660,682,682,682,682,110,346,676,593,680,693,418,592,284,469,682,504,593,374,9,418,264,352,359,322,592,681,12,660,64,0,396,328,637,197,565,256,198,516,88,592,417,161,680,323,125,593,695,516,593,652,675,374,220,572,506,760,439,153,322,765,0,0,0,0,0,0,0,0,0,0,0,0,0,0,0,0,0,0,0,0,0,0,0,0,0,0,0,0,0,0,0,0,0,0,0,0,0,0,0,0,0,0,0,0,0,0,0,0,0,0,0,0,0,0,0,0,0,0,0,0,0,0,0,0],"split_type":[0,0,0,0,0,0,0,0,0,0,0,0,0,0,0,0,0,0,0,0,0,0,0,0,0,0,0,0,0,0,0,0,0,0,0,0,0,0,0,0,0,0,0,0,0,0,0,0,0,0,0,0,0,0,0,0,0,0,0,0,0,0,0,0,0,0,0,0,0,0,0,0,0,0,0,0,0,0,0,0,0,0,0,0,0,0,0,0,0,0,0,0,0,0,0,0,0,0,0,0,0,0,0,0,0,0,0,0,0,0,0,0,0,0,0,0,0,0,0,0,0,0,0,0,0,0,0],"sum_hessian":[4.0007E4,1.9366E4,2.0641E4,1.25E3,1.8116E4,1.642E4,4.221E3,2.26E2,1.024E3,5.347E3,1.2769E4,9.631E3,6.789E3,3.359E3,8.62E2,1.4E1,2.12E2,9.46E2,7.8E1,2.343E3,3.004E3,3.123E3,9.646E3,5.036E3,4.595E3,3.129E3,3.66E3,1.462E3,1.897E3,5.11E2,3.51E2,1E1,4E0,3.6E1,1.76E2,4.92E2,4.54E2,7.3E1,5E0,9.13E2,1.43E3,2.73E2,2.731E3,1.282E3,1.841E3,5.255E3,4.391E3,3.187E3,1.849E3,1.46E2,4.449E3,1.972E3,1.157E3,1.53E2,3.507E3,9.73E2,4.89E2,4.46E2,1.451E3,2.29E2,2.82E2,2.68E2,8.3E1,8E0,2E0,3E0,1E0,2.1E1,1.5E1,1.05E2,7.1E1,3.78E2,1.14E2,2.31E2,2.23E2,4E0,6.9E1,3E0,2E0,6.6E1,8.47E2,1.007E3,4.23E2,8.5E1,1.88E2,2.134E3,5.97E2,1.141E3,1.41E2,1.691E3,1.5E2,3.748E3,1.507E3,4.095E3,2.96E2,2.703E3,4.84E2,5.76E2,1.273E3,8.2E1,6.4E1,2.922E3,1.527E3,6.93E2,1.279E3,1.39E2,1.018E3,1.1E2,4.3E1,2.978E3,5.29E2,9.34E2,3.9E1,4.53E2,3.6E1,1.8E1,4.28E2,1.082E3,3.69E2,7.6E1,1.53E2,1.98E2,8.4E1,1.96E2,7.2E1,7.3E1,1E1],"tree_param":{"num_deleted":"0","num_feature":"767","num_nodes":"127","size_leaf_vector":"1"}},{"base_weights":[-1.0062508E-4,-1.8586239E1,4.158752E1,-6.6855286E1,-1.025021E1,2.79247E1,7.738844E1,-1.4926126E2,-5.432012E1,-2.3410404E1,1.7738538E0,1.8333698E1,4.7853214E1,5.9029087E1,1.0271979E2,-2.371826E2,-1.2456242E2,-4.3153076E1,-8.28892E1,-3.6011036E1,-1.1791694E1,-8.097602E0,1.2978807E1,7.750224E0,3.4092194E1,3.6926624E1,6.938509E1,1.02197044E2,4.772878E1,9.014472E1,1.7996454E2,-3.178112E2,-1.0544561E2,-1.3919298E2,2.2623777E1,-3.675655E1,-1.1985364E2,-1.3756793E2,-6.1842484E1,-6.91403E1,-2.9941942E1,-4.374275E1,-7.2239223E0,-1.7988806E1,6.9784904E0,-7.6407714E0,1.970644E1,-3.5448225E0,3.495091E1,1.4959041E1,4.530302E1,2.9337242E1,6.901388E1,7.194246E1,-9.742571E1,5.6875942E1,1.27685715E2,2.2114885E1,6.59507E1,6.1081753E1,1.1196336E2,2.1287315E2,5.300254E1,-3.066242E0,-2.2347086E1,-1.0339107E1,1.0096809E0,-5.6694756E0,-1.133302E1,6.307446E0,-2.3756933E0,-3.364213E0,-9.6837085E-1,-8.589322E0,-3.272966E0,-9.027123E0,-1.0358723E0,-4.044007E0,4.5437913E0,-3.2243338E0,-6.5026307E0,-3.164783E0,-1.1676685E0,-1.5632591E0,-5.009795E0,-8.96951E-1,5.9248143E-1,-2.1436198E0,-3.9147893E-1,2.1488668E-1,3.4812014E0,-1.0631216E0,1.3515079E0,7.0095855E-1,2.206408E0,-3.2956772E0,2.0034261E-1,3.659362E0,1.2161347E-1,1.4528251E0,-1.5894397E0,1.628634E0,3.497197E0,-3.7109065E-1,2.211428E0,4.749854E0,-1.0412711E0,3.986662E0,9.67E0,-4.7233753E-2,-7.453783E0,8.151361E-1,5.2864795E0,-4.860391E-1,8.012209E0,3.6943712E0,4.7249338E-1,5.817804E-1,4.4467974E0,4.5190506E0,-6.984358E-2,5.7383423E0,1.1186683E1,1.6215678E0,1.4807166E1,6.3053617E0,-1.3392074E0],"categories":[],"categories_nodes":[],"categories_segments":[],"categories_sizes":[],"default_left":[0,0,0,0,0,0,0,0,0,0,0,0,0,0,0,0,0,0,0,0,0,0,0,0,0,0,0,0,0,0,0,0,0,0,0,0,0,0,0,0,0,0,0,0,0,0,0,0,0,0,0,0,0,0,0,0,0,0,0,0,0,0,0,0,0,0,0,0,0,0,0,0,0,0,0,0,0,0,0,0,0,0,0,0,0,0,0,0,0,0,0,0,0,0,0,0,0,0,0,0,0,0,0,0,0,0,0,0,0,0,0,0,0,0,0,0,0,0,0,0,0,0,0,0,0,0,0],"id":13,"left_children":[1,3,5,7,9,11,13,15,17,19,21,23,25,27,29,31,33,35,37,39,41,43,45,47,49,51,53,55,57,59,61,63,65,67,69,71,73,75,77,79,81,83,85,87,89,91,93,95,97,99,101,103,105,107,109,111,113,115,117,119,121,123,125,-1,-1,-1,-1,-1,-1,-1,-1,-1,-1,-1,-1,-1,-1,-1,-1,-1,-1,-1,-1,-1,-1,-1,-1,-1,-1,-1,-1,-1,-1,-1,-1,-1,-1,-1,-1,-1,-1,-1,-1,-1,-1,-1,-1,-1,-1,-1,-1,-1,-1,-1,-1,-1,-1,-1,-1,-1,-1,-1,-1,-1,-1,-1,-1],"loss_changes":[3.0935792E7,1.112415E7,6.028952E6,4.14038E6,3.734406E6,1.7052155E6,1.536562E6,9.19278E5,1.102362E6,1.645887E6,1.3655615E6,1.00869525E6,6.626665E5,9.338995E5,1.250138E6,8.769405E5,9.58204E5,1.2233885E6,1.067941E6,1.068893E6,8.544989E5,9.798877E5,8.033493E5,1.1185548E6,5.16152E5,4.5696175E5,4.693175E5,4.11135E5,7.3326625E5,7.30092E5,7.06433E5,7.63708E5,4.5734525E5,7.33198E5,2.6974744E5,9.4049125E5,2.3174925E5,3.93783E5,5.97404E5,4.5416825E5,1.0858482E6,4.9748175E5,6.813441E5,8.044236E5,4.4988512E5,4.372946E5,5.936636E5,9.132477E5,9.142826E5,3.545842E5,3.4764525E5,4.2589975E5,3.3216112E5,3.83643E5,4.521792E4,2.0759497E5,2.11084E5,3.756055E5,4.204115E5,4.8755012E5,7.04607E5,8.84364E5,2.1534461E5,0E0,0E0,0E0,0E0,0E0,0E0,0E0,0E0,