{"learner":{"attributes":{"best_iteration":"152","best_score":"117.52170045323162","scikit_learn":"{\"_estimator_type\": \"regressor\"}"},"feature_names":[],"feature_types":[],"gradient_booster":{"model":{"gbtree_model_param":{"num_parallel_tree":"1","num_trees":"178"},"iteration_indptr":[0,1,2,3,4,5,6,7,8,9,10,11,12,13,14,15,16,17,18,19,20,21,22,23,24,25,26,27,28,29,30,31,32,33,34,35,36,37,38,39,40,41,42,43,44,45,46,47,48,49,50,51,52,53,54,55,56,57,58,59,60,61,62,63,64,65,66,67,68,69,70,71,72,73,74,75,76,77,78,79,80,81,82,83,84,85,86,87,88,89,90,91,92,93,94,95,96,97,98,99,100,101,102,103,104,105,106,107,108,109,110,111,112,113,114,115,116,117,118,119,120,121,122,123,124,125,126,127,128,129,130,131,132,133,134,135,136,137,138,139,140,141,142,143,144,145,146,147,148,149,150,151,152,153,154,155,156,157,158,159,160,161,162,163,164,165,166,167,168,169,170,171,172,173,174,175,176,177,178],"tree_info":[0,0,0,0,0,0,0,0,0,0,0,0,0,0,0,0,0,0,0,0,0,0,0,0,0,0,0,0,0,0,0,0,0,0,0,0,0,0,0,0,0,0,0,0,0,0,0,0,0,0,0,0,0,0,0,0,0,0,0,0,0,0,0,0,0,0,0,0,0,0,0,0,0,0,0,0,0,0,0,0,0,0,0,0,0,0,0,0,0,0,0,0,0,0,0,0,0,0,0,0,0,0,0,0,0,0,0,0,0,0,0,0,0,0,0,0,0,0,0,0,0,0,0,0,0,0,0,0,0,0,0,0,0,0,0,0,0,0,0,0,0,0,0,0,0,0,0,0,0,0,0,0,0,0,0,0,0,0,0,0,0,0,0,0,0,0,0,0,0,0,0,0,0,0,0,0,0,0],"trees":[{"base_weights":[-3.071369E-1,-9.883884E1,6.4628334E1,-2.5375554E2,-6.7769035E1,3.4341053E1,1.9721126E2,-4.6391464E2,-2.0847873E2,-9.996445E1,-3.7984844E1,2.2585812E0,7.370656E1,1.6188455E2,3.2646396E2,-5.79347E1,-4.006068E1,-2.6910887E1,-1.767626E1,-1.2733104E1,-5.9792743E0,-5.3510623E0,-5.8017213E-2,-4.0377803E0,1.9907353E0,4.394176E0,1.0162436E1,1.03285055E1,1.9438442E1,2.9081125E1,4.805078E1],"categories":[],"categories_nodes":[],"categories_segments":[],"categories_sizes":[],"default_left":[0,0,0,0,0,0,0,0,0,0,0,0,0,0,0,0,0,0,0,0,0,0,0,0,0,0,0,0,0,0,0],"id":0,"left_children":[1,3,5,7,9,11,13,15,17,19,21,23,25,27,29,-1,-1,-1,-1,-1,-1,-1,-1,-1,-1,-1,-1,-1,-1,-1,-1],"loss_changes":[1.9229794E8,5.739632E7,7.271905E7,1.8577072E7,9.52598E6,1.863025E7,1.5167032E7,1.62916E6,2.976744E6,5.223364E6,3.0051775E6,6.122376E6,5.486436E6,4.972208E6,3.389704E6,0E0,0E0,0E0,0E0,0E0,0E0,0E0,0E0,0E0,0E0,0E0,0E0,0E0,0E0,0E0,0E0],"parents":[2147483647,0,0,1,1,2,2,3,3,4,4,5,5,6,6,7,7,8,8,9,9,10,10,11,11,12,12,13,13,14,14],"right_children":[2,4,6,8,10,12,14,16,18,20,22,24,26,28,30,-1,-1,-1,-1,-1,-1,-1,-1,-1,-1,-1,-1,-1,-1,-1,-1],"split_conditions":[-1.7908067E-1,-1.4265246E0,1.0706952E0,-2.672731E0,-6.2091196E-1,1.8917651E-1,2.010609E0,-3.4953513E0,-9.450302E-1,-4.878575E-2,2.5203636E-1,-4.0153713E-17,3.7257296E-1,2.2955799E-1,3.1074066E0,-5.79347E1,-4.006068E1,-2.6910887E1,-1.767626E1,-1.2733104E1,-5.9792743E0,-5.3510623E0,-5.8017213E-2,-4.0377803E0,1.9907353E0,4.394176E0,1.0162436E1,1.03285055E1,1.9438442E1,2.9081125E1,4.805078E1],"split_indices":[682,682,682,682,682,616,682,682,616,616,616,515,682,616,682,0,0,0,0,0,0,0,0,0,0,0,0,0,0,0,0],"split_type":[0,0,0,0,0,0,0,0,0,0,0,0,0,0,0,0,0,0,0,0,0,0,0,0,0,0,0,0,0,0,0],"sum_hessian":[3.0047E4,1.1935E4,1.8112E4,1.989E3,9.946E3,1.4748E4,3.364E3,3.46E2,1.643E3,4.775E3,5.171E3,8.128E3,6.62E3,2.649E3,7.15E2,1.11E2,2.35E2,5.54E2,1.089E3,2.835E3,1.94E3,3.653E3,1.518E3,2.378E3,5.75E3,3.209E3,3.411E3,9.51E2,1.698E3,5.9E2,1.25E2],"tree_param":{"num_deleted":"0","num_feature":"704","num_nodes":"31","size_leaf_vector":"1"}},{"base_weights":[-1.5465625E-1,-9.88965E1,5.474851E1,-2.9732645E2,-7.680097E1,2.555264E1,1.6676219E2,-4.709818E2,-2.451571E2,-1.3551595E2,-5.644605E1,3.7425455E-1,6.386244E1,1.2986673E2,2.693167E2,-5.3389904E1,-3.6075447E1,-1.4379666E1,-2.7701468E1,-1.0421244E1,-1.7564672E1,-7.423082E0,-2.238946E0,-1.399244E0,3.7366605E0,3.649802E0,8.805803E0,5.8885584E0,1.56184635E1,2.4576609E1,4.2756405E1],"categories":[],"categories_nodes":[],"categories_segments":[],"categories_sizes":[],"default_left":[0,0,0,0,0,0,0,0,0,0,0,0,0,0,0,0,0,0,0,0,0,0,0,0,0,0,0,0,0,0,0],"id":1,"left_children":[1,3,5,7,9,11,13,15,17,19,21,23,25,27,29,-1,-1,-1,-1,-1,-1,-1,-1,-1,-1,-1,-1,-1,-1,-1,-1],"loss_changes":[1.6298414E8,4.701036E7,6.3169096E7,9.276952E6,1.1528748E7,1.4787851E7,1.4972496E7,9.21588E5,2.536884E6,3.05098E6,4.347628E6,4.9207375E6,4.012676E6,5.464648E6,3.503888E6,0E0,0E0,0E0,0E0,0E0,0E0,0E0,0E0,0E0,0E0,0E0,0E0,0E0,0E0,0E0,0E0],"parents":[2147483647,0,0,1,1,2,2,3,3,4,4,5,5,6,6,7,7,8,8,9,9,10,10,11,11,12,12,13,13,14,14],"right_children":[2,4,6,8,10,12,14,16,18,20,22,24,26,28,30,-1,-1,-1,-1,-1,-1,-1,-1,-1,-1,-1,-1,-1,-1,-1,-1],"split_conditions":[-2.7655873E-1,-1.844822E0,9.735265E-1,-2.9334753E0,-1.0637047E0,2.5999328E-1,1.7713369E0,-1.1310347E0,-4.0153713E-17,1.3303967E-16,1.3037251E-1,4.3826193E-1,2.9532984E-1,-4.0153713E-17,3.1074066E0,-5.3389904E1,-3.6075447E1,-1.4379666E1,-2.7701468E1,-1.0421244E1,-1.7564672E1,-7.423082E0,-2.238946E0,-1.399244E0,3.7366605E0,3.649802E0,8.805803E0,5.8885584E0,1.56184635E1,2.4576609E1,4.2756405E1],"split_indices":[682,682,682,682,682,616,682,616,515,515,616,682,682,515,682,0,0,0,0,0,0,0,0,0,0,0,0,0,0,0,0],"split_type":[0,0,0,0,0,0,0,0,0,0,0,0,0,0,0,0,0,0,0,0,0,0,0,0,0,0,0,0,0,0,0],"sum_hessian":[3.0056E4,1.0739E4,1.9317E4,1.071E3,9.668E3,1.5327E4,3.99E3,2.4E2,8.31E2,2.483E3,7.185E3,9.251E3,6.076E3,2.941E3,1.049E3,1.43E2,9.7E1,2.04E2,6.27E2,1.403E3,1.08E3,4.717E3,2.468E3,6.665E3,2.586E3,2.856E3,3.22E3,7.99E2,2.142E3,9.22E2,1.27E2],"tree_param":{"num_deleted":"0","num_feature":"704","num_nodes":"31","size_leaf_vector":"1"}},{"base_weights":[5.242442E-1,-9.3798035E1,4.6409283E1,-2.2049745E2,-6.5528145E1,1.8725302E1,1.3559184E2,-3.492548E2,-1.723135E2,-9.4541306E1,-4.2733654E1,-1.6815119E1,4.15866E1,1.0512134E2,2.3013893E2,-4.7802807E1,-3.0180914E1,-9.978519E0,-1.9481062E1,-1.1570223E1,-6.299354E0,-3.303957E-1,-5.516317E0,-5.5576224E0,-1.4820247E-2,1.9663155E0,6.6456695E0,4.627272E0,1.2803728E1,1.5844863E1,2.7532667E1],"categories":[],"categories_nodes":[],"categories_segments":[],"categories_sizes":[],"default_left":[0,0,0,0,0,0,0,0,0,0,0,0,0,0,0,0,0,0,0,0,0,0,0,0,0,0,0,0,0,0,0],"id":2,"left_children":[1,3,5,7,9,11,13,15,17,19,21,23,25,27,29,-1,-1,-1,-1,-1,-1,-1,-1,-1,-1,-1,-1,-1,-1,-1,-1],"loss_changes":[1.3054067E8,3.529788E7,5.0086836E7,1.092024E7,5.324796E6,1.2587619E7,1.374876E7,2.392076E6,2.071104E6,2.340718E6,2.2193755E6,3.9187625E6,5.134716E6,4.887764E6,3.609176E6,0E0,0E0,0E0,0E0,0E0,0E0,0E0,0E0,0E0,0E0,0E0,0E0,0E0,0E0,0E0,0E0],"parents":[2147483647,0,0,1,1,2,2,3,3,4,4,5,5,6,6,7,7,8,8,9,9,10,10,11,11,12,12,13,13,14,14],"right_children":[2,4,6,8,10,12,14,16,18,20,22,24,26,28,30,-1,-1,-1,-1,-1,-1,-1,-1,-1,-1,-1,-1,-1,-1,-1,-1],"split_conditions":[-3.4191614E-1,-1.5084149E0,8.5460335E-1,-2.4418192E0,-3.3263856E-1,-1.3049912E-1,1.709621E0,-3.4953513E0,-4.0153713E-17,-6.7158216E-1,-4.0153713E-17,-4.0153713E-17,2.5999328E-1,-4.0153713E-17,6.563705E-1,-4.7802807E1,-3.0180914E1,-9.978519E0,-1.9481062E1,-1.1570223E1,-6.299354E0,-3.303957E-1,-5.516317E0,-5.5576224E0,-1.4820247E-2,1.9663155E0,6.6456695E0,4.627272E0,1.2803728E1,1.5844863E1,2.7532667E1],"split_indices":[682,682,682,682,616,616,682,682,515,682,515,515,682,515,616,0,0,0,0,0,0,0,0,0,0,0,0,0,0,0,0],"split_type":[0,0,0,0,0,0,0,0,0,0,0,0,0,0,0,0,0,0,0,0,0,0,0,0,0,0,0,0,0,0,0],"sum_hessian":[3.0154E4,9.867E3,2.0287E4,1.795E3,8.072E3,1.5485E4,4.802E3,4.82E2,1.313E3,3.546E3,4.526E3,6.062E3,9.423E3,3.638E3,1.164E3,1.2E2,3.62E2,3.16E2,9.97E2,2.116E3,1.43E3,1.086E3,3.44E3,1.82E3,4.242E3,5.012E3,4.411E3,1.023E3,2.615E3,4.57E2,7.07E2],"tree_param":{"num_deleted":"0","num_feature":"704","num_nodes":"31","size_leaf_vector":"1"}},{"base_weights":[4.658236E-2,-6.8030304E1,5.2158817E1,-1.9990628E2,-4.7497044E1,3.1852015E1,1.5959567E2,-3.5092377E2,-1.6203976E2,-8.719029E1,-3.0431353E1,1.3042061E1,7.75678E1,1.3918587E2,2.9215723E2,-4.695769E1,-2.8509058E1,-2.2024117E1,-1.3053668E1,-6.3811374E0,-1.1427747E1,-4.474914E0,8.1341505E-2,-2.3344867E0,2.695521E0,5.5945926E0,1.0292289E1,8.492282E0,1.6391554E1,1.9815834E1,3.3999718E1],"categories":[],"categories_nodes":[],"categories_segments":[],"categories_sizes":[],"default_left":[0,0,0,0,0,0,0,0,0,0,0,0,0,0,0,0,0,0,0,0,0,0,0,0,0,0,0,0,0,0,0],"id":3,"left_children":[1,3,5,7,9,11,13,15,17,19,21,23,25,27,29,-1,-1,-1,-1,-1,-1,-1,-1,-1,-1,-1,-1,-1,-1,-1,-1],"loss_changes":[1.0653914E8,3.522081E7,3.7090336E7,9.796984E6,7.624936E6,1.2302135E7,7.150376E6,2.1827E6,2.468364E6,2.115676E6,3.5293455E6,5.137987E6,2.26358E6,3.097752E6,1.335792E6,0E0,0E0,0E0,0E0,0E0,0E0,0E0,0E0,0E0,0E0,0E0,0E0,0E0,0E0,0E0,0E0],"parents":[2147483647,0,0,1,1,2,2,3,3,4,4,5,5,6,6,7,7,8,8,9,9,10,10,11,11,12,12,13,13,14,14],"right_children":[2,4,6,8,10,12,14,16,18,20,22,24,26,28,30,-1,-1,-1,-1,-1,-1,-1,-1,-1,-1,-1,-1,-1,-1,-1,-1],"split_conditions":[-1.0688799E-1,-1.5084149E0,1.2195894E0,-2.672731E0,-8.0850786E-1,5.4653716E-1,2.4079585E0,-3.4953513E0,-9.450302E-1,1.3303967E-16,2.1361096E-1,-4.0153713E-17,5.5712426E-1,1.8276677E-1,7.9649E-1,-4.695769E1,-2.8509058E1,-2.2024117E1,-1.3053668E1,-6.3811374E0,-1.1427747E1,-4.474914E0,8.1341505E-2,-2.3344867E0,2.695521E0,5.5945926E0,1.0292289E1,8.492282E0,1.6391554E1,1.9815834E1,3.3999718E1],"split_indices":[682,682,682,682,682,616,682,682,616,515,616,515,682,616,616,0,0,0,0,0,0,0,0,0,0,0,0,0,0,0,0],"split_type":[0,0,0,0,0,0,0,0,0,0,0,0,0,0,0,0,0,0,0,0,0,0,0,0,0,0,0,0,0,0,0],"sum_hessian":[3.0023E4,1.3017E4,1.7006E4,1.749E3,1.1268E4,1.4307E4,2.699E3,3.44E2,1.405E3,3.383E3,7.885E3,1.014E4,4.167E3,2.346E3,3.53E2,1.14E2,2.3E2,4.85E2,9.2E2,1.823E3,1.56E3,5.406E3,2.479E3,2.804E3,7.336E3,2.256E3,1.911E3,7.4E2,1.606E3,1.26E2,2.27E2],"tree_param":{"num_deleted":"0","num_feature":"704","num_nodes":"31","size_leaf_vector":"1"}},{"base_weights":[-7.0658654E-1,-3.99539E1,7.394133E1,-1.5084293E2,-2.0632553E1,5.8774868E1,1.8867683E2,-2.9693127E2,-1.223213E2,-5.5217335E1,-5.3423357E0,3.7608086E1,9.365947E1,1.3425812E2,2.333323E2,-3.6143486E1,-2.1975063E1,-1.5974111E1,-9.447925E0,-7.8153887E0,-3.483981E0,-1.4508957E0,3.7007053E0,-7.085745E-1,5.7073817E0,8.182348E0,1.3554587E1,7.3566256E0,1.6181067E1,1.9963707E1,3.2896446E1],"categories":[],"categories_nodes":[],"categories_segments":[],"categories_sizes":[],"default_left":[0,0,0,0,0,0,0,0,0,0,0,0,0,0,0,0,0,0,0,0,0,0,0,0,0,0,0,0,0,0,0],"id":4,"left_children":[1,3,5,7,9,11,13,15,17,19,21,23,25,27,29,-1,-1,-1,-1,-1,-1,-1,-1,-1,-1,-1,-1,-1,-1,-1,-1],"loss_changes":[8.795352E7,4.214385E7,1.7957256E7,1.201716E7,8.862173E6,6.73703E6,2.805312E6,2.04196E6,2.491056E6,2.390537E6,4.515754E6,4.9580065E6,1.66599E6,8.77073E5,1.854284E6,0E0,0E0,0E0,0E0,0E0,0E0,0E0,0E0,0E0,0E0,0E0,0E0,0E0,0E0,0E0,0E0],"parents":[2147483647,0,0,1,1,2,2,3,3,4,4,5,5,6,6,7,7,8,8,9,9,10,10,11,11,12,12,13,13,14,14],"right_children":[2,4,6,8,10,12,14,16,18,20,22,24,26,28,30,-1,-1,-1,-1,-1,-1,-1,-1,-1,-1,-1,-1,-1,-1,-1,-1],"split_conditions":[3.3686066E-1,-1.1773176E0,1.709621E0,-2.4418192E0,-4.887825E-1,5.6808716E-1,8.091162E-1,-1.1310347E0,-5.8337617E-1,-2.7658084E-1,6.3246655E-1,-4.0153713E-17,1.2195894E0,-4.0153713E-17,2.6370907E0,-3.6143486E1,-2.1975063E1,-1.5974111E1,-9.447925E0,-7.8153887E0,-3.483981E0,-1.4508957E0,3.7007053E0,-7.085745E-1,5.7073817E0,8.182348E0,1.3554587E1,7.3566256E0,1.6181067E1,1.9963707E1,3.2896446E1],"split_indices":[682,682,682,682,682,616,616,616,616,616,616,515,682,515,682,0,0,0,0,0,0,0,0,0,0,0,0,0,0,0,0],"split_type":[0,0,0,0,0,0,0,0,0,0,0,0,0,0,0,0,0,0,0,0,0,0,0,0,0,0,0,0,0,0,0],"sum_hessian":[3.0013E4,1.9672E4,1.0341E4,2.915E3,1.6757E4,9.139E3,1.202E3,4.7E2,2.445E3,5.134E3,1.1623E4,5.693E3,3.446E3,5.49E2,6.53E2,2.48E2,2.22E2,1.035E3,1.41E3,2.41E3,2.724E3,9.557E3,2.066E3,1.728E3,3.965E3,2.696E3,7.5E2,1.76E2,3.73E2,4.92E2,1.61E2],"tree_param":{"num_deleted":"0","num_feature":"704","num_nodes":"31","size_leaf_vector":"1"}},{"base_weights":[4.185045E-2,-3.2211193E1,7.459203E1,-1.4305377E2,-1.7195787E1,5.942265E1,1.7787741E2,-3.127334E2,-1.2530351E2,-4.691245E1,-7.022675E-1,2.0593733E1,7.5559E1,1.5635739E2,2.5594775E2,-3.8851315E1,-2.2905354E1,-9.467522E0,-1.6658997E1,-8.020985E0,-3.2494698E0,-1.7354662E0,2.128164E0,-1.7659501E0,4.558982E0,6.6083407E0,1.114928E1,9.559385E0,1.7739895E1,1.8845053E1,3.275606E1],"categories":[],"categories_nodes":[],"categories_segments":[],"categories_sizes":[],"default_left":[0,0,0,0,0,0,0,0,0,0,0,0,0,0,0,0,0,0,0,0,0,0,0,0,0,0,0,0,0,0,0],"id":5,"left_children":[1,3,5,7,9,11,13,15,17,19,21,23,25,27,29,-1,-1,-1,-1,-1,-1,-1,-1,-1,-1,-1,-1,-1,-1,-1,-1],"loss_changes":[7.156425E7,3.456693E7,1.4039848E7,7.306548E6,8.96977E6,4.907844E6,1.770248E6,1.115082E6,2.78206E6,3.125391E6,4.311392E6,2.2100918E6,1.856492E6,1.096878E6,9.2273E5,0E0,0E0,0E0,0E0,0E0,0E0,0E0,0E0,0E0,0E0,0E0,0E0,0E0,0E0,0E0,0E0],"parents":[2147483647,0,0,1,1,2,2,3,3,4,4,5,5,6,6,7,7,8,8,9,9,10,10,11,11,12,12,13,13,14,14],"right_children":[2,4,6,8,10,12,14,16,18,20,22,24,26,28,30,-1,-1,-1,-1,-1,-1,-1,-1,-1,-1,-1,-1,-1,-1,-1,-1],"split_conditions":[4.2742613E-1,-1.2894387E0,1.709621E0,-2.9334753E0,-3.509451E-1,-1.0688799E-1,2.6370907E0,-3.4079906E-1,1.3303967E-16,-5.970632E-1,-6.481015E-2,-4.0153713E-17,1.2195894E0,-4.0153713E-17,8.756556E-1,-3.8851315E1,-2.2905354E1,-9.467522E0,-1.6658997E1,-8.020985E0,-3.2494698E0,-1.7354662E0,2.128164E0,-1.7659501E0,4.558982E0,6.6083407E0,1.114928E1,9.559385E0,1.7739895E1,1.8845053E1,3.275606E1],"split_indices":[682,682,682,682,616,616,682,79,515,682,682,515,682,515,676,0,0,0,0,0,0,0,0,0,0,0,0,0,0,0,0],"split_type":[0,0,0,0,0,0,0,0,0,0,0,0,0,0,0,0,0,0,0,0,0,0,0,0,0,0,0,0,0,0,0],"sum_hessian":[2.9755E4,2.0771E4,8.984E3,2.474E3,1.8297E4,7.839E3,1.145E3,2.28E2,2.246E3,6.528E3,1.1769E4,2.304E3,5.535E3,9.07E2,2.38E2,1.12E2,1.16E2,1.297E3,9.49E2,1.967E3,4.561E3,6.697E3,5.072E3,9.11E2,1.393E3,4.389E3,1.146E3,2.39E2,6.68E2,1.3E2,1.08E2],"tree_param":{"num_deleted":"0","num_feature":"704","num_nodes":"31","size_leaf_vector":"1"}},{"base_weights":[-3.206974E-1,-4.7811848E1,4.05361E1,-1.9965887E2,-3.705897E1,1.8545382E1,9.250153E1,-3.5596997E2,-1.7312346E2,-7.007472E1,-2.0374538E1,3.5265713E0,4.6629177E1,7.838671E1,1.8897845E2,-3.858345E1,-1.1603142E1,-2.3833654E1,-1.4894663E1,-8.638826E0,-3.8808632E0,-3.9366348E0,-3.7983176E-1,-2.8253062E0,1.5504324E0,3.716896E0,7.7773066E0,2.8542714E0,9.752723E0,1.4264992E1,2.5003105E1],"categories":[],"categories_nodes":[],"categories_segments":[],"categories_sizes":[],"default_left":[0,0,0,0,0,0,0,0,0,0,0,0,0,0,0,0,0,0,0,0,0,0,0,0,0,0,0,0,0,0,0],"id":6,"left_children":[1,3,5,7,9,11,13,15,17,19,21,23,25,27,29,-1,-1,-1,-1,-1,-1,-1,-1,-1,-1,-1,-1,-1,-1,-1,-1],"loss_changes":[5.811112E7,2.2584528E7,1.8390364E7,3.548604E6,7.121706E6,4.772675E6,6.458044E6,7.45194E5,1.103474E6,2.201246E6,2.7070955E6,2.810175E6,1.150132E6,3.978636E6,1.576968E6,0E0,0E0,0E0,0E0,0E0,0E0,0E0,0E0,0E0,0E0,0E0,0E0,0E0,0E0,0E0,0E0],"parents":[2147483647,0,0,1,1,2,2,3,3,4,4,5,5,6,6,7,7,8,8,9,9,10,10,11,11,12,12,13,13,14,14],"right_children":[2,4,6,8,10,12,14,16,18,20,22,24,26,28,30,-1,-1,-1,-1,-1,-1,-1,-1,-1,-1,-1,-1,-1,-1,-1,-1],"split_conditions":[-4.878575E-2,-1.9257618E0,8.5460335E-1,-3.4953513E0,-7.9328465E-1,3.9031583E-1,2.128515E0,8.404543E-2,-1.6567951E0,2.576084E-2,-1.7090823E-1,-4.0153713E-17,1.0920131E0,-4.0153713E-17,1.2249509E0,-3.858345E1,-1.1603142E1,-2.3833654E1,-1.4894663E1,-8.638826E0,-3.8808632E0,-3.9366348E0,-3.7983176E-1,-2.8253062E0,1.5504324E0,3.716896E0,7.7773066E0,2.8542714E0,9.752723E0,1.4264992E1,2.5003105E1],"split_indices":[682,682,682,682,682,616,682,616,616,616,616,515,638,515,337,0,0,0,0,0,0,0,0,0,0,0,0,0,0,0,0],"split_type":[0,0,0,0,0,0,0,0,0,0,0,0,0,0,0,0,0,0,0,0,0,0,0,0,0,0,0,0,0,0,0],"sum_hessian":[2.9941E4,1.3846E4,1.6095E4,9.11E2,1.2935E4,1.1313E4,4.782E3,1.25E2,7.86E2,4.338E3,8.597E3,7.374E3,3.939E3,4.178E3,6.04E2,1.09E2,1.6E1,2.03E2,5.83E2,2.846E3,1.492E3,4.004E3,4.593E3,2.017E3,5.357E3,3.028E3,9.11E2,1.162E3,3.016E3,3.51E2,2.53E2],"tree_param":{"num_deleted":"0","num_feature":"704","num_nodes":"31","size_leaf_vector":"1"}},{"base_weights":[-7.306578E-1,-4.6877956E1,3.5080746E1,-1.3526201E2,-3.2986504E1,2.2178751E1,1.1442861E2,-2.637787E2,-1.1490841E2,-5.3865788E1,-1.7434446E1,1.0005996E1,5.5920036E1,8.5792274E1,1.6994543E2,-2.9871613E1,-1.6378588E1,-1.8651976E1,-9.487015E0,-8.824904E0,-4.065617E0,-3.655742E0,-2.9661736E-1,-1.0176821E0,2.5279298E0,3.803517E0,7.4386697E0,3.6521332E0,1.066149E1,1.5245381E1,2.4930738E1],"categories":[],"categories_nodes":[],"categories_segments":[],"categories_sizes":[],"default_left":[0,0,0,0,0,0,0,0,0,0,0,0,0,0,0,0,0,0,0,0,0,0,0,0,0,0,0,0,0,0,0],"id":7,"left_children":[1,3,5,7,9,11,13,15,17,19,21,23,25,27,29,-1,-1,-1,-1,-1,-1,-1,-1,-1,-1,-1,-1,-1,-1,-1,-1],"loss_changes":[4.9546556E7,1.6066072E7,1.7271674E7,4.529536E6,3.673961E6,5.963521E6,3.693552E6,6.42644E5,2.141882E6,2.180722E6,1.7971251E6,3.292922E6,1.260214E6,1.590008E6,9.57036E5,0E0,0E0,0E0,0E0,0E0,0E0,0E0,0E0,0E0,0E0,0E0,0E0,0E0,0E0,0E0,0E0],"parents":[2147483647,0,0,1,1,2,2,3,3,4,4,5,5,6,6,7,7,8,8,9,9,10,10,11,11,12,12,13,13,14,14],"right_children":[2,4,6,8,10,12,14,16,18,20,22,24,26,28,30,-1,-1,-1,-1,-1,-1,-1,-1,-1,-1,-1,-1,-1,-1,-1,-1],"split_conditions":[-9.878739E-2,-1.5084149E0,1.3012695E0,-2.9334753E0,-6.460315E-1,6.3246655E-1,1.190878E0,2.6742956E-1,-3.5318695E-5,-7.784539E-1,-1.3016127E-1,-1.22536935E-1,5.5712426E-1,-4.0153713E-17,2.6370907E0,-2.9871613E1,-1.6378588E1,-1.8651976E1,-9.487015E0,-8.824904E0,-4.065617E0,-3.655742E0,-2.9661736E-1,-1.0176821E0,2.5279298E0,3.803517E0,7.4386697E0,3.6521332E0,1.066149E1,1.5245381E1,2.4930738E1],"split_indices":[682,682,682,682,682,616,616,4,516,616,548,548,682,515,682,0,0,0,0,0,0,0,0,0,0,0,0,0,0,0,0],"split_type":[0,0,0,0,0,0,0,0,0,0,0,0,0,0,0,0,0,0,0,0,0,0,0,0,0,0,0,0,0,0,0],"sum_hessian":[2.9973E4,1.3096E4,1.6877E4,1.774E3,1.1322E4,1.4521E4,2.356E3,2.36E2,1.538E3,4.829E3,6.493E3,1.0675E4,3.846E3,1.561E3,7.95E2,1.69E2,6.7E1,3.29E2,1.209E3,1.334E3,3.495E3,2.794E3,3.699E3,4.599E3,6.076E3,1.96E3,1.886E3,4.67E2,1.094E3,6.61E2,1.34E2],"tree_param":{"num_deleted":"0","num_feature":"704","num_nodes":"31","size_leaf_vector":"1"}},{"base_weights":[-4.0739477E-1,-3.0380198E1,4.4992596E1,-1.048948E2,-1.6670246E1,3.2448452E1,1.1249632E2,-1.8825282E2,-8.267714E1,-3.205334E1,3.3936932E0,5.4788356E0,4.576597E1,8.380434E1,1.5092007E2,-2.5468306E1,-1.4808756E1,-1.0164013E1,-4.1725345E0,-7.387535E0,-2.485319E0,-1.1789174E0,1.9716552E0,-2.579238E0,2.3644664E0,3.386594E0,6.9274573E0,1.47565E1,6.942512E0,1.1233878E1,1.9480871E1],"categories":[],"categories_nodes":[],"categories_segments":[],"categories_sizes":[],"default_left":[0,0,0,0,0,0,0,0,0,0,0,0,0,0,0,0,0,0,0,0,0,0,0,0,0,0,0,0,0,0,0],"id":8,"left_children":[1,3,5,7,9,11,13,15,17,19,21,23,25,27,29,-1,-1,-1,-1,-1,-1,-1,-1,-1,-1,-1,-1,-1,-1,-1,-1],"loss_changes":[4.0847468E7,1.846438E7,1.009334E7,5.140012E6,4.715309E6,3.61653E6,2.009848E6,1.417954E6,1.710872E6,2.596463E6,1.6447732E6,1.8963765E6,1.87669E6,9.48236E5,1.256864E6,0E0,0E0,0E0,0E0,0E0,0E0,0E0,0E0,0E0,0E0,0E0,0E0,0E0,0E0,0E0,0E0],"parents":[2147483647,0,0,1,1,2,2,3,3,4,4,5,5,6,6,7,7,8,8,9,9,10,10,11,11,12,12,13,13,14,14],"right_children":[2,4,6,8,10,12,14,16,18,20,22,24,26,28,30,-1,-1,-1,-1,-1,-1,-1,-1,-1,-1,-1,-1,-1,-1,-1,-1],"split_conditions":[2.2058433E-1,-1.2067693E0,1.4410796E0,-2.280542E0,1.1073648E-2,-9.878739E-2,1.0102942E0,-1.6567951E0,1.9467121E-2,-1.2249402E0,9.971198E-2,-4.0153713E-17,5.0590783E-1,-3.5318695E-5,9.086838E-1,-2.5468306E1,-1.4808756E1,-1.0164013E1,-4.1725345E0,-7.387535E0,-2.485319E0,-1.1789174E0,1.9716552E0,-2.579238E0,2.3644664E0,3.386594E0,6.9274573E0,1.47565E1,6.942512E0,1.1233878E1,1.9480871E1],"split_indices":[682,682,682,682,616,616,616,616,616,338,549,515,548,516,697,0,0,0,0,0,0,0,0,0,0,0,0,0,0,0,0],"split_type":[0,0,0,0,0,0,0,0,0,0,0,0,0,0,0,0,0,0,0,0,0,0,0,0,0,0,0,0,0,0,0],"sum_hessian":[3.001E4,1.8077E4,1.1933E4,2.805E3,1.5272E4,1.0068E4,1.865E3,5.84E2,2.221E3,8.643E3,6.629E3,3.33E3,6.738E3,1.075E3,7.9E2,2.12E2,3.72E2,1.514E3,7.07E2,1.264E3,7.379E3,3.435E3,3.194E3,1.223E3,2.107E3,4.48E3,2.258E3,1.91E2,8.84E2,4.28E2,3.62E2],"tree_param":{"num_deleted":"0","num_feature":"704","num_nodes":"31","size_leaf_vector":"1"}},{"base_weights":[6.986334E-1,-4.7333282E1,2.3715971E1,-1.6914218E2,-3.934605E1,6.6187844E0,6.2246284E1,-1.1775256E2,-2.1662798E2,-6.93201E1,-2.8503412E1,-6.4228587E0,2.8090857E1,5.303447E1,1.476073E2,-2.5944579E0,-1.5143005E1,-2.2856453E1,3.9359632E0,-6.224683E0,-1.5536272E1,8.4943706E-1,-3.9582107E0,-4.038502E0,6.766786E-2,2.264451E0,7.3783402E0,1.2834811E0,6.8275414E0,1.0884143E1,1.9332312E1],"categories":[],"categories_nodes":[],"categories_segments":[],"categories_sizes":[],"default_left":[0,0,0,0,0,0,0,0,0,0,0,0,0,0,0,0,0,0,0,0,0,0,0,0,0,0,0,0,0,0,0],"id":9,"left_children":[1,3,5,7,9,11,13,15,17,19,21,23,25,27,29,-1,-1,-1,-1,-1,-1,-1,-1,-1,-1,-1,-1,-1,-1,-1,-1],"loss_changes":[3.3119528E7,9.415486E6,1.3339545E7,1.352306E6,2.953783E6,3.9301222E6,4.862762E6,8.9634875E5,9.67984E5,1.432874E6,2.747185E6,2.10578E6,1.312989E6,3.442196E6,9.86189E5,0E0,0E0,0E0,0E0,0E0,0E0,0E0,0E0,0E0,0E0,0E0,0E0,0E0,0E0,0E0,0E0],"parents":[2147483647,0,0,1,1,2,2,3,3,4,4,5,5,6,6,7,7,8,8,9,9,10,10,11,11,12,12,13,13,14,14],"right_children":[2,4,6,8,10,12,14,16,18,20,22,24,26,28,30,-1,-1,-1,-1,-1,-1,-1,-1,-1,-1,-1,-1,-1,-1,-1,-1],"split_conditions":[-3.5086772E-1,-2.280542E0,6.931714E-1,-4.9266342E-2,-7.93688E-1,2.6057523E-1,2.128515E0,-4.0153713E-17,1.6005334E0,2.5965972E0,-4.0153713E-17,-7.3773533E-1,1.1153258E0,-4.0153713E-17,1.4410796E0,-2.5944579E0,-1.5143005E1,-2.2856453E1,3.9359632E0,-6.224683E0,-1.5536272E1,8.4943706E-1,-3.9582107E0,-4.038502E0,6.766786E-2,2.264451E0,7.3783402E0,1.2834811E0,6.8275414E0,1.0884143E1,1.9332312E1],"split_indices":[682,682,682,109,616,548,682,515,330,301,515,616,616,515,638,0,0,0,0,0,0,0,0,0,0,0,0,0,0,0,0],"split_type":[0,0,0,0,0,0,0,0,0,0,0,0,0,0,0,0,0,0,0,0,0,0,0,0,0,0,0,0,0,0,0],"sum_hessian":[2.9949E4,9.701E3,2.0248E4,5.92E2,9.109E3,1.4028E4,6.22E3,2.91E2,3.01E2,2.414E3,6.695E3,8.729E3,5.299E3,5.62E3,6E2,8E1,2.11E2,2.88E2,1.3E1,2.237E3,1.77E2,1.543E3,5.152E3,1.506E3,7.223E3,4.74E3,5.59E2,1.547E3,4.073E3,3.32E2,2.68E2],"tree_param":{"num_deleted":"0","num_feature":"704","num_nodes":"31","size_leaf_vector":"1"}},{"base_weights":[-1.3345331E-1,-2.955687E1,3.1117691E1,-8.2981705E1,-1.6619694E1,2.073588E1,8.3323944E1,-1.7200366E2,-7.089098E1,-3.2498486E1,-3.2961547E0,7.5020366E0,4.2403004E1,7.459822E1,1.891308E2,-7.862671E0,-2.0418133E1,-2.3789065E0,-8.670167E0,-6.934358E0,-2.464051E0,-9.4715023E-1,3.230681E0,-1.8088726E0,1.6578757E0,2.4039974E0,6.55738E0,5.699193E0,9.679507E0,-1.2037675E0,2.0628475E1],"categories":[],"categories_nodes":[],"categories_segments":[],"categories_sizes":[],"default_left":[0,0,0,0,0,0,0,0,0,0,0,0,0,0,0,0,0,0,0,0,0,0,0,0,0,0,0,0,0,0,0],"id":10,"left_children":[1,3,5,7,9,11,13,15,17,19,21,23,25,27,29,-1,-1,-1,-1,-1,-1,-1,-1,-1,-1,-1,-1,-1,-1,-1,-1],"loss_changes":[2.7564314E7,1.0666074E7,7.872056E6,3.189886E6,2.6303342E6,3.4771525E6,2.168524E6,1.008388E6,1.969686E6,1.6356385E6,1.4887969E6,1.7516628E6,1.950487E6,8.5057E5,6.34573E5,0E0,0E0,0E0,0E0,0E0,0E0,0E0,0E0,0E0,0E0,0E0,0E0,0E0,0E0,0E0,0E0],"parents":[2147483647,0,0,1,1,2,2,3,3,4,4,5,5,6,6,7,7,8,8,9,9,10,10,11,11,12,12,13,13,14,14],"right_children":[2,4,6,8,10,12,14,16,18,20,22,24,26,28,30,-1,-1,-1,-1,-1,-1,-1,-1,-1,-1,-1,-1,-1,-1,-1,-1],"split_conditions":[5.383668E-2,-1.1555687E0,1.1153258E0,-2.672731E0,-1.1499546E-1,6.931714E-1,2.4079585E0,-4.0153713E-17,-4.0153713E-17,-1.2249402E0,6.690353E-1,-4.0153713E-17,1.3303967E-16,9.908218E-1,-1.3242643E0,-7.862671E0,-2.0418133E1,-2.3789065E0,-8.670167E0,-6.934358E0,-2.464051E0,-9.4715023E-1,3.230681E0,-1.8088726E0,1.6578757E0,2.4039974E0,6.55738E0,5.699193E0,9.679507E0,-1.2037675E0,2.0628475E1],"split_indices":[682,682,616,682,548,682,682,515,515,338,616,515,515,682,498,0,0,0,0,0,0,0,0,0,0,0,0,0,0,0,0],"split_type":[0,0,0,0,0,0,0,0,0,0,0,0,0,0,0,0,0,0,0,0,0,0,0,0,0,0,0,0,0,0,0],"sum_hessian":[2.9969E4,1.5436E4,1.4533E4,3.005E3,1.2431E4,1.2127E4,2.406E3,3.53E2,2.652E3,5.669E3,6.762E3,7.532E3,4.595E3,2.229E3,1.77E2,9.4E1,2.59E2,6.69E2,1.983E3,9.91E2,4.678E3,5.765E3,9.97E2,1.971E3,5.561E3,2.568E3,2.027E3,1.251E3,9.78E2,1.4E1,1.63E2],"tree_param":{"num_deleted":"0","num_feature":"704","num_nodes":"31","size_leaf_vector":"1"}},{"base_weights":[-9.3338005E-2,-4.538139E1,1.6737766E1,-1.2101102E2,-3.5448856E1,3.8423681E0,5.616991E1,-1.8872203E2,-9.152495E1,-1.8667898E1,-5.36033E1,-1.3993306E1,1.5043414E1,4.231382E1,1.05089615E2,-2.7501276E1,-1.5503995E1,-1.4740449E0,-1.16796055E1,4.787379E0,-2.8844347E0,-1.0813362E1,-3.6121633E0,-3.5909874E0,-1.3182898E-1,8.007882E-1,3.8063016E0,2.246739E0,6.5304513E0,9.274897E0,1.9620665E1],"categories":[],"categories_nodes":[],"categories_segments":[],"categories_sizes":[],"default_left":[0,0,0,0,0,0,0,0,0,0,0,0,0,0,0,0,0,0,0,0,0,0,0,0,0,0,0,0,0,0,0],"id":11,"left_children":[1,3,5,7,9,11,13,15,17,19,21,23,25,27,29,-1,-1,-1,-1,-1,-1,-1,-1,-1,-1,-1,-1,-1,-1,-1,-1],"loss_changes":[2.2868954E7,6.089265E6,1.1121396E7,1.811588E6,2.186714E6,3.2945852E6,3.635718E6,6.48982E5,1.2815325E6,2.5401225E6,3.275074E6,1.7671214E6,1.6392152E6,1.913697E6,1.261865E6,0E0,0E0,0E0,0E0,0E0,0E0,0E0,0E0,0E0,0E0,0E0,0E0,0E0,0E0,0E0,0E0],"parents":[2147483647,0,0,1,1,2,2,3,3,4,4,5,5,6,6,7,7,8,8,9,9,10,10,11,11,12,12,13,13,14,14],"right_children":[2,4,6,8,10,12,14,16,18,20,22,24,26,28,30,-1,-1,-1,-1,-1,-1,-1,-1,-1,-1,-1,-1,-1,-1,-1,-1],"split_conditions":[-4.887825E-1,-1.9257618E0,7.842563E-1,-1.7163064E0,1.3303967E-16,-1.9667538E-1,1.709621E0,-3.4953513E0,-4.0153713E-17,-1.2249402E0,-1.0002134E0,-3.804144E-1,6.3246655E-1,1.3303967E-16,3.1074066E0,-2.7501276E1,-1.5503995E1,-1.4740449E0,-1.16796055E1,4.787379E0,-2.8844347E0,-1.0813362E1,-3.6121633E0,-3.5909874E0,-1.3182898E-1,8.007882E-1,3.8063016E0,2.246739E0,6.5304513E0,9.274897E0,1.9620665E1],"split_indices":[682,682,682,616,515,548,682,682,515,514,404,549,616,515,682,0,0,0,0,0,0,0,0,0,0,0,0,0,0,0,0],"split_type":[0,0,0,0,0,0,0,0,0,0,0,0,0,0,0,0,0,0,0,0,0,0,0,0,0,0,0,0,0,0,0],"sum_hessian":[2.9994E4,8.125E3,2.1869E4,9.38E2,7.187E3,1.6483E4,5.386E3,2.78E2,6.6E2,3.739E3,3.448E3,6.358E3,1.0125E4,4.203E3,1.183E3,7E1,2.08E2,1.65E2,4.95E2,4.94E2,3.245E3,8.32E2,2.616E3,2.327E3,4.031E3,7.759E3,2.366E3,2.26E3,1.943E3,1.049E3,1.34E2],"tree_param":{"num_deleted":"0","num_feature":"704","num_nodes":"31","size_leaf_vector":"1"}},{"base_weights":[8.045885E-1,-2.3557346E1,2.694213E1,-6.2692604E1,-1.2007091E1,1.7701218E1,7.31058E1,-1.1903646E2,-4.871651E1,-3.651172E1,-5.805604E0,-7.1745343E0,2.6856785E1,5.9314625E1,1.1753334E2,-1.9802914E1,-1.0185416E1,-9.3931E0,-3.653628E0,-8.19683E0,-3.0446239E0,-1.1925867E0,1.5537342E0,-2.103048E0,7.5636444E0,-2.5279698E0,3.4992912E0,4.6997824E0,9.081606E0,1.0652555E1,2.1056347E1],"categories":[],"categories_nodes":[],"categories_segments":[],"categories_sizes":[],"default_left":[0,0,0,0,0,0,0,0,0,0,0,0,0,0,0,0,0,0,0,0,0,0,0,0,0,0,0,0,0,0,0],"id":12,"left_children":[1,3,5,7,9,11,13,15,17,19,21,23,25,27,29,-1,-1,-1,-1,-1,-1,-1,-1,-1,-1,-1,-1,-1,-1,-1,-1],"loss_changes":[1.9121928E7,7.022757E6,6.174878E6,2.765192E6,1.8236372E6,2.7511032E6,1.451768E6,8.70709E5,1.552502E6,6.5833075E5,1.2529064E6,3.7377758E6,3.748281E6,7.010825E5,4.91879E5,0E0,0E0,0E0,0E0,0E0,0E0,0E0,0E0,0E0,0E0,0E0,0E0,0E0,0E0,0E0,0E0],"parents":[2147483647,0,0,1,1,2,2,3,3,4,4,5,5,6,6,7,7,8,8,9,9,10,10,11,11,12,12,13,13,14,14],"right_children":[2,4,6,8,10,12,14,16,18,20,22,24,26,28,30,-1,-1,-1,-1,-1,-1,-1,-1,-1,-1,-1,-1,-1,-1,-1,-1],"split_conditions":[5.383668E-2,-1.0637047E0,1.1153258E0,-2.1301777E0,-7.93688E-1,-4.0153713E-17,1.6510655E0,-3.4953513E0,-3.5318695E-5,-1.2589341E0,6.0139996E-1,1.2249509E0,-1.2249402E0,6.6967505E-1,3.1074066E0,-1.9802914E1,-1.0185416E1,-9.3931E0,-3.653628E0,-8.19683E0,-3.0446239E0,-1.1925867E0,1.5537342E0,-2.103048E0,7.5636444E0,-2.5279698E0,3.4992912E0,4.6997824E0,9.081606E0,1.0652555E1,2.1056347E1],"split_indices":[682,682,616,682,616,515,682,682,516,548,548,7,404,549,616,0,0,0,0,0,0,0,0,0,0,0,0,0,0,0,0],"split_type":[0,0,0,0,0,0,0,0,0,0,0,0,0,0,0,0,0,0,0,0,0,0,0,0,0,0,0,0,0,0,0],"sum_hessian":[3.0022E4,1.5539E4,1.4483E4,3.537E3,1.2002E4,1.2072E4,2.411E3,6.97E2,2.84E3,2.42E3,9.582E3,3.248E3,8.824E3,1.847E3,5.64E2,1.17E2,5.8E2,5.97E2,2.243E3,2.79E2,2.141E3,7.448E3,2.134E3,2.785E3,4.63E2,1.19E3,7.634E3,1.335E3,5.12E2,5.12E2,5.2E1],"tree_param":{"num_deleted":"0","num_feature":"704","num_nodes":"31","size_leaf_vector":"1"}},{"base_weights":[-1.901738E-1,-1.3475097E1,3.904213E1,-5.2045803E1,-3.9521105E0,2.9385187E1,8.336164E1,-1.2594714E2,-4.3319916E1,-2.14841E1,4.653287E0,4.9935645E-1,4.0767483E1,7.701233E1,1.8927934E2,-2.4381676E1,-1.0549435E1,4.9923465E-1,-5.831179E0,-8.1163883E-1,-3.6795995E0,-3.973684E-1,2.0138042E0,-1.522422E0,6.0320773E0,-1.3764671E0,4.9428496E0,6.254644E0,1.0097159E1,6.335302E0,2.84449E1],"categories":[],"categories_nodes":[],"categories_segments":[],"categories_sizes":[],"default_left":[0,0,0,0,0,0,0,0,0,0,0,0,0,0,0,0,0,0,0,0,0,0,0,0,0,0,0,0,0,0,0],"id":13,"left_children":[1,3,5,7,9,11,13,15,17,19,21,23,25,27,29,-1,-1,-1,-1,-1,-1,-1,-1,-1,-1,-1,-1,-1,-1,-1,-1],"loss_changes":[1.5652636E7,8.2397275E6,3.241626E6,2.842587E6,2.7156062E6,2.0528565E6,8.54226E5,1.022872E6,2.8831305E6,1.2117595E6,1.6133808E6,1.6676154E6,2.1181765E6,4.207695E5,8.1469075E5,0E0,0E0,0E0,0E0,0E0,0E0,0E0,0E0,0E0,0E0,0E0,0E0,0E0,0E0,0E0,0E0],"parents":[2147483647,0,0,1,1,2,2,3,3,4,4,5,5,6,6,7,7,8,8,9,9,10,10,11,11,12,12,13,13,14,14],"right_children":[2,4,6,8,10,12,14,16,18,20,22,24,26,28,30,-1,-1,-1,-1,-1,-1,-1,-1,-1,-1,-1,-1,-1,-1,-1,-1],"split_conditions":[5.5712426E-1,-9.093179E-1,1.3012695E0,-1.927077E0,-3.4234595E-1,-4.0153713E-17,3.1074066E0,-3.4953513E0,-4.0153713E-17,-4.790518E-1,2.5203636E-1,6.68643E-1,-1.2249402E0,5.572782E-1,1.4609067E-1,-2.4381676E1,-1.0549435E1,4.9923465E-1,-5.831179E0,-8.1163883E-1,-3.6795995E0,-3.973684E-1,2.0138042E0,-1.522422E0,6.0320773E0,-1.3764671E0,4.9428496E0,6.254644E0,1.0097159E1,6.335302E0,2.84449E1],"split_indices":[682,682,616,616,549,515,682,682,515,527,616,396,404,548,395,0,0,0,0,0,0,0,0,0,0,0,0,0,0,0,0],"split_type":[0,0,0,0,0,0,0,0,0,0,0,0,0,0,0,0,0,0,0,0,0,0,0,0,0,0,0,0,0,0,0],"sum_hessian":[3.0024E4,2.2431E4,7.593E3,4.438E3,1.7993E4,6.24E3,1.353E3,4.63E2,3.975E3,5.922E3,1.2071E4,1.765E3,4.475E3,1.283E3,7E1,6.2E1,4.01E2,9.42E2,3.033E3,3.165E3,2.757E3,7.754E3,4.317E3,1.4E3,3.65E2,6.13E2,3.862E3,8.09E2,4.74E2,3.3E1,3.7E1],"tree_param":{"num_deleted":"0","num_feature":"704","num_nodes":"31","size_leaf_vector":"1"}},{"base_weights":[2.4932563E-1,-1.3465246E1,3.2931522E1,-7.8443054E1,-8.783245E0,2.364011E1,6.704464E1,-1.23418304E2,-5.374882E1,-3.52313E1,-2.2552218E0,4.931693E1,1.5188182E1,1.9902287E1,8.4994576E1,-2.116992E1,-1.0518032E1,3.3025405E-1,-7.4721093E0,-3.1026063E0,-1.0029563E1,-1.5447181E0,7.761764E-1,5.315208E0,-3.0444143E0,-9.154169E-2,3.8037858E0,1.2530116E1,3.567233E-1,6.169493E0,1.382253E1],"categories":[],"categories_nodes":[],"categories_segments":[],"categories_sizes":[],"default_left":[0,0,0,0,0,0,0,0,0,0,0,0,0,0,0,0,0,0,0,0,0,0,0,0,0,0,0,0,0,0,0],"id":14,"left_children":[1,3,5,7,9,11,13,15,17,19,21,23,25,27,29,-1,-1,-1,-1,-1,-1,-1,-1,-1,-1,-1,-1,-1,-1,-1,-1],"loss_changes":[1.3495511E7,6.449558E6,2.814578E6,1.556077E6,3.416143E6,1.5163388E6,1.603536E6,7.191235E5,1.1101538E6,1.059261E6,2.0982618E6,5.36289E5,1.9404102E6,9.106854E5,1.673683E6,0E0,0E0,0E0,0E0,0E0,0E0,0E0,0E0,0E0,0E0,0E0,0E0,0E0,0E0,0E0,0E0],"parents":[2147483647,0,0,1,1,2,2,3,3,4,4,5,5,6,6,7,7,8,8,9,9,10,10,11,11,12,12,13,13,14,14],"right_children":[2,4,6,8,10,12,14,16,18,20,22,24,26,28,30,-1,-1,-1,-1,-1,-1,-1,-1,-1,-1,-1,-1,-1,-1,-1,-1],"split_conditions":[4.580106E-1,-1.6567951E0,1.4410796E0,-1.2067914E0,-7.784539E-1,-3.5318695E-5,-4.0153713E-17,-3.4953513E0,-4.0153713E-17,2.6229017E0,-1.1499546E-1,1.9759623E0,4.8617488E-1,-1.0002134E0,1.2249509E0,-2.116992E1,-1.0518032E1,3.3025405E-1,-7.4721093E0,-3.1026063E0,-1.0029563E1,-1.5447181E0,7.761764E-1,5.315208E0,-3.0444143E0,-9.154169E-2,3.8037858E0,1.2530116E1,3.567233E-1,6.169493E0,1.382253E1],"split_indices":[682,682,682,616,616,516,515,682,515,301,548,323,638,514,381,0,0,0,0,0,0,0,0,0,0,0,0,0,0,0,0],"split_type":[0,0,0,0,0,0,0,0,0,0,0,0,0,0,0,0,0,0,0,0,0,0,0,0,0,0,0,0,0,0,0],"sum_hessian":[3.0101E4,2.1205E4,8.896E3,1.421E3,1.9784E4,6.997E3,1.899E3,4.98E2,9.23E2,3.913E3,1.5871E4,1.728E3,5.269E3,5.26E2,1.373E3,7.8E1,4.2E2,2.49E2,6.74E2,3.681E3,2.32E2,6.849E3,9.022E3,1.65E3,7.8E1,3.093E3,2.176E3,6.7E1,4.59E2,9.61E2,4.12E2],"tree_param":{"num_deleted":"0","num_feature":"704","num_nodes":"31","size_leaf_vector":"1"}},{"base_weights":[1.9871403E-1,-3.220644E1,1.2099911E1,-6.248964E1,-2.0422205E1,4.6757135E0,4.922182E1,-1.0676539E2,-4.3805775E1,1.2781599E1,-3.0873373E1,-1.0451195E1,1.4903139E1,4.113008E1,1.0208856E2,-1.6857924E1,-8.981166E0,-8.907031E0,-3.618326E0,6.8200264E0,-2.365545E0,-2.117192E0,-8.573487E0,-2.9135365E0,-6.847387E-2,8.7302554E-1,3.3294213E0,2.551454E0,5.904307E0,2.664843E-1,1.1589786E1],"categories":[],"categories_nodes":[],"categories_segments":[],"categories_sizes":[],"default_left":[0,0,0,0,0,0,0,0,0,0,0,0,0,0,0,0,0,0,0,0,0,0,0,0,0,0,0,0,0,0,0],"id":15,"left_children":[1,3,5,7,9,11,13,15,17,19,21,23,25,27,29,-1,-1,-1,-1,-1,-1,-1,-1,-1,-1,-1,-1,-1,-1,-1,-1],"loss_changes":[1.1577916E7,2.8726335E6,6.050427E6,1.848347E6,2.018107E6,2.8321138E6,1.548437E6,6.383865E5,5.3706075E5,2.821356E6,2.345734E6,1.3475155E6,1.238646E6,8.834705E5,6.618865E5,0E0,0E0,0E0,0E0,0E0,0E0,0E0,0E0,0E0,0E0,0E0,0E0,0E0,0E0,0E0,0E0],"parents":[2147483647,0,0,1,1,2,2,3,3,4,4,5,5,6,6,7,7,8,8,9,9,10,10,11,11,12,12,13,13,14,14],"right_children":[2,4,6,8,10,12,14,16,18,20,22,24,26,28,30,-1,-1,-1,-1,-1,-1,-1,-1,-1,-1,-1,-1,-1,-1,-1,-1],"split_conditions":[-4.887825E-1,-8.538956E-1,1.0317669E0,-1.604644E0,-4.0153713E-17,-1.1536435E-1,2.2606115E0,-1.100974E0,-1.2249402E0,-1.0002134E0,8.2755363E-1,-4.0856582E-1,6.122748E-1,1.3303967E-16,-1.179431E0,-1.6857924E1,-8.981166E0,-8.907031E0,-3.618326E0,6.8200264E0,-2.365545E0,-2.117192E0,-8.573487E0,-2.9135365E0,-6.847387E-2,8.7302554E-1,3.3294213E0,2.551454E0,5.904307E0,2.664843E-1,1.1589786E1],"split_indices":[682,616,682,682,515,616,682,167,426,514,433,548,549,515,592,0,0,0,0,0,0,0,0,0,0,0,0,0,0,0,0],"split_type":[0,0,0,0,0,0,0,0,0,0,0,0,0,0,0,0,0,0,0,0,0,0,0,0,0,0,0,0,0,0,0],"sum_hessian":[3.0013E4,8.06E3,2.1953E4,2.253E3,5.807E3,1.8298E4,3.655E3,6.63E2,1.59E3,1.39E3,4.417E3,7.381E3,1.0917E4,3.176E3,4.79E2,1.35E2,5.28E2,2.23E2,1.367E3,5.5E2,8.4E2,3.758E3,6.59E2,2.531E3,4.85E3,8.178E3,2.739E3,1.702E3,1.474E3,5.9E1,4.2E2],"tree_param":{"num_deleted":"0","num_feature":"704","num_nodes":"31","size_leaf_vector":"1"}},{"base_weights":[-5.608038E-1,-1.1998737E1,2.6506771E1,-3.9455563E1,-4.1588674E0,1.7718134E1,5.4081886E1,-7.425054E1,-3.0414072E1,-1.2558645E1,1.1090538E1,-8.0077684E-1,3.2670357E1,3.69865E1,8.14166E1,-9.736432E0,-2.009369E0,-1.5011368E0,-4.919867E0,-4.021897E0,-7.881625E-1,4.9062304E0,8.0173534E-1,4.0022826E0,-1.2438723E0,5.780488E0,2.3280866E0,3.2378643E0,1.2225582E1,4.4354205E0,1.0284363E1],"categories":[],"categories_nodes":[],"categories_segments":[],"categories_sizes":[],"default_left":[0,0,0,0,0,0,0,0,0,0,0,0,0,0,0,0,0,0,0,0,0,0,0,0,0,0,0,0,0,0,0],"id":16,"left_children":[1,3,5,7,9,11,13,15,17,19,21,23,25,27,29,-1,-1,-1,-1,-1,-1,-1,-1,-1,-1,-1,-1,-1,-1,-1,-1],"loss_changes":[9.31457E6,4.551826E6,2.1620135E6,1.4686155E6,2.108433E6,1.8783162E6,9.963595E5,1.2013605E6,1.077694E6,1.3717038E6,6.8072656E5,1.4434478E6,8.8031025E5,5.0866812E5,6.384755E5,0E0,0E0,0E0,0E0,0E0,0E0,0E0,0E0,0E0,0E0,0E0,0E0,0E0,0E0,0E0,0E0],"parents":[2147483647,0,0,1,1,2,2,3,3,4,4,5,5,6,6,7,7,8,8,9,9,10,10,11,11,12,12,13,13,14,14],"right_children":[2,4,6,8,10,12,14,16,18,20,22,24,26,28,30,-1,-1,-1,-1,-1,-1,-1,-1,-1,-1,-1,-1,-1,-1,-1,-1],"split_conditions":[4.477108E-1,-8.7227947E-1,1.2249509E0,-1.9257618E0,2.771278E-1,-6.537712E-2,1.2445929E0,4.6749815E-1,1.3303967E-16,-1.2249402E0,-5.3523487E-1,-3.5318695E-5,-9.7237116E-1,1.4144349E0,-5.23808E-3,-9.736432E0,-2.009369E0,-1.5011368E0,-4.919867E0,-4.021897E0,-7.881625E-1,4.9062304E0,8.0173534E-1,4.0022826E0,-1.2438723E0,5.780488E0,2.3280866E0,3.2378643E0,1.2225582E1,4.4354205E0,1.0284363E1],"split_indices":[682,682,249,682,548,693,682,154,515,338,526,516,696,7,308,0,0,0,0,0,0,0,0,0,0,0,0,0,0,0,0],"split_type":[0,0,0,0,0,0,0,0,0,0,0,0,0,0,0,0,0,0,0,0,0,0,0,0,0,0,0,0,0,0,0],"sum_hessian":[3.0078E4,2.1145E4,8.933E3,4.693E3,1.6452E4,6.779E3,2.154E3,9.62E2,3.731E3,1.0609E4,5.843E3,3.03E3,3.749E3,1.331E3,8.23E2,6.72E2,2.9E2,2.054E3,1.677E3,1.53E3,9.079E3,4.33E2,5.41E3,6.7E2,2.36E3,1.014E3,2.735E3,1.268E3,6.3E1,3.06E2,5.17E2],"tree_param":{"num_deleted":"0","num_feature":"704","num_nodes":"31","size_leaf_vector":"1"}},{"base_weights":[3.612286E-1,-2.6543676E1,1.0154577E1,-6.7666084E1,-2.0997362E1,4.7732234E0,4.466978E1,-1.4871061E1,-8.498326E1,-4.482237E1,-1.2301932E1,-1.4759311E1,1.1268589E1,4.077855E1,1.20209435E2,-9.70275E0,1.0320548E1,-4.166758E0,-1.0947599E1,-5.7962623E0,-1.1192696E0,1.53143E0,-2.0540524E0,-3.9309967E0,-3.2440218E-1,-1.0499969E-2,2.3068025E0,3.5981216E0,7.480427E0,1.4809974E1,-1.5489981E0],"categories":[],"categories_nodes":[],"categories_segments":[],"categories_sizes":[],"default_left":[0,0,0,0,0,0,0,0,0,0,0,0,0,0,0,0,0,0,0,0,0,0,0,0,0,0,0,0,0,0,0],"id":17,"left_children":[1,3,5,7,9,11,13,15,17,19,21,23,25,27,29,-1,-1,-1,-1,-1,-1,-1,-1,-1,-1,-1,-1,-1,-1,-1,-1],"loss_changes":[7.8909925E6,1.817097E6,4.077212E6,8.616435E5,1.4579078E6,2.4110858E6,8.507225E5,2.3585325E6,7.381585E5,8.29493E5,1.1773042E6,1.340365E6,1.913734E6,4.49855E5,5.504145E5,0E0,0E0,0E0,0E0,0E0,0E0,0E0,0E0,0E0,0E0,0E0,0E0,0E0,0E0,0E0,0E0],"parents":[2147483647,0,0,1,1,2,2,3,3,4,4,5,5,6,6,7,7,8,8,9,9,10,10,11,11,12,12,13,13,14,14],"right_children":[2,4,6,8,10,12,14,16,18,20,22,24,26,28,30,-1,-1,-1,-1,-1,-1,-1,-1,-1,-1,-1,-1,-1,-1,-1,-1],"split_conditions":[-4.887825E-1,-1.9257618E0,1.0920131E0,-4.0153713E-17,-5.700472E-1,-5.5968E-1,2.6370907E0,7.455041E-1,-6.147311E-1,1.4141606E0,-4.0153713E-17,-4.0153713E-17,-3.2872522E-1,1.368011E0,1.051079E0,-9.70275E0,1.0320548E1,-4.166758E0,-1.0947599E1,-5.7962623E0,-1.1192696E0,1.53143E0,-2.0540524E0,-3.9309967E0,-3.2440218E-1,-1.0499969E-2,2.3068025E0,3.5981216E0,7.480427E0,1.4809974E1,-1.5489981E0],"split_indices":[682,682,616,515,548,549,682,522,653,516,515,515,693,548,0,0,0,0,0,0,0,0,0,0,0,0,0,0,0,0,0],"split_type":[0,0,0,0,0,0,0,0,0,0,0,0,0,0,0,0,0,0,0,0,0,0,0,0,0,0,0,0,0,0,0],"sum_hessian":[2.994E4,7.988E3,2.1952E4,9.44E2,7.044E3,1.8995E4,2.957E3,2.35E2,7.09E2,1.879E3,5.165E3,4.739E3,1.4256E4,2.818E3,1.39E2,1.39E2,9.6E1,2.6E2,4.49E2,1.349E3,5.3E2,1.186E3,3.979E3,1.51E3,3.229E3,7.261E3,6.995E3,2.477E3,3.41E2,1.15E2,2.4E1],"tree_param":{"num_deleted":"0","num_feature":"704","num_nodes":"31","size_leaf_vector":"1"}},{"base_weights":[1.4789164E-1,-8.789113E0,2.6018301E1,-3.278614E1,-5.893113E-1,1.873737E1,5.7823647E1,-7.017751E1,-2.5536694E1,-1.6566782E1,7.3822994E0,6.4653595E1,1.5145628E1,5.2230988E1,1.3335988E2,-9.341996E0,-3.598491E0,-4.185575E0,-1.2445196E0,-2.3038685E0,1.4058903E0,5.383575E-2,2.274237E0,2.8809345E0,9.329738E0,5.953022E-1,3.0978053E0,6.389534E0,2.3325822E0,1.6740788E1,3.159967E0],"categories":[],"categories_nodes":[],"categories_segments":[],"categories_sizes":[],"default_left":[0,0,0,0,0,0,0,0,0,0,0,0,0,0,0,0,0,0,0,0,0,0,0,0,0,0,0,0,0,0,0],"id":18,"left_children":[1,3,5,7,9,11,13,15,17,19,21,23,25,27,29,-1,-1,-1,-1,-1,-1,-1,-1,-1,-1,-1,-1,-1,-1,-1,-1],"loss_changes":[6.9220095E6,4.378461E6,1.775749E6,1.528948E6,2.1133685E6,1.02862625E6,5.762015E5,7.1608E5,1.01334025E6,1.0959914E6,1.1636625E6,4.5432612E5,8.451409E5,4.4514125E5,3.11414E5,0E0,0E0,0E0,0E0,0E0,0E0,0E0,0E0,0E0,0E0,0E0,0E0,0E0,0E0,0E0,0E0],"parents":[2147483647,0,0,1,1,2,2,3,3,4,4,5,5,6,6,7,7,8,8,9,9,10,10,11,11,12,12,13,13,14,14],"right_children":[2,4,6,8,10,12,14,16,18,20,22,24,26,28,30,-1,-1,-1,-1,-1,-1,-1,-1,-1,-1,-1,-1,-1,-1,-1,-1],"split_conditions":[5.4653716E-1,-6.460315E-1,1.2704806E0,-1.462878E0,-3.7019193E-1,-4.7831136E-1,3.1074066E0,-5.3375396E-3,-1.6236584E-1,1.2249509E0,4.477108E-1,2.375916E-1,4.187638E-1,1.709621E0,7.3210514E-1,-9.341996E0,-3.598491E0,-4.185575E0,-1.2445196E0,-2.3038685E0,1.4058903E0,5.383575E-2,2.274237E0,2.8809345E0,9.329738E0,5.953022E-1,3.0978053E0,6.389534E0,2.3325822E0,1.6740788E1,3.159967E0],"split_indices":[616,682,682,616,549,594,682,132,548,249,682,461,636,594,0,0,0,0,0,0,0,0,0,0,0,0,0,0,0,0,0],"split_type":[0,0,0,0,0,0,0,0,0,0,0,0,0,0,0,0,0,0,0,0,0,0,0,0,0,0,0,0,0,0,0],"sum_hessian":[2.9931E4,2.2248E4,7.683E3,5.663E3,1.6585E4,6.257E3,1.426E3,9.14E2,4.749E3,5.519E3,1.1066E4,4.49E2,5.808E3,1.334E3,9.2E1,5.4E2,3.74E2,2.11E3,2.639E3,4.557E3,9.62E2,7.658E3,3.408E3,2.03E2,2.46E2,3.678E3,2.13E3,9.47E2,3.87E2,6.7E1,2.5E1],"tree_param":{"num_deleted":"0","num_feature":"704","num_nodes":"31","size_leaf_vector":"1"}},{"base_weights":[1.7471799E-1,-2.6570982E1,7.7744365E0,-7.343332E1,-2.0314657E1,-1.1927767E-1,2.828802E1,-6.0785618E1,-1.3996437E2,-3.700441E1,-1.0008985E1,-1.13139515E1,7.333956E0,1.7889103E1,4.7080982E1,-5.2093344E0,-1.6134413E1,-1.6830404E1,-1.5309374E0,-6.870193E0,-1.9321406E0,5.769532E-1,-2.1566956E0,-5.200257E-1,-3.3924286E0,3.6348462E0,3.268875E-1,-1.052322E0,2.4555843E0,1.5966297E0,5.8155866E0],"categories":[],"categories_nodes":[],"categories_segments":[],"categories_sizes":[],"default_left":[0,0,0,0,0,0,0,0,0,0,0,0,0,0,0,0,0,0,0,0,0,0,0,0,0,0,0,0,0,0,0],"id":19,"left_children":[1,3,5,7,9,11,13,15,17,19,21,23,25,27,29,-1,-1,-1,-1,-1,-1,-1,-1,-1,-1,-1,-1,-1,-1,-1,-1],"loss_changes":[6.118739E6,1.9469255E6,3.7959438E6,6.24796E5,1.010208E6,1.4130799E6,1.2696255E6,5.47602E5,4.2064425E5,1.2524515E6,6.646838E5,9.349836E5,1.198677E6,7.9659025E5,7.95034E5,0E0,0E0,0E0,0E0,0E0,0E0,0E0,0E0,0E0,0E0,0E0,0E0,0E0,0E0,0E0,0E0],"parents":[2147483647,0,0,1,1,2,2,3,3,4,4,5,5,6,6,7,7,8,8,9,9,10,10,11,11,12,12,13,13,14,14],"right_children":[2,4,6,8,10,12,14,16,18,20,22,24,26,28,30,-1,-1,-1,-1,-1,-1,-1,-1,-1,-1,-1,-1,-1,-1,-1,-1],"split_conditions":[-6.3348275E-1,-1.604644E0,5.890073E-1,1.286464E0,-3.893834E-1,-1.7024432E-1,1.000188E0,1.4061407E0,6.6940665E-1,-4.0153713E-17,9.182865E-2,9.1801025E-2,-5.577598E-1,-6.087132E-1,-4.0153713E-17,-5.2093344E0,-1.6134413E1,-1.6830404E1,-1.5309374E0,-6.870193E0,-1.9321406E0,5.769532E-1,-2.1566956E0,-5.200257E-1,-3.3924286E0,3.6348462E0,3.268875E-1,-1.052322E0,2.4555843E0,1.5966297E0,5.8155866E0],"split_indices":[616,682,682,69,548,636,337,615,412,515,526,614,614,693,515,0,0,0,0,0,0,0,0,0,0,0,0,0,0,0,0],"split_type":[0,0,0,0,0,0,0,0,0,0,0,0,0,0,0,0,0,0,0,0,0,0,0,0,0,0,0,0,0,0,0],"sum_hessian":[3.0095E4,6.657E3,2.3438E4,7.79E2,5.878E3,1.6928E4,6.51E3,6.61E2,1.18E2,2.24E3,3.638E3,6.765E3,1.0163E4,4.196E3,2.314E3,6.14E2,4.7E1,9.5E1,2.3E1,7.98E2,1.442E3,1.539E3,2.099E3,5.329E3,1.436E3,1.245E3,8.918E3,7.97E2,3.399E3,6.1E2,1.704E3],"tree_param":{"num_deleted":"0","num_feature":"704","num_nodes":"31","size_leaf_vector":"1"}},{"base_weights":[-6.7559755E-1,-1.946188E1,8.386802E0,-9.2485916E1,-1.6659313E1,7.799786E-1,2.637858E1,-3.925224E1,-1.2619574E2,-3.2250446E1,-6.8240457E0,2.4561996E1,-7.2619724E0,2.1565624E1,6.7106186E1,-6.7952037E0,5.8707347E0,-5.922625E0,-1.750508E1,-1.7018197E0,-4.8113594E0,-1.0759696E0,3.9806688E0,9.325306E-1,4.447107E0,-1.4865189E0,9.660541E-1,1.0788311E0,3.707505E0,5.5249915E0,1.3099955E1],"categories":[],"categories_nodes":[],"categories_segments":[],"categories_sizes":[],"default_left":[0,0,0,0,0,0,0,0,0,0,0,0,0,0,0,0,0,0,0,0,0,0,0,0,0,0,0,0,0,0,0],"id":20,"left_children":[1,3,5,7,9,11,13,15,17,19,21,23,25,27,29,-1,-1,-1,-1,-1,-1,-1,-1,-1,-1,-1,-1,-1,-1,-1,-1],"loss_changes":[5.0941585E6,1.986538E6,2.7624368E6,6.243775E5,1.4377758E6,2.7148002E6,1.169922E6,4.2361484E5,6.717345E5,8.7335075E5,1.0584282E6,1.0864408E6,1.3654591E6,8.9598575E5,4.4977525E5,0E0,0E0,0E0,0E0,0E0,0E0,0E0,0E0,0E0,0E0,0E0,0E0,0E0,0E0,0E0,0E0],"parents":[2147483647,0,0,1,1,2,2,3,3,4,4,5,5,6,6,7,7,8,8,9,9,10,10,11,11,12,12,13,13,14,14],"right_children":[2,4,6,8,10,12,14,16,18,20,22,24,26,28,30,-1,-1,-1,-1,-1,-1,-1,-1,-1,-1,-1,-1,-1,-1,-1,-1],"split_conditions":[-3.5086772E-1,-2.672731E0,5.8939964E-1,-1.8876927E-1,-2.4095869E-1,-3.5318695E-5,1.8431814E0,7.816898E-1,-1.8848749E-1,1.3303967E-16,8.8520443E-1,3.198527E-1,4.1829222E-1,3.0367488E-1,3.1074066E0,-6.7952037E0,5.8707347E0,-5.922625E0,-1.750508E1,-1.7018197E0,-4.8113594E0,-1.0759696E0,3.9806688E0,9.325306E-1,4.447107E0,-1.4865189E0,9.660541E-1,1.0788311E0,3.707505E0,5.5249915E0,1.3099955E1],"split_indices":[682,682,638,20,549,516,682,38,504,515,616,682,396,636,682,0,0,0,0,0,0,0,0,0,0,0,0,0,0,0,0],"split_type":[0,0,0,0,0,0,0,0,0,0,0,0,0,0,0,0,0,0,0,0,0,0,0,0,0,0,0,0,0,0,0],"sum_hessian":[2.9914E4,9.733E3,2.0181E4,3.55E2,9.378E3,1.4187E4,5.994E3,1.41E2,2.14E2,3.624E3,5.754E3,3.583E3,1.0604E4,5.366E3,6.28E2,1.1E2,3.1E1,9.4E1,1.2E2,1.853E3,1.771E3,5.309E3,4.45E2,2.033E3,1.55E3,7.317E3,3.287E3,3.17E3,2.196E3,5.36E2,9.2E1],"tree_param":{"num_deleted":"0","num_feature":"704","num_nodes":"31","size_leaf_vector":"1"}},{"base_weights":[-5.61068E-3,-1.1767725E1,1.1099697E1,-3.725828E1,-6.202625E0,7.7145987E0,5.10906E1,-1.338276E2,-3.2917854E1,-2.772687E1,-1.0782867E-1,-8.233756E-1,1.7464369E1,4.469775E1,1.14959435E2,-1.6325542E1,8.170142E0,-4.1464987E-1,-4.4050484E0,-1.1530192E0,-4.3111205E0,2.2690451E-1,-4.4149127E0,7.625923E-1,-1.4464468E0,4.081611E0,1.1537329E0,1.0876597E0,5.243345E0,8.307469E0,2.883526E1],"categories":[],"categories_nodes":[],"categories_segments":[],"categories_sizes":[],"default_left":[0,0,0,0,0,0,0,0,0,0,0,0,0,0,0,0,0,0,0,0,0,0,0,0,0,0,0,0,0,0,0],"id":21,"left_children":[1,3,5,7,9,11,13,15,17,19,21,23,25,27,29,-1,-1,-1,-1,-1,-1,-1,-1,-1,-1,-1,-1,-1,-1,-1,-1],"loss_changes":[3.9202248E6,2.06664E6,2.0881668E6,1.076751E6,1.5700152E6,1.1851955E6,4.7101225E5,7.573921E5,8.01293E5,6.560721E5,9.771839E5,8.757093E5,9.180949E5,2.8576075E5,4.9566638E5,0E0,0E0,0E0,0E0,0E0,0E0,0E0,0E0,0E0,0E0,0E0,0E0,0E0,0E0,0E0,0E0],"parents":[2147483647,0,0,1,1,2,2,3,3,4,4,5,5,6,6,7,7,8,8,9,9,10,10,11,11,12,12,13,13,14,14],"right_children":[2,4,6,8,10,12,14,16,18,20,22,24,26,28,30,-1,-1,-1,-1,-1,-1,-1,-1,-1,-1,-1,-1,-1,-1,-1,-1],"split_conditions":[-5.707755E-3,-1.0027622E0,1.5586545E0,-3.4953513E0,-7.2557086E-1,1.4562446E-1,3.1074066E0,8.690862E-1,-3.6594775E-1,-7.000505E-1,2.2728677E0,-4.1240802E-1,-1.3834916E-1,-1.0002134E0,1.4061407E0,-1.6325542E1,8.170142E0,-4.1464987E-1,-4.4050484E0,-1.1530192E0,-4.3111205E0,2.2690451E-1,-4.4149127E0,7.625923E-1,-1.4464468E0,4.081611E0,1.1537329E0,1.0876597E0,5.243345E0,8.307469E0,2.883526E1],"split_indices":[616,682,682,682,549,636,682,240,249,527,323,257,614,338,703,0,0,0,0,0,0,0,0,0,0,0,0,0,0,0,0],"split_type":[0,0,0,0,0,0,0,0,0,0,0,0,0,0,0,0,0,0,0,0,0,0,0,0,0,0,0,0,0,0,0],"sum_hessian":[3.0004E4,1.4571E4,1.5433E4,2.607E3,1.1964E4,1.4233E4,1.2E3,1.07E2,2.5E3,2.637E3,9.327E3,7.59E3,6.643E3,1.097E3,1.03E2,9.5E1,1.2E1,6.99E2,1.801E3,1.288E3,1.349E3,8.853E3,4.74E2,4.688E3,2.902E3,1.34E3,5.303E3,2.06E2,8.91E2,9.2E1,1.1E1],"tree_param":{"num_deleted":"0","num_feature":"704","num_nodes":"31","size_leaf_vector":"1"}},{"base_weights":[-3.1054187E-1,-1.4497936E1,8.532379E0,-7.007679E1,-1.2026522E1,-1.9222289E0,1.9082092E1,-1.4334448E2,-5.0296665E1,-3.0504395E1,-5.6415887E0,1.3247934E1,-1.2069727E1,1.5087148E1,5.1301056E1,-1.7912712E1,-2.317933E0,4.2420764E0,-6.4037294E0,-3.8821049E0,-7.386351E-1,1.1954441E0,-1.2750158E0,3.097569E-1,2.8292654E0,-4.578658E0,-5.9602857E-1,1.2703204E0,5.6501346E0,2.6490972E0,7.366849E0],"categories":[],"categories_nodes":[],"categories_segments":[],"categories_sizes":[],"default_left":[0,0,0,0,0,0,0,0,0,0,0,0,0,0,0,0,0,0,0,0,0,0,0,0,0,0,0,0,0,0,0],"id":22,"left_children":[1,3,5,7,9,11,13,15,17,19,21,23,25,27,29,-1,-1,-1,-1,-1,-1,-1,-1,-1,-1,-1,-1,-1,-1,-1,-1],"loss_changes":[3.7669968E6,1.5802172E6,2.0402419E6,6.81252E5,1.3021575E6,1.4313504E6,1.1819508E6,4.2193388E5,5.102768E5,5.439145E5,1.02778825E6,5.6879125E5,1.1464746E6,8.0639775E5,5.5488075E5,0E0,0E0,0E0,0E0,0E0,0E0,0E0,0E0,0E0,0E0,0E0,0E0,0E0,0E0,0E0,0E0],"parents":[2147483647,0,0,1,1,2,2,3,3,4,4,5,5,6,6,7,7,8,8,9,9,10,10,11,11,12,12,13,13,14,14],"right_children":[2,4,6,8,10,12,14,16,18,20,22,24,26,28,30,-1,-1,-1,-1,-1,-1,-1,-1,-1,-1,-1,-1,-1,-1,-1,-1],"split_conditions":[-2.1367125E-1,-2.4418192E0,6.882855E-2,-9.857512E-1,-5.726909E-1,-4.2672056E-1,1.3670304E0,-1.7163064E0,-1.1209167E0,1.4141606E0,-3.043712E-1,3.9031583E-1,-9.6334726E-1,1.6510655E0,2.2050145E-1,-1.7912712E1,-2.317933E0,4.2420764E0,-6.4037294E0,-3.8821049E0,-7.386351E-1,1.1954441E0,-1.2750158E0,3.097569E-1,2.8292654E0,-4.578658E0,-5.9602857E-1,1.2703204E0,5.6501346E0,2.6490972E0,7.366849E0],"split_indices":[682,682,548,256,549,526,616,660,3,516,527,638,548,682,396,0,0,0,0,0,0,0,0,0,0,0,0,0,0,0,0],"split_type":[0,0,0,0,0,0,0,0,0,0,0,0,0,0,0,0,0,0,0,0,0,0,0,0,0,0,0,0,0,0,0],"sum_hessian":[3.0018E4,1.1525E4,1.8493E4,4.86E2,1.1039E4,9.29E3,9.203E3,9.8E1,3.88E2,2.831E3,8.208E3,3.723E3,5.567E3,8.193E3,1.01E3,7.4E1,2.4E1,4.9E1,3.39E2,2.08E3,7.51E2,2.361E3,5.847E3,2.226E3,1.497E3,8.5E2,4.717E3,7.752E3,4.41E2,4.83E2,5.27E2],"tree_param":{"num_deleted":"0","num_feature":"704","num_nodes":"31","size_leaf_vector":"1"}},{"base_weights":[3.89592E-1,-9.912325E0,1.1940395E1,-2.2326561E1,7.914897E-2,7.146564E0,3.443956E1,-5.932193E1,-1.6509691E1,-5.4885535E0,2.0410618E1,-1.172675E0,1.5937151E1,5.77669E1,2.118632E1,-1.3224396E0,-7.100288E0,-3.9415753E0,-6.504649E-1,5.848807E-1,-1.3192121E0,1.2305403E-1,3.4920032E0,-2.665779E0,2.6719546E-1,3.6783884E0,9.378519E-1,8.742773E0,2.732676E0,-5.397974E-1,3.393047E0],"categories":[],"categories_nodes":[],"categories_segments":[],"categories_sizes":[],"default_left":[0,0,0,0,0,0,0,0,0,0,0,0,0,0,0,0,0,0,0,0,0,0,0,0,0,0,0,0,0,0,0],"id":23,"left_children":[1,3,5,7,9,11,13,15,17,19,21,23,25,27,29,-1,-1,-1,-1,-1,-1,-1,-1,-1,-1,-1,-1,-1,-1,-1,-1],"loss_changes":[3.5727162E6,1.9684708E6,1.525618E6,1.5190185E6,9.962676E5,8.537358E5,7.633585E5,5.131515E5,1.401752E6,6.037292E5,5.263488E5,5.882727E5,7.7466775E5,8.012065E5,5.3975975E5,0E0,0E0,0E0,0E0,0E0,0E0,0E0,0E0,0E0,0E0,0E0,0E0,0E0,0E0,0E0,0E0],"parents":[2147483647,0,0,1,1,2,2,3,3,4,4,5,5,6,6,7,7,8,8,9,9,10,10,11,11,12,12,13,13,14,14],"right_children":[2,4,6,8,10,12,14,16,18,20,22,24,26,28,30,-1,-1,-1,-1,-1,-1,-1,-1,-1,-1,-1,-1,-1,-1,-1,-1],"split_conditions":[7.630952E-2,-1.6236584E-1,1.2704806E0,-1.2067693E0,4.1822037E-1,1.1519175E-1,8.2485324E-1,-7.0705664E-1,-4.0153713E-17,6.9856174E-2,-3.4837487E-1,-1.2249402E0,-7.423568E-2,2.6944388E-2,5.46399E-1,-1.3224396E0,-7.100288E0,-3.9415753E0,-6.504649E-1,5.848807E-1,-1.3192121E0,1.2305403E-1,3.4920032E0,-2.665779E0,2.6719546E-1,3.6783884E0,9.378519E-1,8.742773E0,2.732676E0,-5.397974E-1,3.393047E0],"split_indices":[616,548,616,682,682,549,594,337,515,526,693,338,527,614,682,0,0,0,0,0,0,0,0,0,0,0,0,0,0,0,0],"split_type":[0,0,0,0,0,0,0,0,0,0,0,0,0,0,0,0,0,0,0,0,0,0,0,0,0,0,0,0,0,0,0],"sum_hessian":[3.0016E4,1.5866E4,1.415E4,7.073E3,8.793E3,1.1669E4,2.481E3,9.56E2,6.117E3,6.905E3,1.888E3,5.997E3,5.672E3,8.94E2,1.587E3,1.95E2,7.61E2,1.856E3,4.261E3,2.794E3,4.111E3,8.15E2,1.073E3,7.83E2,5.214E3,1.353E3,4.319E3,4.49E2,4.45E2,5.15E2,1.072E3],"tree_param":{"num_deleted":"0","num_feature":"704","num_nodes":"31","size_leaf_vector":"1"}},{"base_weights":[-3.2097474E-1,-2.9339382E1,2.988362E0,-1.3318552E2,-2.6664078E1,-7.144407E0,1.0365122E1,-1.8333443E2,-1.5006469E1,-5.1337917E1,-1.6575352E1,-3.249092E1,-2.8008814E0,8.106876E0,5.65285E1,6.006492E0,-2.081111E1,-9.967612E0,4.9467497E0,-6.8348994E0,-2.0960355E0,-1.0882734E0,-5.359382E0,-2.991173E-2,-4.6045623E0,1.2257068E1,-3.6866766E-1,2.492778E0,3.612773E-1,3.4184353E0,8.31556E0],"categories":[],"categories_nodes":[],"categories_segments":[],"categories_sizes":[],"default_left":[0,0,0,0,0,0,0,0,0,0,0,0,0,0,0,0,0,0,0,0,0,0,0,0,0,0,0,0,0,0,0],"id":24,"left_children":[1,3,5,7,9,11,13,15,17,19,21,23,25,27,29,-1,-1,-1,-1,-1,-1,-1,-1,-1,-1,-1,-1,-1,-1,-1,-1],"loss_changes":[2.876217E6,8.3755925E5,2.0098701E6,4.3937338E5,7.4187175E5,1.246875E6,1.6202571E6,3.696535E5,1.6712564E5,4.4227825E5,4.46724E5,7.2296775E5,1.0763376E6,1.1213865E6,4.1995175E5,0E0,0E0,0E0,0E0,0E0,0E0,0E0,0E0,0E0,0E0,0E0,0E0,0E0,0E0,0E0,0E0],"parents":[2147483647,0,0,1,1,2,2,3,3,4,4,5,5,6,6,7,7,8,8,9,9,10,10,11,11,12,12,13,13,14,14],"right_children":[2,4,6,8,10,12,14,16,18,20,22,24,26,28,30,-1,-1,-1,-1,-1,-1,-1,-1,-1,-1,-1,-1,-1,-1,-1,-1],"split_conditions":[-1.1555687E0,-3.4953513E0,-1.1499546E-1,9.174025E-2,-5.9800744E-1,-1.2249402E0,1.709621E0,-1.5099851E0,-1.15417704E-1,1.3303967E-16,1.3656211E0,-1.3662093E0,-1.2249402E0,-2.133771E-1,2.9563108E-1,6.006492E0,-2.081111E1,-9.967612E0,4.9467497E0,-6.8348994E0,-2.0960355E0,-1.0882734E0,-5.359382E0,-2.991173E-2,-4.6045623E0,1.2257068E1,-3.6866766E-1,2.492778E0,3.612773E-1,3.4184353E0,8.31556E0],"split_indices":[616,682,548,284,549,338,616,20,461,9,52,272,360,526,87,0,0,0,0,0,0,0,0,0,0,0,0,0,0,0,0],"split_type":[0,0,0,0,0,0,0,0,0,0,0,0,0,0,0,0,0,0,0,0,0,0,0,0,0,0,0,0,0,0,0],"sum_hessian":[2.9943E4,3.062E3,2.6881E4,7.2E1,2.99E3,1.1325E4,1.5556E4,4.9E1,2.3E1,8.63E2,2.127E3,1.653E3,9.672E3,1.4835E4,7.21E2,4E0,4.5E1,9E0,1.4E1,5.5E2,3.13E2,1.848E3,2.79E2,4.91E2,1.162E3,6.4E1,9.608E3,3.124E3,1.1711E4,3.97E2,3.24E2],"tree_param":{"num_deleted":"0","num_feature":"704","num_nodes":"31","size_leaf_vector":"1"}},{"base_weights":[7.4027425E-1,-9.491464E0,9.551857E0,-3.007103E1,-6.1285563E0,3.9816477E0,2.428609E1,-2.5993423E1,-8.556517E1,1.1138244E1,-1.1612261E1,-1.2483258E1,1.0151494E1,8.202523E0,3.1303154E1,-8.424511E0,-2.1698358E0,5.825777E0,-9.926567E0,3.886504E0,5.271236E-2,-4.6691065E0,-8.54358E-1,-4.282333E0,1.5450679E0,-2.5367563E0,1.6349925E0,1.9744008E0,-1.8506879E0,2.4571524E0,4.9002485E0],"categories":[],"categories_nodes":[],"categories_segments":[],"categories_sizes":[],"default_left":[0,0,0,0,0,0,0,0,0,0,0,0,0,0,0,0,0,0,0,0,0,0,0,0,0,0,0,0,0,0,0],"id":25,"left_children":[1,3,5,7,9,11,13,15,17,19,21,23,25,27,29,-1,-1,-1,-1,-1,-1,-1,-1,-1,-1,-1,-1,-1,-1,-1,-1],"loss_changes":[2.712039E6,9.6255025E5,1.3260676E6,4.3323875E5,1.1338146E6,1.1924141E6,4.99271E5,4.4952262E5,2.8323894E5,8.493012E5,9.76462E5,2.7147085E6,1.8811838E6,4.1823762E5,3.6273225E5,0E0,0E0,0E0,0E0,0E0,0E0,0E0,0E0,0E0,0E0,0E0,0E0,0E0,0E0,0E0,0E0],"parents":[2147483647,0,0,1,1,2,2,3,3,4,4,5,5,6,6,7,7,8,8,9,9,10,10,11,11,12,12,13,13,14,14],"right_children":[2,4,6,8,10,12,14,16,18,20,22,24,26,28,30,-1,-1,-1,-1,-1,-1,-1,-1,-1,-1,-1,-1,-1,-1,-1,-1],"split_conditions":[-4.878575E-2,-1.2067914E0,5.681567E-1,2.4668455E0,-6.7146057E-1,-4.0153713E-17,-2.4994129E-1,-2.9334753E0,-4.0153713E-17,-4.0153713E-17,-1.5084149E0,6.098688E-2,-1.2249402E0,3.1244448E-1,6.0149527E-1,-8.424511E0,-2.1698358E0,5.825777E0,-9.926567E0,3.886504E0,5.271236E-2,-4.6691065E0,-8.54358E-1,-4.282333E0,1.5450679E0,-2.5367563E0,1.6349925E0,1.9744008E0,-1.8506879E0,2.4571524E0,4.9002485E0],"split_indices":[682,616,548,367,594,515,637,682,515,515,682,418,404,527,154,0,0,0,0,0,0,0,0,0,0,0,0,0,0,0,0],"split_type":[0,0,0,0,0,0,0,0,0,0,0,0,0,0,0,0,0,0,0,0,0,0,0,0,0,0,0,0,0,0,0],"sum_hessian":[3.0073E4,1.3915E4,1.6158E4,1.95E3,1.1965E4,1.1729E4,4.429E3,1.822E3,1.28E2,2.883E3,9.082E3,3.196E3,8.533E3,1.348E3,3.081E3,1.2E2,1.702E3,1E1,1.18E2,7.95E2,2.088E3,7.26E2,8.356E3,1.531E3,1.665E3,1.266E3,7.267E3,9.42E2,4.06E2,2.239E3,8.42E2],"tree_param":{"num_deleted":"0","num_feature":"704","num_nodes":"31","size_leaf_vector":"1"}},{"base_weights":[3.8065532E-1,-4.0530953E0,1.7207083E1,-2.351481E1,-5.0983757E-1,-2.7506087E0,2.4008389E1,-1.3489647E1,-4.4588852E1,-5.723248E0,9.713587E0,-3.9310917E1,1.6567993E1,1.736955E1,4.8015167E1,-3.7601464E0,-6.145979E-1,-3.5507958E0,-9.120431E0,4.0446833E-2,-1.6389269E0,2.105283E0,-3.6020073E-1,-2.4344084E0,-7.4924645E0,9.6537155E-1,6.514806E0,2.5180397E0,-5.652122E-1,4.4455605E0,1.5491538E1],"categories":[],"categories_nodes":[],"categories_segments":[],"categories_sizes":[],"default_left":[0,0,0,0,0,0,0,0,0,0,0,0,0,0,0,0,0,0,0,0,0,0,0,0,0,0,0,0,0,0,0],"id":26,"left_children":[1,3,5,7,9,11,13,15,17,19,21,23,25,27,29,-1,-1,-1,-1,-1,-1,-1,-1,-1,-1,-1,-1,-1,-1,-1,-1],"loss_changes":[2.2454942E6,1.6426615E6,8.5229825E5,7.727349E5,1.0745678E6,1.1319741E6,7.4285475E5,4.403233E5,4.8695E5,8.726944E5,1.02838925E6,2.8798E5,3.4982434E5,6.612274E5,3.5749675E5,0E0,0E0,0E0,0E0,0E0,0E0,0E0,0E0,0E0,0E0,0E0,0E0,0E0,0E0,0E0,0E0],"parents":[2147483647,0,0,1,1,2,2,3,3,4,4,5,5,6,6,7,7,8,8,9,9,10,10,11,11,12,12,13,13,14,14],"right_children":[2,4,6,8,10,12,14,16,18,20,22,24,26,28,30,-1,-1,-1,-1,-1,-1,-1,-1,-1,-1,-1,-1,-1,-1,-1,-1],"split_conditions":[6.931714E-1,-8.921977E-1,-3.5318695E-5,-3.8943866E-1,3.6270276E-1,1.1523222E-1,1.6013016E0,-7.6660955E-1,1.3656211E0,2.0059224E-2,1.3303967E-16,1.4236698E0,1.9210767E0,6.6968054E-1,2.2803307E0,-3.7601464E0,-6.145979E-1,-3.5507958E0,-9.120431E0,4.0446833E-2,-1.6389269E0,2.105283E0,-3.6020073E-1,-2.4344084E0,-7.4924645E0,9.6537155E-1,6.514806E0,2.5180397E0,-5.652122E-1,4.4455605E0,1.5491538E1],"split_indices":[638,548,516,526,549,682,638,549,8,527,9,411,682,615,192,0,0,0,0,0,0,0,0,0,0,0,0,0,0,0,0],"split_type":[0,0,0,0,0,0,0,0,0,0,0,0,0,0,0,0,0,0,0,0,0,0,0,0,0,0,0,0,0,0,0],"sum_hessian":[3.0091E4,2.3818E4,6.273E3,3.665E3,2.0153E4,1.595E3,4.678E3,2.488E3,1.177E3,1.3348E4,6.805E3,5.5E2,1.045E3,3.67E3,1.008E3,5.77E2,1.911E3,9.91E2,1.86E2,8.48E3,4.868E3,3.674E3,3.131E3,3.92E2,1.58E2,9.19E2,1.26E2,2.74E3,9.3E2,9.81E2,2.7E1],"tree_param":{"num_deleted":"0","num_feature":"704","num_nodes":"31","size_leaf_vector":"1"}},{"base_weights":[-2.718168E-1,-1.5511223E1,4.3667045E0,-1.3757999E1,-8.292116E1,-3.9387019E0,1.369263E1,6.4289937E0,-2.00115E1,-1.18893005E2,1.7954767E1,9.473626E0,-8.605428E0,9.971586E0,4.679236E1,6.1987767E0,-2.6986148E0,-5.6521374E-1,-4.9868236E0,-1.47896595E1,-4.0792766E0,7.082658E0,-9.176769E0,-4.462975E0,1.591347E0,-2.4200642E-2,-2.2693846E0,3.8566487E0,7.4821347E-1,4.3331285E0,2.3384764E1],"categories":[],"categories_nodes":[],"categories_segments":[],"categories_sizes":[],"default_left":[0,0,0,0,0,0,0,0,0,0,0,0,0,0,0,0,0,0,0,0,0,0,0,0,0,0,0,0,0,0,0],"id":27,"left_children":[1,3,5,7,9,11,13,15,17,19,21,23,25,27,29,-1,-1,-1,-1,-1,-1,-1,-1,-1,-1,-1,-1,-1,-1,-1,-1],"loss_changes":[2.1247395E6,8.243649E5,1.7851045E6,8.641209E5,6.508376E5,7.634433E5,1.3352074E6,3.0160915E6,2.2385135E6,2.725695E5,3.1605544E5,1.1000012E6,1.0659578E6,6.9389306E5,6.6897625E5,0E0,0E0,0E0,0E0,0E0,0E0,0E0,0E0,0E0,0E0,0E0,0E0,0E0,0E0,0E0,0E0],"parents":[2147483647,0,0,1,1,2,2,3,3,4,4,5,5,6,6,7,7,8,8,9,9,10,10,11,11,12,12,13,13,14,14],"right_children":[2,4,6,8,10,12,14,16,18,20,22,24,26,28,30,-1,-1,-1,-1,-1,-1,-1,-1,-1,-1,-1,-1,-1,-1,-1,-1],"split_conditions":[-5.970632E-1,1.2704806E0,-2.4215329E-1,-4.0153713E-17,7.900766E-1,-3.5318695E-5,1.0840758E0,-1.0002134E0,-1.4209087E-1,5.685126E-1,1.660555E0,-1.2249402E0,2.4492092E-1,-1.1089265E0,1.9959879E0,6.1987767E0,-2.6986148E0,-5.6521374E-1,-4.9868236E0,-1.47896595E1,-4.0792766E0,7.082658E0,-9.176769E0,-4.462975E0,1.591347E0,-2.4200642E-2,-2.2693846E0,3.8566487E0,7.4821347E-1,4.3331285E0,2.3384764E1],"split_indices":[682,594,693,515,693,516,697,514,499,22,473,382,615,572,540,0,0,0,0,0,0,0,0,0,0,0,0,0,0,0,0],"split_type":[0,0,0,0,0,0,0,0,0,0,0,0,0,0,0,0,0,0,0,0,0,0,0,0,0,0,0,0,0,0,0],"sum_hessian":[3.005E4,7.01E3,2.304E4,6.837E3,1.73E2,1.2188E4,1.0852E4,1.617E3,5.22E3,1.27E2,4.6E1,3.145E3,9.043E3,9.76E3,1.092E3,6.06E2,1.011E3,3.528E3,1.692E3,9E1,3.7E1,3.2E1,1.4E1,3.32E2,2.813E3,5.677E3,3.366E3,7.77E2,8.983E3,1.077E3,1.5E1],"tree_param":{"num_deleted":"0","num_feature":"704","num_nodes":"31","size_leaf_vector":"1"}},{"base_weights":[7.1717614E-1,-6.9862123E0,9.597433E0,3.076962E0,-1.7096134E1,3.6026714E0,2.522036E1,-1.55947275E1,1.0224518E1,-3.4769688E1,-8.58764E0,2.451747E1,-1.1423577E0,2.2371698E1,6.731158E1,2.541191E0,-2.612277E0,3.0095026E-2,1.9537089E0,-4.4507327E0,1.9011685E0,-1.6756849E-1,-4.054916E0,5.3014216E0,8.311624E-1,-1.121848E0,5.0829804E-1,3.8754601E0,1.655571E0,1.8204793E0,9.888458E0],"categories":[],"categories_nodes":[],"categories_segments":[],"categories_sizes":[],"default_left":[0,0,0,0,0,0,0,0,0,0,0,0,0,0,0,0,0,0,0,0,0,0,0,0,0,0,0,0,0,0,0],"id":28,"left_children":[1,3,5,7,9,11,13,15,17,19,21,23,25,27,29,-1,-1,-1,-1,-1,-1,-1,-1,-1,-1,-1,-1,-1,-1,-1,-1],"loss_changes":[2.052921E6,1.6351415E6,1.3051915E6,1.0758992E6,1.204356E6,1.00037E6,4.5738625E5,9.662539E5,5.3865344E5,1.3671142E6,1.1964249E6,8.590461E5,5.1578475E5,3.4291775E5,3.69535E5,0E0,0E0,0E0,0E0,0E0,0E0,0E0,0E0,0E0,0E0,0E0,0E0,0E0,0E0,0E0,0E0],"parents":[2147483647,0,0,1,1,2,2,3,3,4,4,5,5,6,6,7,7,8,8,9,9,10,10,11,11,12,12,13,13,14,14],"right_children":[2,4,6,8,10,12,14,16,18,20,22,24,26,28,30,-1,-1,-1,-1,-1,-1,-1,-1,-1,-1,-1,-1,-1,-1,-1,-1],"split_conditions":[9.183417E-2,-3.3204615E-1,5.5712426E-1,-6.093909E-1,-4.0153713E-17,-2.3044902E-1,2.2606115E0,-4.0153713E-17,-4.5844927E-1,2.456265E-1,1.3555628E0,-4.0153713E-17,-1.7175987E-1,-3.5318695E-5,2.5999328E-1,2.541191E0,-2.612277E0,3.0095026E-2,1.9537089E0,-4.4507327E0,1.9011685E0,-1.6756849E-1,-4.054916E0,5.3014216E0,8.311624E-1,-1.121848E0,5.0829804E-1,3.8754601E0,1.655571E0,1.8204793E0,9.888458E0],"split_indices":[636,614,682,682,515,614,682,515,693,455,411,515,461,516,308,0,0,0,0,0,0,0,0,0,0,0,0,0,0,0,0],"split_type":[0,0,0,0,0,0,0,0,0,0,0,0,0,0,0,0,0,0,0,0,0,0,0,0,0,0,0,0,0,0,0],"sum_hessian":[3.0002E4,1.6066E4,1.3936E4,8.053E3,8.013E3,1.0075E4,3.861E3,2.228E3,5.825E3,2.6E3,5.413E3,1.86E3,8.215E3,3.622E3,2.39E2,4.54E2,1.774E3,2.822E3,3.003E3,2.202E3,3.98E2,4.454E3,9.59E2,6.71E2,1.189E3,3.136E3,5.079E3,9.43E2,2.679E3,9.6E1,1.43E2],"tree_param":{"num_deleted":"0","num_feature":"704","num_nodes":"31","size_leaf_vector":"1"}},{"base_weights":[1.9380243E-2,-3.539444E0,1.5667279E1,-2.4514133E1,-4.2354563E-1,1.107079E1,4.7080894E1,5.7982726E0,-3.238408E1,7.946214E1,-1.197324E0,1.6706728E1,-1.2417229E1,3.884041E1,1.2845535E2,-6.0936294E0,5.1662025E0,1.5164303E0,-4.4242144E0,1.2316146E1,3.8035932E0,-2.9774795E0,4.1919526E-2,8.576681E-1,3.5691402E0,1.329399E0,-2.2385118E0,2.6753209E0,9.082847E0,3.6493282E0,1.8912672E1],"categories":[],"categories_nodes":[],"categories_segments":[],"categories_sizes":[],"default_left":[0,0,0,0,0,0,0,0,0,0,0,0,0,0,0,0,0,0,0,0,0,0,0,0,0,0,0,0,0,0,0],"id":29,"left_children":[1,3,5,7,9,11,13,15,17,19,21,23,25,27,29,-1,-1,-1,-1,-1,-1,-1,-1,-1,-1,-1,-1,-1,-1,-1,-1],"loss_changes":[1.6605098E6,1.5876226E6,7.95671E5,7.503025E5,1.3080362E6,6.3954975E5,4.5208738E5,2.0051046E6,1.4094492E6,3.4871988E5,9.681398E5,5.99637E5,2.4107638E5,3.9556838E5,3.2385362E5,0E0,0E0,0E0,0E0,0E0,0E0,0E0,0E0,0E0,0E0,0E0,0E0,0E0,0E0,0E0,0E0],"parents":[2147483647,0,0,1,1,2,2,3,3,4,4,5,5,6,6,7,7,8,8,9,9,10,10,11,11,12,12,13,13,14,14],"right_children":[2,4,6,8,10,12,14,16,18,20,22,24,26,28,30,-1,-1,-1,-1,-1,-1,-1,-1,-1,-1,-1,-1,-1,-1,-1,-1],"split_conditions":[7.718015E-1,-1.2249402E0,2.010609E0,-4.0153713E-17,-1.2249402E0,1.4043838E0,1.3199507E0,-6.1461943E-1,-6.1461943E-1,-3.896357E-1,-1.604644E0,4.1612524E-1,-2.2253995E-1,1.1155845E0,1.8917651E-1,-6.0936294E0,5.1662025E0,1.5164303E0,-4.4242144E0,1.2316146E1,3.8035932E0,-2.9774795E0,4.1919526E-2,8.576681E-1,3.5691402E0,1.329399E0,-2.2385118E0,2.6753209E0,9.082847E0,3.6493282E0,1.8912672E1],"split_indices":[616,338,616,515,360,594,3,697,675,594,682,697,198,548,176,0,0,0,0,0,0,0,0,0,0,0,0,0,0,0,0],"split_type":[0,0,0,0,0,0,0,0,0,0,0,0,0,0,0,0,0,0,0,0,0,0,0,0,0,0,0,0,0,0,0],"sum_hessian":[2.981E4,2.4289E4,5.521E3,3.138E3,2.1151E4,4.821E3,7E2,6.47E2,2.491E3,1.99E2,2.0952E4,3.889E3,9.32E2,6.41E2,5.9E1,2.63E2,3.84E2,4.97E2,1.994E3,9.3E1,1.06E2,1.118E3,1.9834E4,2.727E3,1.162E3,2.6E2,6.72E2,5.25E2,1.16E2,2.6E1,3.3E1],"tree_param":{"num_deleted":"0","num_feature":"704","num_nodes":"31","size_leaf_vector":"1"}},{"base_weights":[-1.0328465E0,-7.4530587E0,6.369357E0,-1.2894565E-1,-1.661066E1,2.151112E1,1.0479814E0,-3.5426426E1,2.0355797E0,-1.8591684E2,-1.5936059E1,4.709714E1,1.1476827E1,-5.0505047E0,1.4712387E1,-7.6416016E0,-2.2939692E0,9.794189E0,8.722871E-2,8.563617E0,-2.32213E1,-2.6603765E0,-6.314668E-1,2.4579713E0,9.01722E0,-3.434845E0,1.5498978E0,4.6788952E-1,-1.4322528E0,2.2592247E1,1.3696905E0],"categories":[],"categories_nodes":[],"categories_segments":[],"categories_sizes":[],"default_left":[0,0,0,0,0,0,0,0,0,0,0,0,0,0,0,0,0,0,0,0,0,0,0,0,0,0,0,0,0,0,0],"id":30,"left_children":[1,3,5,7,9,11,13,15,17,19,21,23,25,27,29,-1,-1,-1,-1,-1,-1,-1,-1,-1,-1,-1,-1,-1,-1,-1,-1],"loss_changes":[1.4278978E6,1.0791656E6,1.12441E6,6.8363725E5,8.047409E5,9.295269E5,8.6120406E5,2.5758244E5,9.402608E5,4.3158456E5,7.307215E5,9.8141975E5,4.8355953E5,6.449194E5,6.715509E5,0E0,0E0,0E0,0E0,0E0,0E0,0E0,0E0,0E0,0E0,0E0,0E0,0E0,0E0,0E0,0E0],"parents":[2147483647,0,0,1,1,2,2,3,3,4,4,5,5,6,6,7,7,8,8,9,9,10,10,11,11,12,12,13,13,14,14],"right_children":[2,4,6,8,10,12,14,16,18,20,22,24,26,28,30,-1,-1,-1,-1,-1,-1,-1,-1,-1,-1,-1,-1,-1,-1,-1,-1],"split_conditions":[9.201893E-2,-2.2275108E-1,-2.4994129E-1,-1.3662093E0,-3.4953513E0,-4.0153713E-17,5.1561004E-1,-1.0434973E0,-1.3662093E0,-9.4656813E-1,-6.56169E-2,9.8362374E-1,-1.2249402E0,4.6710992E-1,-2.670283E0,-7.6416016E0,-2.2939692E0,9.794189E0,8.722871E-2,8.563617E0,-2.32213E1,-2.6603765E0,-6.314668E-1,2.4579713E0,9.01722E0,-3.434845E0,1.5498978E0,4.6788952E-1,-1.4322528E0,2.2592247E1,1.3696905E0],"split_indices":[549,527,615,338,682,515,682,682,360,20,308,477,492,527,594,0,0,0,0,0,0,0,0,0,0,0,0,0,0,0,0],"split_type":[0,0,0,0,0,0,0,0,0,0,0,0,0,0,0,0,0,0,0,0,0,0,0,0,0,0,0,0,0,0,0],"sum_hessian":[3.0038E4,1.6086E4,1.3952E4,8.94E3,7.146E3,3.625E3,1.0327E4,5.13E2,8.427E3,2.4E1,7.122E3,1.017E3,2.608E3,7.142E3,3.185E3,1.15E2,3.98E2,9.7E1,8.33E3,3E0,2.1E1,3.374E3,3.748E3,6.72E2,3.45E2,2.08E2,2.4E3,3.486E3,3.656E3,1.1E1,3.174E3],"tree_param":{"num_deleted":"0","num_feature":"704","num_nodes":"31","size_leaf_vector":"1"}},{"base_weights":[-1.1075113E-1,-1.6311108E1,3.019399E0,8.112604E-1,-2.3201487E1,1.9559989E0,4.050227E1,-5.804617E1,5.222112E0,8.394156E0,-3.5728825E1,-1.6688345E1,4.3221908E0,8.017277E1,2.3134142E1,-4.137573E-1,-1.2660949E1,7.136459E0,1.4179154E-1,3.0396283E0,-8.297931E0,-4.7208304E0,-1.6240095E0,-1.6040872E-1,-3.683338E0,6.929166E0,3.6485422E-1,1.8825668E0,1.3965009E1,1.4665323E0,1.0960464E1],"categories":[],"categories_nodes":[],"categories_segments":[],"categories_sizes":[],"default_left":[0,0,0,0,0,0,0,0,0,0,0,0,0,0,0,0,0,0,0,0,0,0,0,0,0,0,0,0,0,0,0],"id":31,"left_children":[1,3,5,7,9,11,13,15,17,19,21,23,25,27,29,-1,-1,-1,-1,-1,-1,-1,-1,-1,-1,-1,-1,-1,-1,-1,-1],"loss_changes":[1.5247824E6,5.745224E5,1.0041285E6,3.649175E5,1.3754549E6,1.0815275E6,4.71417E5,3.6010138E5,3.284467E5,1.9983745E6,5.5331325E5,8.38749E5,9.509854E5,7.55692E5,3.516417E5,0E0,0E0,0E0,0E0,0E0,0E0,0E0,0E0,0E0,0E0,0E0,0E0,0E0,0E0,0E0,0E0],"parents":[2147483647,0,0,1,1,2,2,3,3,4,4,5,5,6,6,7,7,8,8,9,9,10,10,11,11,12,12,13,13,14,14],"right_children":[2,4,6,8,10,12,14,16,18,20,22,24,26,28,30,-1,-1,-1,-1,-1,-1,-1,-1,-1,-1,-1,-1,-1,-1,-1,-1],"split_conditions":[-8.386945E-1,-7.0705664E-1,2.010609E0,-1.844822E0,-4.0153713E-17,-1.2249402E0,-4.0153713E-17,6.0311425E-1,-2.670283E0,1.2249509E0,1.2249509E0,3.084935E-1,-1.2249402E0,3.4571275E-1,3.1074066E0,-4.137573E-1,-1.2660949E1,7.136459E0,1.4179154E-1,3.0396283E0,-8.297931E0,-4.7208304E0,-1.6240095E0,-1.6040872E-1,-3.683338E0,6.929166E0,3.6485422E-1,1.8825668E0,1.3965009E1,1.4665323E0,1.0960464E1],"split_indices":[682,425,616,44,515,338,515,5,660,513,513,587,360,374,682,0,0,0,0,0,0,0,0,0,0,0,0,0,0,0,0],"split_type":[0,0,0,0,0,0,0,0,0,0,0,0,0,0,0,0,0,0,0,0,0,0,0,0,0,0,0,0,0,0,0],"sum_hessian":[3.0061E4,4.865E3,2.5196E4,1.397E3,3.468E3,2.4505E4,6.91E2,9.4E1,1.303E3,9.85E2,2.483E3,2.757E3,2.1748E4,2.06E2,4.85E2,5.5E1,3.9E1,6.7E1,1.236E3,7.96E2,1.89E2,1.559E3,9.24E2,1.579E3,1.178E3,2.19E2,2.1529E4,1.04E2,1.02E2,4.46E2,3.9E1],"tree_param":{"num_deleted":"0","num_feature":"704","num_nodes":"31","size_leaf_vector":"1"}},{"base_weights":[-5.12097E-1,-4.244166E0,1.2918607E1,3.7382572E0,-1.141082E1,2.5799906E1,4.283837E0,-7.692087E-1,1.8371569E1,-3.3919167E1,-7.569357E0,5.748929E1,1.9475582E1,-5.237901E1,7.3096285E0,-1.7031176E0,2.9660803E-1,1.2813053E0,3.8452377E0,-4.3951383E0,1.9876884E-1,-3.2224667E0,-4.6158382E-1,4.5728483E0,1.4415003E1,1.3495914E0,4.4634986E0,-7.8156075E0,1.8742245E-1,3.205255E-1,3.0749214E0],"categories":[],"categories_nodes":[],"categories_segments":[],"categories_sizes":[],"default_left":[0,0,0,0,0,0,0,0,0,0,0,0,0,0,0,0,0,0,0,0,0,0,0,0,0,0,0,0,0,0,0],"id":32,"left_children":[1,3,5,7,9,11,13,15,17,19,21,23,25,27,29,-1,-1,-1,-1,-1,-1,-1,-1,-1,-1,-1,-1,-1,-1,-1,-1],"loss_changes":[1.5059019E6,1.345115E6,7.2619825E5,7.3385556E5,1.0701792E6,5.2079088E5,6.729206E5,5.1706828E5,2.9046212E5,6.505645E5,7.7041494E5,4.1592788E5,3.272037E5,2.789005E5,3.575771E5,0E0,0E0,0E0,0E0,0E0,0E0,0E0,0E0,0E0,0E0,0E0,0E0,0E0,0E0,0E0,0E0],"parents":[2147483647,0,0,1,1,2,2,3,3,4,4,5,5,6,6,7,7,8,8,9,9,10,10,11,11,12,12,13,13,14,14],"right_children":[2,4,6,8,10,12,14,16,18,20,22,24,26,28,30,-1,-1,-1,-1,-1,-1,-1,-1,-1,-1,-1,-1,-1,-1,-1,-1],"split_conditions":[6.686047E-1,-1.96482E-1,5.4639965E-1,4.2742613E-1,-6.4613587E-1,-9.845828E-1,-1.3882263E0,-8.2397413E-1,1.0920131E0,5.6820875E-1,-1.0027622E0,1.166229E0,9.380113E-1,-2.8117301E-2,9.5646876E-1,-1.7031176E0,2.9660803E-1,1.2813053E0,3.8452377E0,-4.3951383E0,1.9876884E-1,-3.2224667E0,-4.6158382E-1,4.5728483E0,1.4415003E1,1.3495914E0,4.4634986E0,-7.8156075E0,1.8742245E-1,3.205255E-1,3.0749214E0],"split_indices":[548,526,526,682,548,615,682,220,616,396,682,219,461,80,154,0,0,0,0,0,0,0,0,0,0,0,0,0,0,0,0],"split_type":[0,0,0,0,0,0,0,0,0,0,0,0,0,0,0,0,0,0,0,0,0,0,0,0,0,0,0,0,0,0,0],"sum_hessian":[3.0035E4,2.3506E4,6.529E3,1.1121E4,1.2385E4,2.617E3,3.912E3,8.505E3,2.616E3,1.801E3,1.0584E4,4.3E2,2.187E3,1.95E2,3.717E3,1.586E3,6.919E3,2.054E3,5.62E2,1.407E3,3.94E2,1.128E3,9.456E3,3.84E2,4.6E1,1.772E3,4.15E2,1.31E2,6.4E1,3.167E3,5.5E2],"tree_param":{"num_deleted":"0","num_feature":"704","num_nodes":"31","size_leaf_vector":"1"}},{"base_weights":[3.073188E-1,-1.9804337E1,2.5935078E0,-1.2740109E1,-4.358077E1,9.8171806E-1,3.033002E1,-3.1806664E1,-2.8765006E0,-8.449971E1,-1.82963E1,-4.5991626E0,7.2980843E0,5.310627E-1,4.0260918E1,-1.3348085E0,-5.8712106E0,5.908028E0,-7.119931E-1,-4.911993E0,-1.4752123E1,5.114818E0,-2.7546487E0,6.573851E-1,-1.0951556E0,2.286021E0,2.9702032E-1,-2.1640522E0,8.606597E0,2.7433624E0,7.075731E0],"categories":[],"categories_nodes":[],"categories_segments":[],"categories_sizes":[],"default_left":[0,0,0,0,0,0,0,0,0,0,0,0,0,0,0,0,0,0,0,0,0,0,0,0,0,0,0,0,0,0,0],"id":33,"left_children":[1,3,5,7,9,11,13,15,17,19,21,23,25,27,29,-1,-1,-1,-1,-1,-1,-1,-1,-1,-1,-1,-1,-1,-1,-1,-1],"loss_changes":[1.3838035E6,5.1374738E5,1.207994E6,4.4609344E5,7.200941E5,9.0058344E5,4.3906712E5,3.9862956E5,4.141768E5,5.663021E5,2.876334E5,9.62999E5,8.06858E5,7.186296E5,4.27606E5,0E0,0E0,0E0,0E0,0E0,0E0,0E0,0E0,0E0,0E0,0E0,0E0,0E0,0E0,0E0,0E0],"parents":[2147483647,0,0,1,1,2,2,3,3,4,4,5,5,6,6,7,7,8,8,9,9,10,10,11,11,12,12,13,13,14,14],"right_children":[2,4,6,8,10,12,14,16,18,20,22,24,26,28,30,-1,-1,-1,-1,-1,-1,-1,-1,-1,-1,-1,-1,-1,-1,-1,-1],"split_conditions":[-1.1555687E0,1.224352E0,1.5586545E0,-3.995809E-1,-4.0153713E-17,9.183417E-2,-4.0153713E-17,6.303947E-1,-9.47589E-1,8.4698594E-1,-1.6631285E0,-6.211081E-1,-1.2247615E-1,1.0110481E0,1.2249509E0,-1.3348085E0,-5.8712106E0,5.908028E0,-7.119931E-1,-4.911993E0,-1.4752123E1,5.114818E0,-2.7546487E0,6.573851E-1,-1.0951556E0,2.286021E0,2.9702032E-1,-2.1640522E0,8.606597E0,2.7433624E0,7.075731E0],"split_indices":[616,74,682,637,515,636,515,14,615,3,278,614,614,350,403,0,0,0,0,0,0,0,0,0,0,0,0,0,0,0,0],"split_type":[0,0,0,0,0,0,0,0,0,0,0,0,0,0,0,0,0,0,0,0,0,0,0,0,0,0,0,0,0,0,0],"sum_hessian":[3.0088E4,3.068E3,2.702E4,2.37E3,6.98E2,2.554E4,1.48E3,8.05E2,1.565E3,2.63E2,4.35E2,1.356E4,1.198E4,3.71E2,1.109E3,4.81E2,3.24E2,9.7E1,1.468E3,1.73E2,9E1,4.9E1,3.86E2,4.915E3,8.645E3,2.603E3,9.377E3,2.97E2,7.4E1,7.86E2,3.23E2],"tree_param":{"num_deleted":"0","num_feature":"704","num_nodes":"31","size_leaf_vector":"1"}},{"base_weights":[2.4697149E-1,-5.9482636E0,6.7256393E0,2.6205306E0,-1.3122248E1,1.8484968E1,1.2059801E0,-1.9193861E1,6.1198525E0,-7.930509E1,-1.1903526E1,1.1970832E1,3.5191086E1,-3.0920315E0,1.8587E1,-5.639927E0,-6.9918627E-1,-2.1408677E-1,1.2874241E0,-1.1889092E1,-1.01852E0,-2.791957E0,-6.5021676E-1,3.7570112E0,6.586007E-1,6.6478906E0,1.9386257E0,-2.801873E0,-2.6282815E-2,2.6934183E0,-2.1041325E-1],"categories":[],"categories_nodes":[],"categories_segments":[],"categories_sizes":[],"default_left":[0,0,0,0,0,0,0,0,0,0,0,0,0,0,0,0,0,0,0,0,0,0,0,0,0,0,0,0,0,0,0],"id":34,"left_children":[1,3,5,7,9,11,13,15,17,19,21,23,25,27,29,-1,-1,-1,-1,-1,-1,-1,-1,-1,-1,-1,-1,-1,-1,-1,-1],"loss_changes":[1.2022595E6,9.41405E5,9.502824E5,5.3336594E5,6.68494E5,5.072845E5,7.4495544E5,4.3695506E5,3.359492E5,4.055557E5,7.076841E5,4.6368588E5,6.426211E5,5.638644E5,3.4168456E5,0E0,0E0,0E0,0E0,0E0,0E0,0E0,0E0,0E0,0E0,0E0,0E0,0E0,0E0,0E0,0E0],"parents":[2147483647,0,0,1,1,2,2,3,3,4,4,5,5,6,6,7,7,8,8,9,9,10,10,11,11,12,12,13,13,14,14],"right_children":[2,4,6,8,10,12,14,16,18,20,22,24,26,28,30,-1,-1,-1,-1,-1,-1,-1,-1,-1,-1,-1,-1,-1,-1,-1,-1],"split_conditions":[4.8309125E-2,-4.360245E-1,6.9856174E-2,-1.1555687E0,-2.280542E0,4.8617488E-1,8.6923534E-1,-3.5318695E-5,-1.4680709E-1,1.000188E0,-7.377164E-1,-9.093179E-1,-4.0153713E-17,-1.2249402E0,3.7222475E-1,-5.639927E0,-6.9918627E-1,-2.1408677E-1,1.2874241E0,-1.1889092E1,-1.01852E0,-2.791957E0,-6.5021676E-1,3.7570112E0,6.586007E-1,6.6478906E0,1.9386257E0,-2.801873E0,-2.6282815E-2,2.6934183E0,-2.1041325E-1],"split_indices":[548,526,526,682,682,396,682,516,549,381,548,594,515,426,14,0,0,0,0,0,0,0,0,0,0,0,0,0,0,0,0],"split_type":[0,0,0,0,0,0,0,0,0,0,0,0,0,0,0,0,0,0,0,0,0,0,0,0,0,0,0,0,0,0,0],"sum_hessian":[2.9946E4,1.5308E4,1.4638E4,6.977E3,8.331E3,4.673E3,9.965E3,9.62E2,6.015E3,1.46E2,8.185E3,3.367E3,1.306E3,7.992E3,1.973E3,2.34E2,7.28E2,2.707E3,3.308E3,9.1E1,5.5E1,2.06E3,6.125E3,5.81E2,2.786E3,4.34E2,8.72E2,8.11E2,7.181E3,1.405E3,5.68E2],"tree_param":{"num_deleted":"0","num_feature":"704","num_nodes":"31","size_leaf_vector":"1"}},{"base_weights":[5.854237E-2,-3.1688333E0,1.1063008E1,-1.2472081E1,6.14869E-1,-5.626097E0,1.693082E1,-3.0621058E1,-6.4232907E0,4.132456E0,-1.0964215E1,-3.5123283E1,9.11641E0,9.314566E0,3.2839046E1,-4.468202E0,4.300094E0,1.3482955E0,-1.2510626E0,-8.582489E-2,1.1925663E0,1.3492949E0,-1.8848637E0,3.1347566E0,-4.3025575E0,1.3485045E0,-4.0863566E0,1.9430827E0,-6.36044E-1,4.258623E0,9.459999E-1],"categories":[],"categories_nodes":[],"categories_segments":[],"categories_sizes":[],"default_left":[0,0,0,0,0,0,0,0,0,0,0,0,0,0,0,0,0,0,0,0,0,0,0,0,0,0,0,0,0,0,0],"id":35,"left_children":[1,3,5,7,9,11,13,15,17,19,21,23,25,27,29,-1,-1,-1,-1,-1,-1,-1,-1,-1,-1,-1,-1,-1,-1,-1,-1],"loss_changes":[1.062625E6,8.1440175E5,6.6482844E5,7.3352006E5,6.701956E5,7.701228E5,6.071179E5,1.7374988E6,6.092203E5,4.9088025E5,7.4033075E5,3.153078E5,2.6028169E5,5.398018E5,3.6845512E5,0E0,0E0,0E0,0E0,0E0,0E0,0E0,0E0,0E0,0E0,0E0,0E0,0E0,0E0,0E0,0E0],"parents":[2147483647,0,0,1,1,2,2,3,3,4,4,5,5,6,6,7,7,8,8,9,9,10,10,11,11,12,12,13,13,14,14],"right_children":[2,4,6,8,10,12,14,16,18,20,22,24,26,28,30,-1,-1,-1,-1,-1,-1,-1,-1,-1,-1,-1,-1,-1,-1,-1,-1],"split_conditions":[6.3246655E-1,-4.6884042E-1,-3.5318695E-5,-4.0153713E-17,4.7683653E-1,5.383668E-2,4.6718708E-1,7.633905E-1,-9.9997354E-1,-2.7650467E-1,-3.5318695E-5,-9.9997354E-1,2.2505083E0,1.9710004E-1,6.435319E-1,-4.468202E0,4.300094E0,1.3482955E0,-1.2510626E0,-8.582489E-2,1.1925663E0,1.3492949E0,-1.8848637E0,3.1347566E0,-4.3025575E0,1.3485045E0,-4.0863566E0,1.9430827E0,-6.36044E-1,4.258623E0,9.459999E-1],"split_indices":[638,308,516,515,594,682,153,412,315,693,516,381,346,57,615,0,0,0,0,0,0,0,0,0,0,0,0,0,0,0,0],"split_type":[0,0,0,0,0,0,0,0,0,0,0,0,0,0,0,0,0,0,0,0,0,0,0,0,0,0,0,0,0,0,0],"sum_hessian":[2.9912E4,2.3131E4,6.781E3,6.685E3,1.6446E4,1.764E3,5.017E3,1.667E3,5.018E3,1.2616E4,3.83E3,5.86E2,1.178E3,3.397E3,1.62E3,1.401E3,2.66E2,1.174E3,3.844E3,7.693E3,4.923E3,9.33E2,2.897E3,6.1E1,5.25E2,1.086E3,9.2E1,2.064E3,1.333E3,1.141E3,4.79E2],"tree_param":{"num_deleted":"0","num_feature":"704","num_nodes":"31","size_leaf_vector":"1"}},{"base_weights":[1.253971E-1,-7.282444E0,4.745752E0,-4.955603E0,-3.4441895E1,1.3048145E1,-2.3650818E0,-2.0001953E0,-2.658971E1,-4.925754E1,-1.0698671E1,3.0047508E1,7.44246E0,-4.5105606E1,-4.0110183E-1,1.3365172E-1,-2.105604E0,3.9668756E0,-3.9358711E0,-3.1991847E0,-9.215698E0,8.9992575E-2,-5.2472844E0,6.8275847E0,8.780385E-1,-2.287347E0,1.2162048E0,-2.1189692E0,-8.7640295E0,-1.7577664E0,4.6467614E-1],"categories":[],"categories_nodes":[],"categories_segments":[],"categories_sizes":[],"default_left":[0,0,0,0,0,0,0,0,0,0,0,0,0,0,0,0,0,0,0,0,0,0,0,0,0,0,0,0,0,0,0],"id":36,"left_children":[1,3,5,7,9,11,13,15,17,19,21,23,25,27,29,-1,-1,-1,-1,-1,-1,-1,-1,-1,-1,-1,-1,-1,-1,-1,-1],"loss_changes":[1.0260192E6,7.270081E5,1.0900655E6,6.782235E5,3.1728838E5,8.108044E5,8.3496894E5,5.939899E5,1.0849648E6,4.014865E5,1.7171992E5,1.7138438E6,9.183881E5,4.3709094E5,8.2532675E5,0E0,0E0,0E0,0E0,0E0,0E0,0E0,0E0,0E0,0E0,0E0,0E0,0E0,0E0,0E0,0E0],"parents":[2147483647,0,0,1,1,2,2,3,3,4,4,5,5,6,6,7,7,8,8,9,9,10,10,11,11,12,12,13,13,14,14],"right_children":[2,4,6,8,10,12,14,16,18,20,22,24,26,28,30,-1,-1,-1,-1,-1,-1,-1,-1,-1,-1,-1,-1,-1,-1,-1,-1],"split_conditions":[-2.1353157E-1,5.7946914E-1,2.2146706E-1,1.8065541E0,-4.0153713E-17,-4.0153713E-17,-1.6567951E0,1.3656211E0,-4.0153713E-17,5.8204633E-1,8.110705E-1,-1.0002134E0,-1.0002134E0,1.0111998E0,-4.0153713E-17,1.3365172E-1,-2.105604E0,3.9668756E0,-3.9358711E0,-3.1991847E0,-9.215698E0,8.9992575E-2,-5.2472844E0,6.8275847E0,8.780385E-1,-2.287347E0,1.2162048E0,-2.1189692E0,-8.7640295E0,-1.7577664E0,4.6467614E-1],"split_indices":[637,615,615,367,515,515,682,250,515,102,43,514,514,593,515,0,0,0,0,0,0,0,0,0,0,0,0,0,0,0,0],"split_type":[0,0,0,0,0,0,0,0,0,0,0,0,0,0,0,0,0,0,0,0,0,0,0,0,0,0,0,0,0,0,0],"sum_hessian":[2.9969E4,1.1511E4,1.8458E4,1.0607E4,9.04E2,8.514E3,9.944E3,9.336E3,1.271E3,5.54E2,3.5E2,2.107E3,6.407E3,4.33E2,9.511E3,7.948E3,1.388E3,2.04E2,1.067E3,4E2,1.54E2,2.77E2,7.3E1,7.5E2,1.357E3,8.61E2,5.546E3,2.81E2,1.52E2,2.158E3,7.353E3],"tree_param":{"num_deleted":"0","num_feature":"704","num_nodes":"31","size_leaf_vector":"1"}},{"base_weights":[2.9914165E-1,-1.3508175E1,2.770034E0,-2.7626316E1,-2.9988613E0,1.6639193E1,-1.8432954E-1,-6.137603E1,-1.1310177E1,-1.4440838E-1,-4.641363E1,1.237005E1,5.9965786E1,-2.3082848E0,1.7016989E1,-4.112209E0,-1.0931426E1,-1.4712779E-1,-3.8126252E0,4.739007E-1,-2.7601085E0,9.494274E0,-5.5306263E0,3.7248993E0,7.7292913E-1,3.7683525E0,9.633914E0,-8.7493557E-1,3.2514116E-1,3.8201215E0,4.6490237E-1],"categories":[],"categories_nodes":[],"categories_segments":[],"categories_sizes":[],"default_left":[0,0,0,0,0,0,0,0,0,0,0,0,0,0,0,0,0,0,0,0,0,0,0,0,0,0,0,0,0,0,0],"id":37,"left_children":[1,3,5,7,9,11,13,15,17,19,21,23,25,27,29,-1,-1,-1,-1,-1,-1,-1,-1,-1,-1,-1,-1,-1,-1,-1,-1],"loss_changes":[1.0215242E6,6.74013E5,1.04064606E6,1.0649484E6,3.2340925E5,8.219731E5,7.6523E5,5.9465125E5,3.4592662E5,3.2943178E5,2.2337766E5,4.6817288E5,3.0883325E5,6.67728E5,6.024184E5,0E0,0E0,0E0,0E0,0E0,0E0,0E0,0E0,0E0,0E0,0E0,0E0,0E0,0E0,0E0,0E0],"parents":[2147483647,0,0,1,1,2,2,3,3,4,4,5,5,6,6,7,7,8,8,9,9,10,10,11,11,12,12,13,13,14,14],"right_children":[2,4,6,8,10,12,14,16,18,20,22,24,26,28,30,-1,-1,-1,-1,-1,-1,-1,-1,-1,-1,-1,-1,-1,-1,-1,-1],"split_conditions":[-8.921977E-1,-1.625258E-1,-5.7064384E-1,-4.0153713E-17,2.569558E0,8.5510266E-1,1.3019223E0,3.3657885E-1,7.026678E-1,1.3656211E0,-2.0270092E0,-1.0434973E0,6.434272E-1,-3.482242E-2,9.371252E-1,-4.112209E0,-1.0931426E1,-1.4712779E-1,-3.8126252E0,4.739007E-1,-2.7601085E0,9.494274E0,-5.5306263E0,3.7248993E0,7.7292913E-1,3.7683525E0,9.633914E0,-8.7493557E-1,3.2514116E-1,3.8201215E0,4.6490237E-1],"split_indices":[548,418,526,515,367,460,548,594,499,250,526,594,461,374,526,0,0,0,0,0,0,0,0,0,0,0,0,0,0,0,0],"split_type":[0,0,0,0,0,0,0,0,0,0,0,0,0,0,0,0,0,0,0,0,0,0,0,0,0,0,0,0,0,0,0],"sum_hessian":[2.9934E4,4.541E3,2.5393E4,1.935E3,2.606E3,4.456E3,2.0937E4,6.27E2,1.308E3,2.449E3,1.57E2,4.061E3,3.95E2,1.8639E4,2.298E3,4.46E2,1.81E2,9.6E2,3.48E2,2.082E3,3.67E2,7E0,1.5E2,6.34E2,3.427E3,2.5E2,1.45E2,8.634E3,1.0005E4,8.44E2,1.454E3],"tree_param":{"num_deleted":"0","num_feature":"704","num_nodes":"31","size_leaf_vector":"1"}},{"base_weights":[-7.400935E-1,-1.8687294E1,1.3824655E0,-8.073546E1,-1.672899E1,-8.422878E0,4.4943156E0,4.2051727E-1,-1.1765305E2,-2.1968262E1,4.370421E0,8.539711E0,-1.6395163E1,-8.9711905E-1,1.0481218E1,5.976534E0,-3.0498073E0,-7.9311805E0,-2.8050047E1,-1.5597525E0,-4.6304173E0,-4.1806993E0,1.2383755E0,-1.6226867E-1,2.601554E0,-1.1689847E1,-1.4685178E0,4.2999658E-1,-8.673202E-1,7.4796146E-1,3.7586124E0],"categories":[],"categories_nodes":[],"categories_segments":[],"categories_sizes":[],"default_left":[0,0,0,0,0,0,0,0,0,0,0,0,0,0,0,0,0,0,0,0,0,0,0,0,0,0,0,0,0,0,0],"id":38,"left_children":[1,3,5,7,9,11,13,15,17,19,21,23,25,27,29,-1,-1,-1,-1,-1,-1,-1,-1,-1,-1,-1,-1,-1,-1,-1,-1],"loss_changes":[1.1425456E6,3.80005E5,8.185639E5,2.8784538E5,3.4086788E5,8.7455675E5,6.573163E5,6.968194E4,3.2302906E5,3.7973162E5,2.3000658E5,3.676206E5,7.4894325E5,4.332962E5,7.838915E5,0E0,0E0,0E0,0E0,0E0,0E0,0E0,0E0,0E0,0E0,0E0,0E0,0E0,0E0,0E0,0E0],"parents":[2147483647,0,0,1,1,2,2,3,3,4,4,5,5,6,6,7,7,8,8,9,9,10,10,11,11,12,12,13,13,14,14],"right_children":[2,4,6,8,10,12,14,16,18,20,22,24,26,28,30,-1,-1,-1,-1,-1,-1,-1,-1,-1,-1,-1,-1,-1,-1,-1,-1],"split_conditions":[-1.1323277E0,-3.4924283E0,-5.726909E-1,-4.7803572E-1,5.8978665E-1,-1.1130501E0,-2.7650467E-1,3.502296E-3,2.601701E-1,3.8199568E-1,-7.529154E-1,-1.1842604E0,-2.280542E0,1.3056591E-1,9.2846924E-1,5.976534E0,-3.0498073E0,-7.9311805E0,-2.8050047E1,-1.5597525E0,-4.6304173E0,-4.1806993E0,1.2383755E0,-1.6226867E-1,2.601554E0,-1.1689847E1,-1.4685178E0,4.2999658E-1,-8.673202E-1,7.4796146E-1,3.7586124E0],"split_indices":[220,264,549,504,460,527,693,20,462,438,108,549,682,264,697,0,0,0,0,0,0,0,0,0,0,0,0,0,0,0,0],"split_type":[0,0,0,0,0,0,0,0,0,0,0,0,0,0,0,0,0,0,0,0,0,0,0,0,0,0,0,0,0,0,0],"sum_hessian":[2.9986E4,3.168E3,2.6818E4,9.2E1,3.076E3,6.459E3,2.0359E4,3E1,6.2E1,2.464E3,6.12E2,2.065E3,4.394E3,1.0714E4,9.645E3,9E0,2.1E1,5.5E1,7E0,1.958E3,5.06E2,8.8E1,5.24E2,1.308E3,7.57E2,6.9E1,4.325E3,6.423E3,4.291E3,8.688E3,9.57E2],"tree_param":{"num_deleted":"0","num_feature":"704","num_nodes":"31","size_leaf_vector":"1"}},{"base_weights":[3.449122E-1,-1.1157235E1,3.7942536E0,-5.908675E0,-3.159364E1,2.7410004E0,4.2457466E1,-1.0757919E1,1.6216406E1,-3.3863197E1,4.7320244E1,3.952629E1,1.8910421E0,-2.17483E2,4.6049908E1,-8.418704E0,-9.201023E-1,5.3353105E0,5.111706E-1,-2.5182018E0,-5.387372E0,-2.890323E0,7.912928E0,7.410951E0,1.2223915E0,-4.9951035E-1,6.088368E-1,-6.585177E-1,-2.4052765E1,4.0607586E0,2.2440355E1],"categories":[],"categories_nodes":[],"categories_segments":[],"categories_sizes":[],"default_left":[0,0,0,0,0,0,0,0,0,0,0,0,0,0,0,0,0,0,0,0,0,0,0,0,0,0,0,0,0,0,0],"id":39,"left_children":[1,3,5,7,9,11,13,15,17,19,21,23,25,27,29,-1,-1,-1,-1,-1,-1,-1,-1,-1,-1,-1,-1,-1,-1,-1,-1],"loss_changes":[1.1848981E6,7.3827894E5,9.351169E5,5.8939656E5,2.5840025E5,6.9911225E5,6.087229E5,5.1167256E5,4.0634062E5,2.3254712E5,1.0856684E5,4.7318238E5,6.322103E5,3.735547E4,5.4977425E5,0E0,0E0,0E0,0E0,0E0,0E0,0E0,0E0,0E0,0E0,0E0,0E0,0E0,0E0,0E0,0E0],"parents":[2147483647,0,0,1,1,2,2,3,3,4,4,5,5,6,6,7,7,8,8,9,9,10,10,11,11,12,12,13,13,14,14],"right_children":[2,4,6,8,10,12,14,16,18,20,22,24,26,28,30,-1,-1,-1,-1,-1,-1,-1,-1,-1,-1,-1,-1,-1,-1,-1,-1],"split_conditions":[-6.093909E-1,6.214484E-1,2.128515E0,4.9618185E-1,1.9208416E0,-1.7160579E0,-2.9404387E0,-3.4953513E0,-1.1555687E0,7.3054427E-1,4.039389E-3,-1.604644E0,-2.2255272E-1,-1.5457271E0,2.4108655E0,-8.418704E0,-9.201023E-1,5.3353105E0,5.111706E-1,-2.5182018E0,-5.387372E0,-2.890323E0,7.912928E0,7.410951E0,1.2223915E0,-4.9951035E-1,6.088368E-1,-6.585177E-1,-2.4052765E1,4.0607586E0,2.2440355E1],"split_indices":[682,176,682,154,417,594,152,682,594,695,43,572,637,3,483,0,0,0,0,0,0,0,0,0,0,0,0,0,0,0,0],"split_type":[0,0,0,0,0,0,0,0,0,0,0,0,0,0,0,0,0,0,0,0,0,0,0,0,0,0,0,0,0,0,0],"sum_hessian":[2.9857E4,6.886E3,2.2971E4,5.483E3,1.403E3,2.2366E4,6.05E2,4.499E3,9.84E2,1.366E3,3.7E1,5.01E2,2.1865E4,5E0,6E2,8.9E1,4.41E3,2.23E2,7.61E2,9.59E2,4.07E2,1.1E1,2.6E1,2.18E2,2.83E2,8.28E3,1.3585E4,1E0,4E0,5.87E2,1.3E1],"tree_param":{"num_deleted":"0","num_feature":"704","num_nodes":"31","size_leaf_vector":"1"}},{"base_weights":[-8.7869436E-2,-9.468506E0,3.5196068E0,9.2932904E-1,-1.5579897E1,6.9915245E1,3.0014107E0,-2.0235667E0,4.2339138E1,-1.3574163E1,-6.1654743E1,2.1974121E1,1.3349626E2,-8.900395E-1,1.1150117E1,1.0749898E0,-1.362365E0,2.0694942E0,1.0442725E1,-5.2980304E-1,-2.3796332E0,1.7454427E0,-7.7252755E0,-3.00225E0,6.6703897E0,3.5255036E0,1.941831E1,4.4059333E-1,-1.2138127E0,2.0992632E0,5.0067824E-1],"categories":[],"categories_nodes":[],"categories_segments":[],"categories_sizes":[],"default_left":[0,0,0,0,0,0,0,0,0,0,0,0,0,0,0,0,0,0,0,0,0,0,0,0,0,0,0,0,0,0,0],"id":40,"left_children":[1,3,5,7,9,11,13,15,17,19,21,23,25,27,29,-1,-1,-1,-1,-1,-1,-1,-1,-1,-1,-1,-1,-1,-1,-1,-1],"loss_changes":[1.0114894E6,5.2761344E5,7.419018E5,3.766028E5,4.798695E5,4.972753E5,6.7943456E5,4.2673266E5,2.6681922E5,4.238437E5,2.731718E5,2.4059753E5,3.9586875E5,8.642125E5,4.1830056E5,0E0,0E0,0E0,0E0,0E0,0E0,0E0,0E0,0E0,0E0,0E0,0E0,0E0,0E0,0E0,0E0],"parents":[2147483647,0,0,1,1,2,2,3,3,4,4,5,5,6,6,7,7,8,8,9,9,10,10,11,11,12,12,13,13,14,14],"right_children":[2,4,6,8,10,12,14,16,18,20,22,24,26,28,30,-1,-1,-1,-1,-1,-1,-1,-1,-1,-1,-1,-1,-1,-1,-1,-1],"split_conditions":[-4.6884042E-1,-2.50068E-1,-2.279868E0,1.2449442E0,1.3491848E0,9.123431E-2,4.0936044E-1,-6.151321E-1,8.256961E-1,1.9259267E-2,-8.526401E-1,-7.516102E-1,-1.7076455E-1,1.6826545E-1,3.9944324E-1,1.0749898E0,-1.362365E0,2.0694942E0,1.0442725E1,-5.2980304E-1,-2.3796332E0,1.7454427E0,-7.7252755E0,-3.00225E0,6.6703897E0,3.5255036E0,1.941831E1,4.4059333E-1,-1.2138127E0,2.0992632E0,5.0067824E-1],"split_indices":[682,109,594,548,289,396,636,676,549,438,99,638,264,614,614,0,0,0,0,0,0,0,0,0,0,0,0,0,0,0,0],"split_type":[0,0,0,0,0,0,0,0,0,0,0,0,0,0,0,0,0,0,0,0,0,0,0,0,0,0,0,0,0,0,0],"sum_hessian":[2.9882E4,8.298E3,2.1584E4,3.073E3,5.225E3,1.63E2,2.1421E4,2.872E3,2.01E2,5.012E3,2.13E2,9.6E1,6.7E1,1.45E4,6.921E3,1.367E3,1.505E3,1.53E2,4.8E1,2.773E3,2.239E3,3.5E1,1.78E2,4.5E1,5.1E1,2.8E1,3.9E1,9.86E3,4.64E3,2.656E3,4.265E3],"tree_param":{"num_deleted":"0","num_feature":"704","num_nodes":"31","size_leaf_vector":"1"}},{"base_weights":[1.115041E-1,-4.740339E0,5.2171865E0,-8.926283E-1,-1.5107619E1,6.205103E-1,1.5368474E1,2.1042547E-1,-3.443209E1,-3.9438843E1,-6.077582E0,1.1178812E1,-5.395508E0,9.496828E1,1.427429E1,2.688591E-1,-1.6201565E0,-1.4335494E1,-2.268498E0,-8.603454E0,-2.701385E0,-3.6701505E0,3.8477048E-1,9.201172E-1,5.77374E0,3.7007833E0,-7.1553963E-1,2.6326497E0,1.8331276E1,1.1981639E0,4.722237E0],"categories":[],"categories_nodes":[],"categories_segments":[],"categories_sizes":[],"default_left":[0,0,0,0,0,0,0,0,0,0,0,0,0,0,0,0,0,0,0,0,0,0,0,0,0,0,0,0,0,0,0],"id":41,"left_children":[1,3,5,7,9,11,13,15,17,19,21,23,25,27,29,-1,-1,-1,-1,-1,-1,-1,-1,-1,-1,-1,-1,-1,-1,-1,-1],"loss_changes":[7.423663E5,6.1289706E5,6.813198E5,4.147961E5,9.1281375E5,6.389253E5,3.9093338E5,4.4178403E5,4.4375047E5,6.420005E5,9.239751E5,3.340316E5,4.792512E5,3.505657E5,3.3719494E5,0E0,0E0,0E0,0E0,0E0,0E0,0E0,0E0,0E0,0E0,0E0,0E0,0E0,0E0,0E0,0E0],"parents":[2147483647,0,0,1,1,2,2,3,3,4,4,5,5,6,6,7,7,8,8,9,9,10,10,11,11,12,12,13,13,14,14],"right_children":[2,4,6,8,10,12,14,16,18,20,22,24,26,28,30,-1,-1,-1,-1,-1,-1,-1,-1,-1,-1,-1,-1,-1,-1,-1,-1],"split_conditions":[-3.5952336E-1,4.5776916E-1,4.7683644E-1,1.4043838E0,-4.0153713E-17,-3.9997217E-1,-4.3122804E-1,1.3656211E0,-7.6529175E-1,-6.9709414E-1,-1.0002134E0,2.010609E0,-1.6567951E0,3.700675E-1,1.6506346E0,2.688591E-1,-1.6201565E0,-1.4335494E1,-2.268498E0,-8.603454E0,-2.701385E0,-3.6701505E0,3.8477048E-1,9.201172E-1,5.77374E0,3.7007833E0,-7.1553963E-1,2.6326497E0,1.8331276E1,1.1981639E0,4.722237E0],"split_indices":[693,615,549,594,515,527,627,250,682,418,492,616,594,522,418,0,0,0,0,0,0,0,0,0,0,0,0,0,0,0,0],"split_type":[0,0,0,0,0,0,0,0,0,0,0,0,0,0,0,0,0,0,0,0,0,0,0,0,0,0,0,0,0,0,0],"sum_hessian":[2.996E4,1.5362E4,1.4598E4,1.1207E4,4.155E3,1.0051E4,4.547E3,1.0854E4,3.53E2,1.121E3,3.034E3,3.647E3,6.404E3,5.7E1,4.49E3,9.433E3,1.421E3,3E1,3.23E2,2.31E2,8.9E2,7.4E2,2.294E3,3.503E3,1.44E2,2.52E2,6.152E3,3.5E1,2.2E1,4.203E3,2.87E2],"tree_param":{"num_deleted":"0","num_feature":"704","num_nodes":"31","size_leaf_vector":"1"}},{"base_weights":[-6.810702E-2,-7.831762E0,3.3297489E0,-3.5765529E0,-2.3696585E1,-3.847614E-1,1.0939981E1,-1.09218056E2,-3.0452976E0,-1.298999E2,-2.0775888E1,9.66816E0,-4.55538E0,1.2663658E1,-3.6786278E1,-1.7693945E1,6.502421E0,-1.0065409E-1,-3.3125577E0,-1.8035019E1,2.5535166E0,-2.817476E0,1.1359428E0,3.5464196E0,2.5998804E-1,-6.534337E0,-3.5460624E-1,1.2461647E-1,1.8169278E0,-5.296643E0,1.1016415E0],"categories":[],"categories_nodes":[],"categories_segments":[],"categories_sizes":[],"default_left":[0,0,0,0,0,0,0,0,0,0,0,0,0,0,0,0,0,0,0,0,0,0,0,0,0,0,0,0,0,0,0],"id":42,"left_children":[1,3,5,7,9,11,13,15,17,19,21,23,25,27,29,-1,-1,-1,-1,-1,-1,-1,-1,-1,-1,-1,-1,-1,-1,-1,-1],"loss_changes":[7.927121E5,6.1722006E5,5.908826E5,4.037401E5,5.890776E5,5.892481E5,5.6586506E5,4.708412E5,4.4055112E5,4.1838112E5,4.499462E5,7.510204E5,6.0849225E5,4.1604125E5,1.8797156E5,0E0,0E0,0E0,0E0,0E0,0E0,0E0,0E0,0E0,0E0,0E0,0E0,0E0,0E0,0E0,0E0],"parents":[2147483647,0,0,1,1,2,2,3,3,4,4,5,5,6,6,7,7,8,8,9,9,10,10,11,11,12,12,13,13,14,14],"right_children":[2,4,6,8,10,12,14,16,18,20,22,24,26,28,30,-1,-1,-1,-1,-1,-1,-1,-1,-1,-1,-1,-1,-1,-1,-1,-1],"split_conditions":[-3.8944972E-1,8.441977E-2,3.995934E-1,-3.4953513E0,-1.9257618E0,-5.707611E-1,1.4138054E0,3.035975E-1,2.4668455E0,5.36276E-1,7.845436E-1,-4.0153713E-17,-2.1301777E0,-2.9513046E-1,6.1217004E-1,-1.7693945E1,6.502421E0,-1.0065409E-1,-3.3125577E0,-1.8035019E1,2.5535166E0,-2.817476E0,1.1359428E0,3.5464196E0,2.5998804E-1,-6.534337E0,-3.5460624E-1,1.2461647E-1,1.8169278E0,-5.296643E0,1.1016415E0],"split_indices":[636,614,682,682,682,594,294,306,345,0,374,515,682,66,637,0,0,0,0,0,0,0,0,0,0,0,0,0,0,0,0],"split_type":[0,0,0,0,0,0,0,0,0,0,0,0,0,0,0,0,0,0,0,0,0,0,0,0,0,0,0,0,0,0,0],"sum_hessian":[3.0042E4,9.144E3,2.0898E4,7.214E3,1.93E3,1.4046E4,6.852E3,3.2E1,7.182E3,4.7E1,1.883E3,4.117E3,9.929E3,6.616E3,2.36E2,2.3E1,9E0,6.73E3,4.52E2,3.5E1,1.2E1,1.531E3,3.52E2,8.82E2,3.235E3,1.58E2,9.771E3,2.154E3,4.462E3,1.76E2,6E1],"tree_param":{"num_deleted":"0","num_feature":"704","num_nodes":"31","size_leaf_vector":"1"}},{"base_weights":[4.480055E-1,-5.888701E0,4.384519E0,1.5793647E0,-1.3500367E1,1.9033371E1,2.2244165E0,-2.845337E1,4.6496086E0,-6.8442526E0,-2.6984932E1,3.8967587E1,8.417582E0,-4.686529E0,8.215609E0,-4.2373595E0,-5.228551E-2,7.6943946E0,3.3532867E-1,-1.2576962E0,8.5885346E-1,-9.822618E0,-2.451085E0,-1.3938651E0,6.0153103E0,1.4713718E0,-1.7937173E0,-1.9578935E-1,-2.7987473E0,2.0003633E0,3.7678748E-1],"categories":[],"categories_nodes":[],"categories_segments":[],"categories_sizes":[],"default_left":[0,0,0,0,0,0,0,0,0,0,0,0,0,0,0,0,0,0,0,0,0,0,0,0,0,0,0,0,0,0,0],"id":43,"left_children":[1,3,5,7,9,11,13,15,17,19,21,23,25,27,29,-1,-1,-1,-1,-1,-1,-1,-1,-1,-1,-1,-1,-1,-1,-1,-1],"loss_changes":[7.510331E5,6.5590175E5,5.87469E5,5.3781944E5,5.1211344E5,5.035978E5,6.704571E5,2.102431E5,4.9471353E5,3.3936788E5,3.2294162E5,9.314236E5,2.6024256E5,4.778948E5,4.5441912E5,0E0,0E0,0E0,0E0,0E0,0E0,0E0,0E0,0E0,0E0,0E0,0E0,0E0,0E0,0E0,0E0],"parents":[2147483647,0,0,1,1,2,2,3,3,4,4,5,5,6,6,7,7,8,8,9,9,10,10,11,11,12,12,13,13,14,14],"right_children":[2,4,6,8,10,12,14,16,18,20,22,24,26,28,30,-1,-1,-1,-1,-1,-1,-1,-1,-1,-1,-1,-1,-1,-1,-1,-1],"split_conditions":[-2.1353157E-1,-4.6859232E-1,-4.9039295E-1,-1.2069958E0,4.0916705E-1,-4.0153713E-17,1.0692387E-2,2.763437E-1,-2.4400055E0,4.5839742E-1,-1.8446107E0,-3.3224502E-1,-4.034072E-2,1.4061407E0,-3.5318695E-5,-4.2373595E0,-5.228551E-2,7.6943946E0,3.3532867E-1,-1.2576962E0,8.5885346E-1,-9.822618E0,-2.451085E0,-1.3938651E0,6.0153103E0,1.4713718E0,-1.7937173E0,-1.9578935E-1,-2.7987473E0,2.0003633E0,3.7678748E-1],"split_indices":[637,615,615,220,526,515,682,660,526,418,152,460,522,615,516,0,0,0,0,0,0,0,0,0,0,0,0,0,0,0,0],"split_type":[0,0,0,0,0,0,0,0,0,0,0,0,0,0,0,0,0,0,0,0,0,0,0,0,0,0,0,0,0,0,0],"sum_hessian":[3.01E4,1.1533E4,1.8567E4,5.823E3,5.71E3,2.382E3,1.6185E4,5.37E2,5.286E3,3.827E3,1.883E3,8.24E2,1.558E3,7.516E3,8.669E3,3.57E2,1.8E2,8.9E1,5.197E3,2.791E3,1.036E3,5.8E1,1.825E3,2.36E2,5.88E2,1.259E3,2.99E2,6.732E3,7.84E2,2.371E3,6.298E3],"tree_param":{"num_deleted":"0","num_feature":"704","num_nodes":"31","size_leaf_vector":"1"}},{"base_weights":[9.307608E-2,-5.406069E0,4.592548E0,-1.7885921E1,-1.0944805E0,2.89824E0,2.2135107E1,5.1034817E1,-2.7243338E1,-2.1920713E1,3.9007258E0,6.452052E0,-7.849977E0,9.174897E1,1.687292E1,1.6081733E0,9.630953E0,-3.6393254E0,1.1874329E0,-4.285643E-1,-3.8292668E0,1.0799598E0,-1.768019E0,-1.7120235E-1,1.1062145E0,-1.1917453E1,-6.454762E-1,1.36992E0,1.2714891E1,1.0721908E0,6.120503E0],"categories":[],"categories_nodes":[],"categories_segments":[],"categories_sizes":[],"default_left":[0,0,0,0,0,0,0,0,0,0,0,0,0,0,0,0,0,0,0,0,0,0,0,0,0,0,0,0,0,0,0],"id":44,"left_children":[1,3,5,7,9,11,13,15,17,19,21,23,25,27,29,-1,-1,-1,-1,-1,-1,-1,-1,-1,-1,-1,-1,-1,-1,-1,-1],"loss_changes":[7.409615E5,7.250344E5,4.892679E5,2.23698E6,1.04273956E6,5.740761E5,5.249519E5,6.505159E5,1.0930418E6,5.5916425E5,1.2044892E6,4.25114E5,5.770244E5,2.7206312E5,3.663066E5,0E0,0E0,0E0,0E0,0E0,0E0,0E0,0E0,0E0,0E0,0E0,0E0,0E0,0E0,0E0,0E0],"parents":[2147483647,0,0,1,1,2,2,3,3,4,4,5,5,6,6,7,7,8,8,9,9,10,10,11,11,12,12,13,13,14,14],"right_children":[2,4,6,8,10,12,14,16,18,20,22,24,26,28,30,-1,-1,-1,-1,-1,-1,-1,-1,-1,-1,-1,-1,-1,-1,-1,-1],"split_conditions":[-7.25958E-2,-4.0153713E-17,1.271005E0,-1.2249402E0,-1.0002134E0,6.3246655E-1,-1.3186251E0,1.0194254E0,1.224352E0,7.573261E-1,1.224352E0,-3.5985795E-1,-1.7160579E0,-5.7964844E-1,1.3670304E0,1.6081733E0,9.630953E0,-3.6393254E0,1.1874329E0,-4.285643E-1,-3.8292668E0,1.0799598E0,-1.768019E0,-1.7120235E-1,1.1062145E0,-1.1917453E1,-6.454762E-1,1.36992E0,1.2714891E1,1.0721908E0,6.120503E0],"split_indices":[308,515,548,514,426,594,594,544,360,499,382,616,682,627,660,0,0,0,0,0,0,0,0,0,0,0,0,0,0,0,0],"split_type":[0,0,0,0,0,0,0,0,0,0,0,0,0,0,0,0,0,0,0,0,0,0,0,0,0,0,0,0,0,0,0],"sum_hessian":[2.9938E4,1.3472E4,1.6466E4,3.456E3,1.0016E4,1.502E4,1.446E3,4.11E2,3.045E3,1.935E3,8.081E3,1.1289E4,3.731E3,9.7E1,1.349E3,2.35E2,1.76E2,2.468E3,5.77E2,9.34E2,1.001E3,6.125E3,1.956E3,4.075E3,7.214E3,4.2E1,3.689E3,3.2E1,6.5E1,1.189E3,1.6E2],"tree_param":{"num_deleted":"0","num_feature":"704","num_nodes":"31","size_leaf_vector":"1"}},{"base_weights":[5.8705735E-1,-3.8764496E0,5.7505045E0,-2.8705204E0,-4.927156E1,4.1357546E0,2.6519047E1,-9.0650475E-1,-2.1216045E1,-5.801543E1,5.8939156E1,1.0491346E1,-1.943639E0,2.9181488E1,-5.7744465E1,-1.4216954E0,2.0680963E-1,5.2042896E-1,-2.8962314E0,-1.0113437E1,-3.6671262E0,1.121678E1,-3.6976287E0,6.1388713E-1,3.0031238E0,9.780421E-1,-6.49249E-1,4.212168E0,7.913921E-1,-1.1703252E1,7.448942E-1],"categories":[],"categories_nodes":[],"categories_segments":[],"categories_sizes":[],"default_left":[0,0,0,0,0,0,0,0,0,0,0,0,0,0,0,0,0,0,0,0,0,0,0,0,0,0,0,0,0,0,0],"id":45,"left_children":[1,3,5,7,9,11,13,15,17,19,21,23,25,27,29,-1,-1,-1,-1,-1,-1,-1,-1,-1,-1,-1,-1,-1,-1,-1,-1],"loss_changes":[6.902574E5,7.329745E5,4.65236E5,5.663244E5,3.429482E5,4.9809038E5,2.3130569E5,5.6250294E5,3.116893E5,2.83327E5,1.5955778E5,5.3522075E5,3.5175803E5,2.6643244E5,1.2719508E5,0E0,0E0,0E0,0E0,0E0,0E0,0E0,0E0,0E0,0E0,0E0,0E0,0E0,0E0,0E0,0E0],"parents":[2147483647,0,0,1,1,2,2,3,3,4,4,5,5,6,6,7,7,8,8,9,9,10,10,11,11,12,12,13,13,14,14],"right_children":[2,4,6,8,10,12,14,16,18,20,22,24,26,28,30,-1,-1,-1,-1,-1,-1,-1,-1,-1,-1,-1,-1,-1,-1,-1,-1],"split_conditions":[9.183417E-2,1.2202977E0,1.4043838E0,1.997381E0,1.2704806E0,3.820454E-1,2.2602468E0,-8.3837956E-1,-4.0153713E-17,-8.623479E-1,3.9031613E-1,4.9224374E-1,-3.5318695E-5,7.2508E-1,5.625262E-1,-1.4216954E0,2.0680963E-1,5.2042896E-1,-2.8962314E0,-1.0113437E1,-3.6671262E0,1.121678E1,-3.6976287E0,6.1388713E-1,3.0031238E0,9.780421E-1,-6.49249E-1,4.212168E0,7.913921E-1,-1.1703252E1,7.448942E-1],"split_indices":[636,614,682,213,462,614,22,220,515,189,460,675,516,518,298,0,0,0,0,0,0,0,0,0,0,0,0,0,0,0,0],"split_type":[0,0,0,0,0,0,0,0,0,0,0,0,0,0,0,0,0,0,0,0,0,0,0,0,0,0,0,0,0,0,0],"sum_hessian":[2.9942E4,1.606E4,1.3882E4,1.5716E4,3.44E2,1.2885E4,9.97E2,1.42E4,1.516E3,3.2E2,2.4E1,6.298E3,6.587E3,9.69E2,2.8E1,2.591E3,1.1609E4,3.44E2,1.172E3,1.01E2,2.19E2,1.5E1,9E0,5.155E3,1.143E3,1.84E3,4.747E3,6E2,3.69E2,1.3E1,1.5E1],"tree_param":{"num_deleted":"0","num_feature":"704","num_nodes":"31","size_leaf_vector":"1"}},{"base_weights":[1.1482311E-1,-2.2782154E1,1.1245536E0,2.2862573E0,-3.1069256E1,6.401966E1,4.0379366E-1,-4.0465527E1,4.0710247E1,-5.0128735E1,-8.348146E0,4.5480232E1,1.3043289E2,-4.4232533E1,1.4208299E0,-6.2764196E0,5.5382676E0,1.5815698E0,1.1748912E1,-8.138314E0,-3.9143975E0,-1.1708001E0,1.2692541E1,3.430764E0,1.6662268E1,9.56391E-1,1.825119E1,-1.6862873E0,-6.271092E0,2.095516E0,2.778219E-2],"categories":[],"categories_nodes":[],"categories_segments":[],"categories_sizes":[],"default_left":[0,0,0,0,0,0,0,0,0,0,0,0,0,0,0,0,0,0,0,0,0,0,0,0,0,0,0,0,0,0,0],"id":46,"left_children":[1,3,5,7,9,11,13,15,17,19,21,23,25,27,29,-1,-1,-1,-1,-1,-1,-1,-1,-1,-1,-1,-1,-1,-1,-1,-1],"loss_changes":[6.946394E5,2.639175E5,1.3043652E6,5.3060894E5,4.114465E5,3.7762825E5,1.2919622E6,3.409107E5,3.174744E5,1.6507412E5,2.0590083E5,3.3035106E5,4.273165E5,3.1639762E5,6.212237E5,0E0,0E0,0E0,0E0,0E0,0E0,0E0,0E0,0E0,0E0,0E0,0E0,0E0,0E0,0E0,0E0],"parents":[2147483647,0,0,1,1,2,2,3,3,4,4,5,5,6,6,7,7,8,8,9,9,10,10,11,11,12,12,13,13,14,14],"right_children":[2,4,6,8,10,12,14,16,18,20,22,24,26,28,30,-1,-1,-1,-1,-1,-1,-1,-1,-1,-1,-1,-1,-1,-1,-1,-1],"split_conditions":[-1.3662093E0,-4.0153713E-17,-1.3662093E0,-7.9181686E-2,8.404543E-2,1.6384326E0,-1.3662093E0,1.8159876E0,2.0936012E-1,-1.0027622E0,2.258382E0,1.7107805E0,-1.0212116E0,-1.16361745E-1,-1.5086535E0,-6.2764196E0,5.5382676E0,1.5815698E0,1.1748912E1,-8.138314E0,-3.9143975E0,-1.1708001E0,1.2692541E1,3.430764E0,1.6662268E1,9.56391E-1,1.825119E1,-1.6862873E0,-6.271092E0,2.095516E0,2.778219E-2],"split_indices":[338,515,360,588,682,609,404,187,408,682,395,196,430,676,526,0,0,0,0,0,0,0,0,0,0,0,0,0,0,0,0],"split_type":[0,0,0,0,0,0,0,0,0,0,0,0,0,0,0,0,0,0,0,0,0,0,0,0,0,0,0,0,0,0,0],"sum_hessian":[3.0037E4,1.265E3,2.8772E4,3.15E2,9.5E2,3.22E2,2.845E4,1.49E2,1.66E2,5.14E2,4.36E2,2.57E2,6.5E1,6.3E2,2.782E4,1.22E2,2.7E1,1.29E2,3.7E1,1.27E2,3.87E2,4.29E2,7E0,2.4E2,1.7E1,2.1E1,4.4E1,2.57E2,3.73E2,1.534E3,2.6286E4],"tree_param":{"num_deleted":"0","num_feature":"704","num_nodes":"31","size_leaf_vector":"1"}},{"base_weights":[-5.103175E-1,9.7149935E0,-2.5057433E0,3.9725196E0,2.8125229E1,-4.298431E1,-1.9002036E0,1.8959049E0,5.289175E1,3.4680595E1,-8.258172E0,-9.685107E0,-9.200752E1,-9.771587E1,-1.6102759E0,-1.9861878E0,5.0490654E-1,2.2322881E0,1.2426834E1,7.840703E0,2.965098E0,-6.4143953E0,1.6690062E0,-1.0080937E1,1.2078377E0,-2.8486048E1,-6.697943E0,-1.5005777E1,5.9999335E-1,-2.5720558E-1,2.0495317E0],"categories":[],"categories_nodes":[],"categories_segments":[],"categories_sizes":[],"default_left":[0,0,0,0,0,0,0,0,0,0,0,0,0,0,0,0,0,0,0,0,0,0,0,0,0,0,0,0,0,0,0],"id":47,"left_children":[1,3,5,7,9,11,13,15,17,19,21,23,25,27,29,-1,-1,-1,-1,-1,-1,-1,-1,-1,-1,-1,-1,-1,-1,-1,-1],"loss_changes":[6.1580244E5,5.2053628E5,6.186256E5,3.8165438E5,2.8044188E5,6.036806E5,6.906187E5,2.4820223E5,3.2270556E5,2.0906688E5,2.5804555E5,4.5308722E5,6.4762175E5,4.1078138E5,5.277493E5,0E0,0E0,0E0,0E0,0E0,0E0,0E0,0E0,0E0,0E0,0E0,0E0,0E0,0E0,0E0,0E0],"parents":[2147483647,0,0,1,1,2,2,3,3,4,4,5,5,6,6,7,7,8,8,9,9,10,10,11,11,12,12,13,13,14,14],"right_children":[2,4,6,8,10,12,14,16,18,20,22,24,26,28,30,-1,-1,-1,-1,-1,-1,-1,-1,-1,-1,-1,-1,-1,-1,-1,-1],"split_conditions":[-8.3931893E-1,2.5999328E-1,-2.1301777E0,7.9649E-1,1.3225553E0,2.2606656E-1,-3.4924283E0,-1.844822E0,6.3276494E-1,-1.5075196E0,-5.0189394E-1,-1.2860873E0,-2.9897496E-1,2.6880732E-1,1.7713369E0,-1.9861878E0,5.0490654E-1,2.2322881E0,